{"learner":{"attributes":{},"feature_names":[],"feature_types":[],"gradient_booster":{"model":{"gbtree_model_param":{"num_parallel_tree":"1","num_trees":"1050"},"iteration_indptr":[0,5,10,15,20,25,30,35,40,45,50,55,60,65,70,75,80,85,90,95,100,105,110,115,120,125,130,135,140,145,150,155,160,165,170,175,180,185,190,195,200,205,210,215,220,225,230,235,240,245,250,255,260,265,270,275,280,285,290,295,300,305,310,315,320,325,330,335,340,345,350,355,360,365,370,375,380,385,390,395,400,405,410,415,420,425,430,435,440,445,450,455,460,465,470,475,480,485,490,495,500,505,510,515,520,525,530,535,540,545,550,555,560,565,570,575,580,585,590,595,600,605,610,615,620,625,630,635,640,645,650,655,660,665,670,675,680,685,690,695,700,705,710,715,720,725,730,735,740,745,750,755,760,765,770,775,780,785,790,795,800,805,810,815,820,825,830,835,840,845,850,855,860,865,870,875,880,885,890,895,900,905,910,915,920,925,930,935,940,945,950,955,960,965,970,975,980,985,990,995,1000,1005,1010,1015,1020,1025,1030,1035,1040,1045,1050],"tree_info":[0,1,2,3,4,0,1,2,3,4,0,1,2,3,4,0,1,2,3,4,0,1,2,3,4,0,1,2,3,4,0,1,2,3,4,0,1,2,3,4,0,1,2,3,4,0,1,2,3,4,0,1,2,3,4,0,1,2,3,4,0,1,2,3,4,0,1,2,3,4,0,1,2,3,4,0,1,2,3,4,0,1,2,3,4,0,1,2,3,4,0,1,2,3,4,0,1,2,3,4,0,1,2,3,4,0,1,2,3,4,0,1,2,3,4,0,1,2,3,4,0,1,2,3,4,0,1,2,3,4,0,1,2,3,4,0,1,2,3,4,0,1,2,3,4,0,1,2,3,4,0,1,2,3,4,0,1,2,3,4,0,1,2,3,4,0,1,2,3,4,0,1,2,3,4,0,1,2,3,4,0,1,2,3,4,0,1,2,3,4,0,1,2,3,4,0,1,2,3,4,0,1,2,3,4,0,1,2,3,4,0,1,2,3,4,0,1,2,3,4,0,1,2,3,4,0,1,2,3,4,0,1,2,3,4,0,1,2,3,4,0,1,2,3,4,0,1,2,3,4,0,1,2,3,4,0,1,2,3,4,0,1,2,3,4,0,1,2,3,4,0,1,2,3,4,0,1,2,3,4,0,1,2,3,4,0,1,2,3,4,0,1,2,3,4,0,1,2,3,4,0,1,2,3,4,0,1,2,3,4,0,1,2,3,4,0,1,2,3,4,0,1,2,3,4,0,1,2,3,4,0,1,2,3,4,0,1,2,3,4,0,1,2,3,4,0,1,2,3,4,0,1,2,3,4,0,1,2,3,4,0,1,2,3,4,0,1,2,3,4,0,1,2,3,4,0,1,2,3,4,0,1,2,3,4,0,1,2,3,4,0,1,2,3,4,0,1,2,3,4,0,1,2,3,4,0,1,2,3,4,0,1,2,3,4,0,1,2,3,4,0,1,2,3,4,0,1,2,3,4,0,1,2,3,4,0,1,2,3,4,0,1,2,3,4,0,1,2,3,4,0,1,2,3,4,0,1,2,3,4,0,1,2,3,4,0,1,2,3,4,0,1,2,3,4,0,1,2,3,4,0,1,2,3,4,0,1,2,3,4,0,1,2,3,4,0,1,2,3,4,0,1,2,3,4,0,1,2,3,4,0,1,2,3,4,0,1,2,3,4,0,1,2,3,4,0,1,2,3,4,0,1,2,3,4,0,1,2,3,4,0,1,2,3,4,0,1,2,3,4,0,1,2,3,4,0,1,2,3,4,0,1,2,3,4,0,1,2,3,4,0,1,2,3,4,0,1,2,3,4,0,1,2,3,4,0,1,2,3,4,0,1,2,3,4,0,1,2,3,4,0,1,2,3,4,0,1,2,3,4,0,1,2,3,4,0,1,2,3,4,0,1,2,3,4,0,1,2,3,4,0,1,2,3,4,0,1,2,3,4,0,1,2,3,4,0,1,2,3,4,0,1,2,3,4,0,1,2,3,4,0,1,2,3,4,0,1,2,3,4,0,1,2,3,4,0,1,2,3,4,0,1,2,3,4,0,1,2,3,4,0,1,2,3,4,0,1,2,3,4,0,1,2,3,4,0,1,2,3,4,0,1,2,3,4,0,1,2,3,4,0,1,2,3,4,0,1,2,3,4,0,1,2,3,4,0,1,2,3,4,0,1,2,3,4,0,1,2,3,4,0,1,2,3,4,0,1,2,3,4,0,1,2,3,4,0,1,2,3,4,0,1,2,3,4,0,1,2,3,4,0,1,2,3,4,0,1,2,3,4,0,1,2,3,4,0,1,2,3,4,0,1,2,3,4,0,1,2,3,4,0,1,2,3,4,0,1,2,3,4,0,1,2,3,4,0,1,2,3,4,0,1,2,3,4,0,1,2,3,4,0,1,2,3,4,0,1,2,3,4,0,1,2,3,4,0,1,2,3,4,0,1,2,3,4,0,1,2,3,4,0,1,2,3,4,0,1,2,3,4,0,1,2,3,4,0,1,2,3,4,0,1,2,3,4,0,1,2,3,4,0,1,2,3,4,0,1,2,3,4,0,1,2,3,4,0,1,2,3,4,0,1,2,3,4,0,1,2,3,4,0,1,2,3,4,0,1,2,3,4,0,1,2,3,4,0,1,2,3,4,0,1,2,3,4,0,1,2,3,4,0,1,2,3,4,0,1,2,3,4,0,1,2,3,4,0,1,2,3,4,0,1,2,3,4,0,1,2,3,4,0,1,2,3,4,0,1,2,3,4,0,1,2,3,4,0,1,2,3,4,0,1,2,3,4,0,1,2,3,4,0,1,2,3,4,0,1,2,3,4,0,1,2,3,4,0,1,2,3,4,0,1,2,3,4,0,1,2,3,4],"trees":[{"base_weights":[2.0247364E0,2.2164655E0,1.5702479E0,6.029106E-1,2.2484784E0,1.6973493E0,1.05067976E-1,1.226415E0,-1.452282E-1,2.2616441E0,-1.7241378E-1,1.732964E0,-1.554404E-1,-3.1604537E-1,1.2903225E0,1.6186862E-1,2.9411763E-1,-4.2177513E-2,5.670103E-1,1.5502182E0,2.2972782E0,-3.854867E-2,4.1684207E-2,-0E0,1.764875E0,-3.6742266E-2,1.2396694E-1,-4.273504E-1,7.642105E-2,1.596279E-1,1.7699115E-1,-3.7714284E-2,1.03068486E-1,9.138461E-2,-2.7789474E-2,1.6289592E0,-3.0461537E-2,-3.422222E-2,2.3049912E0,1.11157894E-1,-4.141176E-2,1.260997E0,1.8811527E0,-5.4246574E-3,2.169863E-2,-4.683871E-2,1.7241378E-1,6.0923073E-2,-3.2547943E-2,-3.0461537E-2,1.357183E-1,1.8290582E-1,-2.7789474E-2,1.07224606E-1,-3.7714284E-2,1.5194342E-1,1.3423728E-2,-3.6742266E-2,7.5945206E-2],"categories":[],"categories_nodes":[],"categories_segments":[],"categories_sizes":[],"default_left":[0,0,0,0,1,1,1,0,0,0,0,0,0,1,0,0,0,0,0,1,0,0,0,0,0,0,0,0,0,0,0,0,0,0,0,0,0,0,1,0,0,1,0,0,0,0,0,0,0,0,0,0,0,0,0,0,0,0,0],"id":0,"left_children":[1,3,5,7,9,11,13,15,17,19,21,23,25,27,29,-1,31,-1,33,35,37,-1,-1,39,41,-1,43,45,-1,-1,47,-1,-1,-1,-1,49,-1,-1,51,-1,-1,53,55,-1,-1,-1,57,-1,-1,-1,-1,-1,-1,-1,-1,-1,-1,-1,-1],"loss_changes":[1.1065381E2,4.610254E1,7.2829895E1,9.152952E0,2.9091797E1,2.4069336E1,1.6559536E1,7.4765244E0,2.9612627E0,1.9146484E1,1.5299615E0,1.9574219E1,7.229032E-1,3.931157E0,6.6512184E0,0E0,5.368175E0,0E0,2.4948173E0,7.6041718E0,1.890918E1,0E0,0E0,6.1644306E0,1.7991333E1,0E0,1.5849656E-1,2.4042864E0,0E0,0E0,1.8900192E0,0E0,0E0,0E0,0E0,8.193443E0,0E0,0E0,1.0785645E1,0E0,0E0,1.1645088E1,1.758612E1,0E0,0E0,0E0,3.3475692E0,0E0,0E0,0E0,0E0,0E0,0E0,0E0,0E0,0E0,0E0,0E0,0E0],"parents":[2147483647,0,0,1,1,2,2,3,3,4,4,5,5,6,6,7,7,8,8,9,9,10,10,11,11,12,12,13,13,14,14,16,16,18,18,19,19,20,20,23,23,24,24,26,26,27,27,30,30,35,35,38,38,41,41,42,42,46,46],"right_children":[2,4,6,8,10,12,14,16,18,20,22,24,26,28,30,-1,32,-1,34,36,38,-1,-1,40,42,-1,44,46,-1,-1,48,-1,-1,-1,-1,50,-1,-1,52,-1,-1,54,56,-1,-1,-1,58,-1,-1,-1,-1,-1,-1,-1,-1,-1,-1,-1,-1],"split_conditions":[5.3263284E-2,1.9530268E-1,1.0625374E-1,4.197792E-2,1.9809437E-1,1.4144799E-1,3.435734E-2,5.5847473E-2,3.9846886E-2,7.7130005E-2,5.5394918E-2,1.5232459E-1,4.6956837E-2,7.855156E-2,1.4979215E-1,1.6186862E-1,6.0285006E-2,-4.2177513E-2,5.0016906E-2,1.4931528E-1,1.5593013E-1,-3.854867E-2,4.1684207E-2,1.0286991E-1,4.4145938E-2,-3.6742266E-2,7.80499E-2,4.362648E-2,7.642105E-2,1.596279E-1,7.341313E-2,-3.7714284E-2,1.03068486E-1,9.138461E-2,-2.7789474E-2,1.09969616E-1,-3.0461537E-2,-3.422222E-2,2.1927597E-1,1.11157894E-1,-4.141176E-2,1.2472002E-1,1.06062405E-1,-5.4246574E-3,2.169863E-2,-4.683871E-2,3.1633183E-2,6.0923073E-2,-3.2547943E-2,-3.0461537E-2,1.357183E-1,1.8290582E-1,-2.7789474E-2,1.07224606E-1,-3.7714284E-2,1.5194342E-1,1.3423728E-2,-3.6742266E-2,7.5945206E-2],"split_indices":[2883,2444,1173,955,1298,1298,2959,3894,3934,2908,212,2444,4464,374,1174,0,4917,0,212,2814,1171,0,0,1663,4983,0,1402,2578,0,0,579,0,0,0,0,3035,0,0,1636,0,0,4190,2789,0,0,0,3022,0,0,0,0,0,0,0,0,0,0,0,0],"split_type":[0,0,0,0,0,0,0,0,0,0,0,0,0,0,0,0,0,0,0,0,0,0,0,0,0,0,0,0,0,0,0,0,0,0,0,0,0,0,0,0,0,0,0,0,0,0,0,0,0,0,0,0,0,0,0,0,0,0,0],"sum_hessian":[1.3088E3,9.177601E2,3.9104004E2,1.8240002E1,8.995201E2,3.5968002E2,3.1360003E1,9.6E0,8.64E0,8.947201E2,4.8E0,3.5296002E2,6.7200003E0,2.3680002E1,7.6800003E0,4.4800005E0,5.1200004E0,5.76E0,2.88E0,4.4800003E1,8.4992004E2,3.5200002E0,1.2800001E0,6.4000006E0,3.4656003E2,2.88E0,3.8400002E0,2.2400002E1,1.2800001E0,4.1600003E0,3.5200002E0,3.2000003E0,1.9200001E0,1.6000001E0,1.2800001E0,4.3200005E1,1.6000001E0,2.2400002E0,8.4768005E2,1.2800001E0,5.1200004E0,6.7200005E1,2.7936002E2,1.9200001E0,1.9200001E0,1.76E1,4.8E0,1.6000001E0,1.9200001E0,1.6000001E0,4.1600002E1,8.464001E2,1.2800001E0,6.400001E1,3.2000003E0,2.7328003E2,6.0800004E0,2.88E0,1.9200001E0],"tree_param":{"num_deleted":"0","num_feature":"5000","num_nodes":"59","size_leaf_vector":"1"}},{"base_weights":[-4.9294695E-1,1.4061654E-1,-5.305117E-1,1.2033194E0,-1.8371096E-2,-3.0802432E-1,-5.739771E-1,-3.422222E-2,1.7567567E0,-1.1851377E-1,1.265567E-1,1.12444445E-1,-3.3425906E-1,5.839416E-1,-5.7959723E-1,1.6386206E-1,3.0461537E-2,1.11157894E-1,-1.7331588E-1,-3.8908857E-1,4.5994064E-1,-3.422222E-2,1.12444445E-1,3.0042917E-1,-5.870803E-1,1.11157894E-1,-2.3046091E-1,-4.1800642E-1,9.7887635E-2,1.32E-1,-7.782101E-2,-3.726708E-1,1.06144324E-1,4.575163E-1,-5.928089E-1,-2.2830471E-2,9.138461E-2,-3.465107E-2,7.5945206E-2,7.5945206E-2,-3.410526E-2,-3.9906975E-2,6.9473684E-3,-1.8857142E-2,1.03068486E-1,-4.725668E-2,4.4907216E-2],"categories":[],"categories_nodes":[],"categories_segments":[],"categories_sizes":[],"default_left":[0,0,0,1,1,0,0,0,1,0,0,0,1,1,0,0,0,0,0,1,1,0,0,1,0,0,1,1,0,0,0,0,0,0,1,0,0,0,0,0,0,0,0,0,0,0,0],"id":1,"left_children":[1,3,5,7,9,11,13,-1,15,17,-1,-1,19,21,23,-1,-1,-1,25,27,29,-1,-1,31,33,-1,35,37,-1,-1,39,41,-1,43,45,-1,-1,-1,-1,-1,-1,-1,-1,-1,-1,-1,-1],"loss_changes":[3.1186493E1,1.2518139E1,1.1759277E1,9.484268E0,1.0762174E1,9.716E0,7.050476E0,0E0,2.3743649E0,5.4513745E0,0E0,0E0,8.959488E0,5.2671885E0,6.9388733E0,0E0,0E0,0E0,5.8344407E0,9.405785E0,8.877291E0,0E0,0E0,7.0222807E0,6.3666687E0,0E0,5.1240053E0,5.431526E0,0E0,0E0,4.1729136E0,4.3321145E-1,0E0,3.9022553E0,4.882965E0,0E0,0E0,0E0,0E0,0E0,0E0,0E0,0E0,0E0,0E0,0E0,0E0],"parents":[2147483647,0,0,1,1,2,2,3,3,4,4,5,5,6,6,8,8,9,9,12,12,13,13,14,14,18,18,19,19,20,20,23,23,24,24,26,26,27,27,30,30,31,31,33,33,34,34],"right_children":[2,4,6,8,10,12,14,-1,16,18,-1,-1,20,22,24,-1,-1,-1,26,28,30,-1,-1,32,34,-1,36,38,-1,-1,40,42,-1,44,46,-1,-1,-1,-1,-1,-1,-1,-1,-1,-1,-1,-1],"split_conditions":[4.2878117E-2,9.050816E-2,6.4257674E-2,2.075922E-2,3.758228E-2,1.02163866E-1,1.324198E-1,-3.422222E-2,5.227452E-2,1.4972459E-1,1.265567E-1,1.12444445E-1,1.2109935E-1,7.73863E-2,1.836983E-1,1.6386206E-1,3.0461537E-2,1.11157894E-1,1.5739965E-1,1.1954906E-1,5.7525557E-2,-3.422222E-2,1.12444445E-1,3.1712994E-2,2.4589482E-1,1.11157894E-1,1.2357135E-1,1.447947E-1,9.7887635E-2,1.32E-1,7.161225E-2,3.3990424E-2,1.06144324E-1,4.44952E-2,1.4382371E-1,-2.2830471E-2,9.138461E-2,-3.465107E-2,7.5945206E-2,7.5945206E-2,-3.410526E-2,-3.9906975E-2,6.9473684E-3,-1.8857142E-2,1.03068486E-1,-4.725668E-2,4.4907216E-2],"split_indices":[4462,1627,4691,2295,4043,2446,3956,0,270,3090,0,0,621,1473,287,0,0,0,3282,1663,1643,0,0,4279,572,0,30,93,0,0,1722,88,0,1005,2152,0,0,0,0,0,0,0,0,0,0,0,0],"split_type":[0,0,0,0,0,0,0,0,0,0,0,0,0,0,0,0,0,0,0,0,0,0,0,0,0,0,0,0,0,0,0,0,0,0,0,0,0,0,0,0,0,0,0,0,0,0,0],"sum_hessian":[1.3062401E3,7.296001E1,1.23328E3,8.64E0,6.432001E1,2.0288002E2,1.0304E3,2.2400002E0,6.4000006E0,6.1440002E1,2.88E0,2.2400002E0,2.0064001E2,4.4800005E0,1.02592E3,4.8E0,1.6000001E0,1.2800001E0,6.0160004E1,1.8816002E2,1.24800005E1,2.2400002E0,2.2400002E0,8.320001E0,1.0176001E3,1.2800001E0,5.8880005E1,1.856E2,2.5600002E0,3.2000003E0,9.280001E0,5.4400005E0,2.88E0,5.1200004E0,1.01248004E3,5.7280003E1,1.6000001E0,1.8368001E2,1.9200001E0,1.9200001E0,7.3600006E0,4.1600003E0,1.2800001E0,3.2000003E0,1.9200001E0,1.0096001E3,2.88E0],"tree_param":{"num_deleted":"0","num_feature":"5000","num_nodes":"47","size_leaf_vector":"1"}},{"base_weights":[-5.441279E-1,5.086372E-1,-5.606037E-1,1.26943E0,5.665722E-2,3.8175043E-1,-5.7600224E-1,-3.0461537E-2,1.7647058E0,5.405405E-1,-4.1450775E-1,-4.0965516E-2,6.714628E-1,9.7887635E-2,-5.806077E-1,1.570909E-1,4.1684207E-2,-3.6742266E-2,1.2831858E0,6.9473684E-3,-4.1813664E-2,1.1867703E0,-1.3513513E-1,-5.83671E-1,6.355555E-2,6.9473684E-3,1.3688888E-1,1.7241378E-1,1.6186862E-1,-4.0965516E-2,6.0923073E-2,5.3393256E-2,-5.867355E-1,7.5945206E-2,-3.6742266E-2,1.7343065E-2,-4.6708908E-2],"categories":[],"categories_nodes":[],"categories_segments":[],"categories_sizes":[],"default_left":[0,1,0,0,0,0,0,0,0,0,0,0,1,0,1,0,0,0,1,0,0,0,1,0,0,0,0,0,0,0,0,0,0,0,0,0,0],"id":2,"left_children":[1,3,5,7,9,11,13,-1,15,17,19,-1,21,-1,23,-1,-1,-1,25,-1,-1,27,29,31,-1,-1,-1,33,-1,-1,-1,-1,35,-1,-1,-1,-1],"loss_changes":[2.3153656E1,7.0941863E0,1.906369E1,7.003023E0,3.4432611E0,5.9417543E0,1.1383453E1,0E0,6.140785E-1,6.115367E0,4.861499E-1,0E0,7.0933504E0,0E0,5.87265E0,0E0,0E0,0E0,2.2540784E0,0E0,0E0,8.584322E0,2.9550505E0,5.3036194E0,0E0,0E0,0E0,3.3475692E0,0E0,0E0,0E0,0E0,3.2248535E0,0E0,0E0,0E0,0E0],"parents":[2147483647,0,0,1,1,2,2,3,3,4,4,5,5,6,6,8,8,9,9,10,10,12,12,14,14,18,18,21,21,22,22,23,23,27,27,32,32],"right_children":[2,4,6,8,10,12,14,-1,16,18,20,-1,22,-1,24,-1,-1,-1,26,-1,-1,28,30,32,-1,-1,-1,34,-1,-1,-1,-1,36,-1,-1,-1,-1],"split_conditions":[1.677345E-1,2.8081981E-2,1.9362433E-1,7.913072E-2,4.8200466E-2,1.4538981E-1,1.763933E-1,-3.0461537E-2,2.708889E-2,7.701057E-2,3.3681694E-2,-4.0965516E-2,2.9665578E-2,9.7887635E-2,1.5599401E-1,1.570909E-1,4.1684207E-2,-3.6742266E-2,2.882079E-2,6.9473684E-3,-4.1813664E-2,2.5019543E-2,5.6767855E-2,1.172177E-1,6.355555E-2,6.9473684E-3,1.3688888E-1,3.0976212E-2,1.6186862E-1,-4.0965516E-2,6.0923073E-2,5.3393256E-2,1.2075068E-1,7.5945206E-2,-3.6742266E-2,1.7343065E-2,-4.6708908E-2],"split_indices":[2418,782,4504,4520,1788,1045,1143,0,34,2433,88,0,1228,0,1523,0,0,0,1228,0,0,1749,4953,407,0,0,0,899,0,0,0,0,4190,0,0,0,0],"split_type":[0,0,0,0,0,0,0,0,0,0,0,0,0,0,0,0,0,0,0,0,0,0,0,0,0,0,0,0,0,0,0,0,0,0,0,0,0],"sum_hessian":[1.3174401E3,1.9840002E1,1.2976001E3,6.7200003E0,1.3120001E1,2.0480001E1,1.2771201E3,1.6000001E0,5.1200004E0,6.4000006E0,6.7200003E0,4.8E0,1.5680001E1,2.5600002E0,1.27456E3,3.8400002E0,1.2800001E0,2.88E0,3.5200002E0,1.2800001E0,5.4400005E0,9.280001E0,6.4000006E0,1.2723201E3,2.2400002E0,1.2800001E0,2.2400002E0,4.8E0,4.4800005E0,4.8E0,1.6000001E0,2.5600002E0,1.2697601E3,1.9200001E0,2.88E0,4.4800005E0,1.26528E3],"tree_param":{"num_deleted":"0","num_feature":"5000","num_nodes":"37","size_leaf_vector":"1"}},{"base_weights":[-6.039706E-1,7.5945206E-2,-6.0698926E-1,-6.099764E-1,9.31677E-2,5.9171595E-2,-6.1298555E-1,-3.1007752E-1,7.642105E-2,-3.854867E-2,6.355555E-2,-6.1526835E-1,2.3809522E-1,-3.6742266E-2,6.9473684E-3,4.1684207E-2,-6.168019E-1,-3.2547943E-2,7.642105E-2,3.0461537E-2,-4.897228E-2],"categories":[],"categories_nodes":[],"categories_segments":[],"categories_sizes":[],"default_left":[0,0,1,0,0,0,1,1,0,0,0,0,0,0,0,0,0,0,0,0,0],"id":3,"left_children":[1,-1,3,5,7,9,11,13,-1,-1,-1,15,17,-1,-1,-1,19,-1,-1,-1,-1],"loss_changes":[6.7795105E0,0E0,2.800232E0,2.6665955E0,2.5630302E0,3.1335475E0,2.6732178E0,3.5647136E-1,0E0,0E0,0E0,2.5958557E0,2.3778622E0,0E0,0E0,0E0,2.2299805E0,0E0,0E0,0E0,0E0],"parents":[2147483647,0,0,2,2,3,3,4,4,5,5,6,6,7,7,11,11,12,12,16,16],"right_children":[2,-1,4,6,8,10,12,14,-1,-1,-1,16,18,-1,-1,-1,20,-1,-1,-1,-1],"split_conditions":[4.4015923E-1,7.5945206E-2,1.4383674E-1,9.7012185E-2,4.90719E-2,2.8433248E-2,1.7726053E-1,4.6739057E-2,7.642105E-2,-3.854867E-2,6.355555E-2,1.7026648E-1,4.342986E-2,-3.6742266E-2,6.9473684E-3,4.1684207E-2,1.7005906E-1,-3.2547943E-2,7.642105E-2,3.0461537E-2,-4.897228E-2],"split_indices":[2165,0,489,836,899,156,464,54,0,0,0,38,212,0,0,0,572,0,0,0,0],"split_type":[0,0,0,0,0,0,0,0,0,0,0,0,0,0,0,0,0,0,0,0,0],"sum_hessian":[1.3126401E3,1.9200001E0,1.3107201E3,1.3052802E3,5.4400005E0,5.76E0,1.2995201E3,4.1600003E0,1.2800001E0,3.5200002E0,2.2400002E0,1.2963201E3,3.2000003E0,2.88E0,1.2800001E0,1.2800001E0,1.29504E3,1.9200001E0,1.2800001E0,1.6000001E0,1.2934401E3],"tree_param":{"num_deleted":"0","num_feature":"5000","num_nodes":"21","size_leaf_vector":"1"}},{"base_weights":[-3.665944E-1,-3.8461536E-1,1.8131868E0,-4.518276E-1,4.2783156E-2,1.5281327E-1,4.1684207E-2,-4.593166E-1,1.5044247E0,1.7091621E-1,-4.682274E-1,1.3019177E-1,-4.643968E-1,1.3688888E-1,4.1684207E-2,-1.09318055E-1,4.9013746E-1,-5.484247E-1,6.0923073E-2,-4.6936065E-1,1.0824742E0,-2.2046353E-1,1.016949E0,-4.8042703E-1,6.73959E-1,-5.7575756E-1,6.9473684E-3,1.11157894E-1,-3.744351E-2,6.9473684E-3,1.2184615E-1,-2.9863313E-2,1.3681381E-2,6.9473684E-3,9.55862E-2,-4.4530116E-2,6.9473684E-3,1.888359E-2,8.528395E-2,-4.7838923E-2,-1.8857142E-2],"categories":[],"categories_nodes":[],"categories_segments":[],"categories_sizes":[],"default_left":[1,0,1,1,1,0,0,0,0,0,1,0,0,0,0,1,0,1,0,0,0,1,0,1,0,1,0,0,0,0,0,0,0,0,0,0,0,0,0,0,0],"id":4,"left_children":[1,3,5,7,9,-1,-1,11,13,15,17,-1,19,-1,-1,21,23,25,-1,27,29,31,33,35,37,39,-1,-1,-1,-1,-1,-1,-1,-1,-1,-1,-1,-1,-1,-1,-1],"loss_changes":[5.217372E1,3.7378586E1,6.1845016E-1,1.7156372E1,1.1711425E1,0E0,0E0,1.273381E1,8.050251E-2,1.2824426E1,3.9826255E0,0E0,9.095917E0,0E0,0E0,9.842993E0,1.2263029E1,6.465521E-1,0E0,7.790085E0,1.6249976E0,4.422241E0,1.143786E0,5.7183194E-1,9.688154E0,1.711855E-1,0E0,0E0,0E0,0E0,0E0,0E0,0E0,0E0,0E0,0E0,0E0,0E0,0E0,0E0,0E0],"parents":[2147483647,0,0,1,1,2,2,3,3,4,4,7,7,8,8,9,9,10,10,12,12,15,15,16,16,17,17,19,19,20,20,21,21,22,22,23,23,24,24,25,25],"right_children":[2,4,6,8,10,-1,-1,12,14,16,18,-1,20,-1,-1,22,24,26,-1,28,30,32,34,36,38,40,-1,-1,-1,-1,-1,-1,-1,-1,-1,-1,-1,-1,-1,-1,-1],"split_conditions":[1.9809437E-1,4.2804495E-2,7.126512E-2,1.8844324E-1,6.135558E-2,1.5281327E-1,4.1684207E-2,2.3582986E-1,4.8703287E-2,1.06841244E-1,1.521156E-1,1.3019177E-1,4.1602854E-2,1.3688888E-1,4.1684207E-2,1.863616E-1,1.733534E-1,1.1425349E-1,6.0923073E-2,4.9329227E-1,2.4988964E-2,9.183959E-2,5.3272247E-2,1.5277886E-1,5.98337E-2,7.6196365E-2,6.9473684E-3,1.11157894E-1,-3.744351E-2,6.9473684E-3,1.2184615E-1,-2.9863313E-2,1.3681381E-2,6.9473684E-3,9.55862E-2,-4.4530116E-2,6.9473684E-3,1.888359E-2,8.528395E-2,-4.7838923E-2,-1.8857142E-2],"split_indices":[1298,4577,3734,4013,1399,0,0,3208,345,2844,879,0,4708,0,0,1273,293,3967,0,425,34,429,2224,215,1135,3734,0,0,0,0,0,0,0,0,0,0,0,0,0,0,0],"split_type":[0,0,0,0,0,0,0,0,0,0,0,0,0,0,0,0,0,0,0,0,0,0,0,0,0,0,0,0,0,0,0,0,0,0,0,0,0,0,0,0,0],"sum_hessian":[1.3094401E3,1.2995201E3,9.920001E0,1.1228801E3,1.7664001E2,8.64E0,1.2800001E0,1.1193601E3,3.5200002E0,1.4176001E2,3.488E1,1.9200001E0,1.1174401E3,2.2400002E0,1.2800001E0,7.5840004E1,6.5920006E1,3.3280003E1,1.6000001E0,1.11456E3,2.88E0,6.976E1,6.0800004E0,1.0240001E1,5.5680004E1,3.2000004E1,1.2800001E0,1.2800001E0,1.11328E3,1.2800001E0,1.6000001E0,4.9920002E1,1.9840002E1,1.2800001E0,4.8E0,8.960001E0,1.2800001E0,2.7520002E1,2.8160002E1,2.8800001E1,3.2000003E0],"tree_param":{"num_deleted":"0","num_feature":"5000","num_nodes":"41","size_leaf_vector":"1"}},{"base_weights":[1.7081338E0,5.09267E-1,1.7529697E0,-1.0640864E-1,1.431426E0,1.7689027E0,-2.4383408E-1,7.050831E-1,-3.704495E-1,-2.7738014E-2,1.5583317E0,4.2864072E-1,1.7937028E0,3.9540697E-2,-3.8092726E-1,-2.579526E-1,1.3596693E0,7.465278E-1,-5.125305E-1,-2.7285226E-2,1.6983931E0,9.5112E-1,-2.5453293E-1,1.4322642E0,1.86748E0,-4.5306453E-1,7.054286E-3,-3.4904703E-2,1.3147884E-2,1.2359041E-1,3.6607224E-2,9.054652E-2,5.865214E-3,-4.7112584E-2,4.061443E-2,1.5825808E-1,4.6448168E-1,-3.219651E-2,1.1693641E0,-3.95258E-1,5.357571E-2,-3.2732216E-1,1.4649038E0,1.8876406E0,8.579773E-1,-4.3136053E-2,2.8742736E-4,1.231538E-3,8.8483915E-2,1.2843849E-1,2.4861906E-2,-4.3505363E-2,3.3523168E-3,1.3571625E-2,-3.8900763E-2,4.8672846E-3,1.1869589E-1,-2.3948235E-2,1.5011226E-1,-2.0281088E-2,8.2236506E-2],"categories":[],"categories_nodes":[],"categories_segments":[],"categories_sizes":[],"default_left":[1,1,1,0,0,0,1,0,0,0,0,0,0,0,1,0,0,1,1,0,0,1,1,0,1,1,0,0,0,0,0,0,0,0,0,0,1,0,1,0,0,0,0,0,1,0,0,0,0,0,0,0,0,0,0,0,0,0,0,0,0],"id":5,"left_children":[1,3,5,7,9,11,13,15,17,-1,19,21,23,-1,25,27,29,31,33,-1,35,37,39,41,43,45,-1,-1,-1,-1,-1,-1,-1,-1,-1,-1,47,-1,49,51,-1,53,55,57,59,-1,-1,-1,-1,-1,-1,-1,-1,-1,-1,-1,-1,-1,-1,-1,-1],"loss_changes":[7.85459E1,3.120082E1,4.5740723E1,7.4870615E0,5.511688E0,4.6198242E1,1.4281886E0,5.7869053E0,4.5247416E0,0E0,6.09832E0,9.874418E0,3.431201E1,0E0,4.0743506E-1,4.0868047E-1,2.3271942E-1,8.0973434E-1,2.309626E0,0E0,6.262375E0,5.0686464E0,1.9028634E0,1.4229828E1,2.1757324E1,4.0143335E-1,0E0,0E0,0E0,0E0,0E0,0E0,0E0,0E0,0E0,0E0,1.477799E0,0E0,4.7585945E0,7.9681265E-1,0E0,5.072207E-1,1.1060913E1,1.9589111E1,5.153164E0,0E0,0E0,0E0,0E0,0E0,0E0,0E0,0E0,0E0,0E0,0E0,0E0,0E0,0E0,0E0,0E0],"parents":[2147483647,0,0,1,1,2,2,3,3,4,4,5,5,6,6,7,7,8,8,10,10,11,11,12,12,14,14,15,15,16,16,17,17,18,18,20,20,21,21,22,22,23,23,24,24,25,25,36,36,38,38,39,39,41,41,42,42,43,43,44,44],"right_children":[2,4,6,8,10,12,14,16,18,-1,20,22,24,-1,26,28,30,32,34,-1,36,38,40,42,44,46,-1,-1,-1,-1,-1,-1,-1,-1,-1,-1,48,-1,50,52,-1,54,56,58,60,-1,-1,-1,-1,-1,-1,-1,-1,-1,-1,-1,-1,-1,-1,-1,-1],"split_conditions":[2.0623054E-2,3.435734E-2,1.9120187E-1,5.420912E-2,1.3884553E-1,1.9676875E-1,5.0714713E-2,3.0061316E-2,1.03124656E-1,-2.7738014E-2,1.8235517E-1,4.2444922E-2,6.4257674E-2,3.9540697E-2,1.6694728E-1,3.718603E-2,3.6721785E-2,2.1542408E-2,9.327696E-2,-2.7285226E-2,2.8826728E-2,2.5630625E-2,7.0364594E-2,1.440396E-1,1.310682E-1,1.02552705E-1,7.054286E-3,-3.4904703E-2,1.3147884E-2,1.2359041E-1,3.6607224E-2,9.054652E-2,5.865214E-3,-4.7112584E-2,4.061443E-2,1.5825808E-1,7.8506514E-2,-3.219651E-2,4.6525773E-2,4.0180396E-2,5.357571E-2,2.8531123E-2,1.4114852E-1,1.873606E-1,6.3601494E-2,-4.3136053E-2,2.8742736E-4,1.231538E-3,8.8483915E-2,1.2843849E-1,2.4861906E-2,-4.3505363E-2,3.3523168E-3,1.3571625E-2,-3.8900763E-2,4.8672846E-3,1.1869589E-1,-2.3948235E-2,1.5011226E-1,-2.0281088E-2,8.2236506E-2],"split_indices":[1173,2959,1298,2224,30,2444,212,3522,4083,0,1151,955,4691,0,3621,1623,655,372,2430,0,3731,1228,632,2093,3958,270,0,0,0,0,0,0,0,0,0,0,632,0,2109,3134,0,2946,2197,4709,912,0,0,0,0,0,0,0,0,0,0,0,0,0,0,0,0],"split_type":[0,0,0,0,0,0,0,0,0,0,0,0,0,0,0,0,0,0,0,0,0,0,0,0,0,0,0,0,0,0,0,0,0,0,0,0,0,0,0,0,0,0,0,0,0,0,0,0,0,0,0,0,0,0,0,0,0,0,0,0,0],"sum_hessian":[1.4768594E3,5.368684E1,1.4231725E3,3.2723644E1,2.0963196E1,1.4120199E3,1.1152613E1,7.623514E0,2.5100132E1,1.2768934E0,1.9686302E1,2.5985533E1,1.3860343E3,1.3256279E0,9.826985E0,3.3301234E0,4.2933908E0,2.352397E0,2.2747734E1,1.2496141E0,1.8436687E1,1.4502254E1,1.1483278E1,2.3841908E2,1.1476152E3,8.550621E0,1.2763636E0,2.299377E0,1.0307465E0,2.9046564E0,1.3887341E0,1.0392072E0,1.3131897E0,2.1445686E1,1.3020481E0,1.4334332E1,4.102356E0,1.8889397E0,1.2613314E1,1.0475319E1,1.0079596E0,4.1776056E0,2.3424147E2,1.1242924E3,2.3322874E1,6.9619303E0,1.588691E0,3.0372565E0,1.0650995E0,7.6647344E0,4.9485793E0,7.5588875E0,2.9164314E0,1.0218209E0,3.1557846E0,5.57204E0,2.2866943E2,3.8133106E0,1.1204791E3,3.1912968E0,2.0131577E1],"tree_param":{"num_deleted":"0","num_feature":"5000","num_nodes":"61","size_leaf_vector":"1"}},{"base_weights":[-4.872454E-1,-1.7785881E-1,-5.5977184E-1,1.0739779E-2,-4.5883688E-1,7.77082E-1,-5.6443745E-1,-3.2798715E-2,1.3365433E-1,-4.9776164E-1,9.037318E-2,-2.8142419E-2,1.15224995E-1,-5.682369E-1,6.643117E-2,1.2569249E0,-8.490367E-2,-5.278593E-1,7.76709E-2,-5.72899E-1,4.4932234E-1,1.4271137E-1,-2.753512E-2,-1.4803049E-1,9.970666E-1,-5.584874E-1,7.2211616E-2,2.2322656E-1,-5.7851803E-1,-3.227237E-2,8.3974436E-2,-1.563432E-2,1.05823606E-1,-3.0332245E-3,1.462623E-1,2.5699634E-2,-4.670741E-2,-2.8714111E-2,1.2512206E-1,6.049226E-2,-4.604793E-2],"categories":[],"categories_nodes":[],"categories_segments":[],"categories_sizes":[],"default_left":[0,1,0,1,1,0,1,0,0,1,0,0,0,1,0,0,1,1,0,0,0,0,0,1,0,0,0,0,0,0,0,0,0,0,0,0,0,0,0,0,0],"id":6,"left_children":[1,3,5,7,9,11,13,15,-1,17,-1,-1,-1,19,-1,21,23,25,-1,27,29,-1,-1,31,33,35,-1,37,39,-1,-1,-1,-1,-1,-1,-1,-1,-1,-1,-1,-1],"loss_changes":[2.836142E1,1.2846836E1,6.8446045E0,1.071296E1,6.6308002E0,3.5814745E0,5.9362793E0,9.734543E0,0E0,4.777807E0,0E0,0E0,0E0,5.1052246E0,0E0,5.546814E0,9.617064E0,4.6750107E0,0E0,4.681671E0,3.165113E0,0E0,0E0,9.926958E0,6.9082804E0,2.7613144E0,0E0,6.8140597E0,4.3724365E0,0E0,0E0,0E0,0E0,0E0,0E0,0E0,0E0,0E0,0E0,0E0,0E0],"parents":[2147483647,0,0,1,1,2,2,3,3,4,4,5,5,6,6,7,7,9,9,13,13,15,15,16,16,17,17,19,19,20,20,23,23,24,24,25,25,27,27,28,28],"right_children":[2,4,6,8,10,12,14,16,-1,18,-1,-1,-1,20,-1,22,24,26,-1,28,30,-1,-1,32,34,36,-1,38,40,-1,-1,-1,-1,-1,-1,-1,-1,-1,-1,-1,-1],"split_conditions":[5.0188232E-2,3.0875592E-2,1.02163866E-1,4.9063396E-2,1.3247855E-1,2.2575743E-2,1.7566949E-1,1.03716366E-1,1.3365433E-1,1.1440063E-1,9.037318E-2,-2.8142419E-2,1.15224995E-1,1.8726346E-1,6.643117E-2,2.6885932E-2,8.481189E-2,1.2109935E-1,7.76709E-2,1.6624846E-1,5.126362E-2,1.4271137E-1,-2.753512E-2,1.1068461E-1,3.8563352E-2,1.2535125E-1,7.2211616E-2,3.0048609E-2,1.7235278E-1,-3.227237E-2,8.3974436E-2,-1.563432E-2,1.05823606E-1,-3.0332245E-3,1.462623E-1,2.5699634E-2,-4.670741E-2,-2.8714111E-2,1.2512206E-1,6.049226E-2,-4.604793E-2],"split_indices":[3734,4877,2446,2109,922,874,226,2446,0,551,0,0,0,572,0,1420,3236,43,0,866,673,0,0,1174,3265,1286,0,1093,4042,0,0,0,0,0,0,0,0,0,0,0,0],"split_type":[0,0,0,0,0,0,0,0,0,0,0,0,0,0,0,0,0,0,0,0,0,0,0,0,0,0,0,0,0,0,0,0,0,0,0,0,0,0,0,0,0],"sum_hessian":[1.2673883E3,2.4133643E2,1.0260519E3,1.4498267E2,9.635375E1,2.9927087E0,1.02305914E3,1.4226909E2,2.7135768E0,9.473773E1,1.6160198E0,1.2986673E0,1.6940415E0,1.02089E3,2.1691468E0,4.626601E0,1.3764249E2,9.347772E1,1.2600069E0,1.01666895E3,4.2210374E0,3.3618147E0,1.2647864E0,1.3087015E2,6.772344E0,9.212971E1,1.3480123E0,6.8539863E0,1.009815E3,1.8956544E0,2.325383E0,1.274959E2,3.374248E0,3.48305E0,3.289294E0,2.828673E0,8.930104E1,5.2987404E0,1.5552461E0,1.6077511E0,1.0082072E3],"tree_param":{"num_deleted":"0","num_feature":"5000","num_nodes":"41","size_leaf_vector":"1"}},{"base_weights":[-5.3471965E-1,4.06648E-1,-5.5205244E-1,1.9936371E-1,1.2363366E-1,-5.764622E-1,6.0368095E-2,9.584979E-1,-9.580719E-2,1.1158677E0,-5.8292407E-1,1.4265441E0,-8.155116E-2,1.3767709E0,-2.7516803E-2,6.9676995E-2,-2.4675715E-1,-7.6343404E-4,1.3245985E-1,7.934331E-2,-5.8538127E-1,1.322281E-1,3.800285E-2,1.21591896E-1,-1.9348767E-1,3.8828995E-2,1.2510754E-1,-4.9142691E-1,6.384293E-1,-5.893334E-1,-1.3925696E-3,7.506228E-1,-3.640139E-1,1.4442637E-2,-4.4992983E-2,1.02537364E-1,-2.726903E-2,2.373779E-2,-4.686705E-2,9.08555E-2,-4.195852E-2,-1.617249E-2,1.1632923E-1,-3.4739602E-2,9.1053404E-2],"categories":[],"categories_nodes":[],"categories_segments":[],"categories_sizes":[],"default_left":[0,1,0,1,0,0,0,1,0,0,0,1,0,0,0,0,1,0,0,0,1,0,0,0,0,0,0,0,0,0,1,0,1,0,0,0,0,0,0,0,0,0,0,0,0],"id":7,"left_children":[1,3,5,7,-1,9,11,13,15,17,19,21,23,25,-1,-1,27,-1,-1,-1,29,-1,-1,-1,31,-1,-1,33,35,37,39,41,43,-1,-1,-1,-1,-1,-1,-1,-1,-1,-1,-1,-1],"loss_changes":[2.1099518E1,5.361367E0,1.8820831E1,4.852058E0,0E0,1.3867218E1,9.63105E0,3.7767768E0,2.6035357E0,3.1110978E0,5.2774353E0,2.73736E-1,8.513769E0,8.4340096E-2,0E0,0E0,3.522338E0,0E0,0E0,0E0,2.776703E0,0E0,0E0,0E0,7.2523575E0,0E0,0E0,7.3235035E-1,2.7952223E0,2.7515564E0,6.125388E0,5.071658E0,4.7274895E0,0E0,0E0,0E0,0E0,0E0,0E0,0E0,0E0,0E0,0E0,0E0,0E0],"parents":[2147483647,0,0,1,1,2,2,3,3,5,5,6,6,7,7,8,8,9,9,10,10,11,11,12,12,13,13,16,16,20,20,24,24,27,27,28,28,29,29,30,30,31,31,32,32],"right_children":[2,4,6,8,-1,10,12,14,16,18,20,22,24,26,-1,-1,28,-1,-1,-1,30,-1,-1,-1,32,-1,-1,34,36,38,40,42,44,-1,-1,-1,-1,-1,-1,-1,-1,-1,-1,-1,-1],"split_conditions":[1.735154E-1,1.8253623E-1,1.0625374E-1,3.060123E-2,1.2363366E-1,3.747312E-1,9.370247E-2,6.2160328E-2,1.2106147E-1,3.435785E-2,1.7893404E-1,3.334941E-2,1.1929577E-1,5.4783065E-2,-2.7516803E-2,6.9676995E-2,1.7317592E-1,-7.6343404E-4,1.3245985E-1,7.934331E-2,1.397276E-1,1.322281E-1,3.800285E-2,1.21591896E-1,3.3924884E-1,3.8828995E-2,1.2510754E-1,5.4773986E-2,9.1033906E-2,1.0810356E-1,2.60951E-2,2.3740279E-2,9.148511E-2,1.4442637E-2,-4.4992983E-2,1.02537364E-1,-2.726903E-2,2.373779E-2,-4.686705E-2,9.08555E-2,-4.195852E-2,-1.617249E-2,1.1632923E-1,-3.4739602E-2,9.1053404E-2],"split_indices":[2445,997,1173,345,0,4709,2449,3545,1517,345,2112,54,1635,1265,0,0,1852,0,0,0,1882,0,0,0,39,0,0,309,859,1388,353,307,432,0,0,0,0,0,0,0,0,0,0,0,0],"split_type":[0,0,0,0,0,0,0,0,0,0,0,0,0,0,0,0,0,0,0,0,0,0,0,0,0,0,0,0,0,0,0,0,0,0,0,0,0,0,0,0,0,0,0,0,0],"sum_hessian":[1.2783796E3,2.2706327E1,1.2556733E3,2.0243965E1,2.4623623E0,1.2075997E3,4.807358E1,5.038487E0,1.5205478E1,3.9403985E0,1.2036593E3,3.6721435E0,4.440144E1,3.7751212E0,1.2633655E0,1.3905302E0,1.3814947E1,1.6290302E0,2.3113682E0,1.2338316E0,1.2024255E3,2.3145237E0,1.3576198E0,2.051685E0,4.2349754E1,1.3392931E0,2.4358282E0,1.1171832E1,2.6431155E0,1.1943337E3,8.09178E0,5.9585767E0,3.639118E1,1.0004845E0,1.0171348E1,1.3945068E0,1.2486087E0,2.9117026E0,1.191422E3,2.1806383E0,5.9111414E0,2.8651001E0,3.0934763E0,3.5358395E1,1.0327853E0],"tree_param":{"num_deleted":"0","num_feature":"5000","num_nodes":"45","size_leaf_vector":"1"}},{"base_weights":[-6.0108316E-1,7.062334E-2,-6.041731E-1,-6.064912E-1,3.8377997E-1,4.009889E-2,-6.0804546E-1,9.239582E-2,-3.0066682E-2,-6.119227E-1,-2.6299834E-1,-6.1271757E-1,8.59684E-3,3.7603128E-1,-4.4543758E-2,-4.859013E-2,8.143778E-3,-1.9773664E-2,1.13188885E-1],"categories":[],"categories_nodes":[],"categories_segments":[],"categories_sizes":[],"default_left":[0,0,1,0,0,0,1,0,0,1,1,1,0,1,0,0,0,0,0],"id":8,"left_children":[1,-1,3,5,7,-1,9,-1,-1,11,13,15,-1,17,-1,-1,-1,-1,-1],"loss_changes":[6.407654E0,0E0,3.1419678E0,2.5003662E0,2.5859962E0,0E0,1.5333252E0,0E0,0E0,7.8326416E-1,3.239646E0,7.736206E-1,0E0,4.078995E0,0E0,0E0,0E0,0E0,0E0],"parents":[2147483647,0,0,2,2,3,3,4,4,6,6,9,9,10,10,11,11,13,13],"right_children":[2,-1,4,6,8,-1,10,-1,-1,12,14,16,-1,18,-1,-1,-1,-1,-1],"split_conditions":[4.4015923E-1,7.062334E-2,1.7726053E-1,1.7005906E-1,8.413901E-2,4.009889E-2,1.222861E-1,9.239582E-2,-3.0066682E-2,2.0553327E-1,3.3141796E-2,1.6317205E-1,8.59684E-3,3.8194507E-2,-4.4543758E-2,-4.859013E-2,8.143778E-3,-1.9773664E-2,1.13188885E-1],"split_indices":[1057,0,464,1852,270,0,2215,0,0,4685,4541,813,0,439,0,0,0,0,0],"split_type":[0,0,0,0,0,0,0,0,0,0,0,0,0,0,0,0,0,0,0],"sum_hessian":[1.2713412E3,2.0321245E0,1.2693091E3,1.266723E3,2.5860639E0,1.3137774E0,1.2654093E3,1.0160251E0,1.5700387E0,1.2505833E3,1.4826053E1,1.2493544E3,1.2288074E0,4.648771E0,1.0177281E1,1.2481117E3,1.2427027E0,3.3947494E0,1.2540214E0],"tree_param":{"num_deleted":"0","num_feature":"5000","num_nodes":"19","size_leaf_vector":"1"}},{"base_weights":[-3.4565628E-1,-3.669563E-1,1.5693073E0,-4.302622E-1,1.9252213E-2,-1.2556834E-3,1.4074185E-1,-4.462505E-1,7.0066625E-1,-1.0084676E-1,6.171632E-1,-2.2688927E-1,-4.8678425E-1,1.4025829E0,-3.8445717E-1,1.0132236E0,-1.4966817E-1,1.4556892E-1,1.2929158E0,1.2325397E-1,-2.6291746E-1,6.629738E-2,-4.908916E-1,7.0937914E-1,1.5216236E-1,-4.0376794E-2,8.244247E-3,-3.1626698E-2,1.2651269E-1,-2.0520389E-1,8.364018E-1,-2.3280434E-2,1.0746632E-1,1.137452E-1,5.28075E-3,1.1040653E-1,-2.2510322E-2,5.870613E-2,-3.9121523E-2,1.0722959E-1,-3.1974114E-2,-2.0545607E-2,5.7761207E-2,4.643366E-4,8.2578145E-2,6.535055E-2,-2.3600815E-2],"categories":[],"categories_nodes":[],"categories_segments":[],"categories_sizes":[],"default_left":[1,0,0,1,1,0,0,0,0,0,0,1,0,0,1,0,1,1,0,0,0,0,0,0,0,0,0,0,0,1,0,0,0,0,0,0,0,0,0,0,0,0,0,0,0,0,0],"id":9,"left_children":[1,3,5,7,9,-1,-1,11,13,15,17,19,21,23,25,27,29,31,33,-1,35,-1,37,39,-1,-1,-1,-1,-1,41,43,45,-1,-1,-1,-1,-1,-1,-1,-1,-1,-1,-1,-1,-1,-1,-1],"loss_changes":[5.2826508E1,3.1003235E1,4.7309494E0,2.0007736E1,1.2951369E1,0E0,0E0,9.444931E0,1.2400833E1,8.328141E0,9.42437E0,1.129697E1,5.3383484E0,2.1143608E0,4.7573292E-1,5.9518266E0,8.1060915E0,3.8956802E0,2.0599651E0,0E0,6.2903767E0,0E0,3.7823792E0,4.6535525E0,0E0,0E0,0E0,0E0,0E0,7.1786513E0,1.3509498E0,4.3395257E0,0E0,0E0,0E0,0E0,0E0,0E0,0E0,0E0,0E0,0E0,0E0,0E0,0E0,0E0,0E0],"parents":[2147483647,0,0,1,1,2,2,3,3,4,4,7,7,8,8,9,9,10,10,11,11,12,12,13,13,14,14,15,15,16,16,17,17,18,18,20,20,22,22,23,23,29,29,30,30,31,31],"right_children":[2,4,6,8,10,-1,-1,12,14,16,18,20,22,24,26,28,30,32,34,-1,36,-1,38,40,-1,-1,-1,-1,-1,42,44,46,-1,-1,-1,-1,-1,-1,-1,-1,-1,-1,-1,-1,-1,-1,-1],"split_conditions":[1.9120187E-1,4.267636E-2,5.7019286E-2,1.4921165E-1,7.348888E-2,-1.2556834E-3,1.4074185E-1,3.5003126E-2,1.2922047E-1,1.3744722E-1,6.634874E-2,1.9171288E-2,1.7972538E-1,8.032333E-2,8.236237E-2,5.7518054E-2,1.7942381E-1,1.616384E-1,5.0235093E-2,1.2325397E-1,1.9778953E-1,6.629738E-2,2.0986417E-1,5.2029606E-2,1.5216236E-1,-4.0376794E-2,8.244247E-3,-3.1626698E-2,1.2651269E-1,9.316969E-2,6.0945265E-2,6.5760665E-2,1.0746632E-1,1.137452E-1,5.28075E-3,1.1040653E-1,-2.2510322E-2,5.870613E-2,-3.9121523E-2,1.0722959E-1,-3.1974114E-2,-2.0545607E-2,5.7761207E-2,4.643366E-4,8.2578145E-2,6.535055E-2,-2.3600815E-2],"split_indices":[1298,3522,2447,58,2845,0,0,156,83,288,4302,3980,693,1147,429,1399,58,417,826,0,3989,0,2043,2447,0,0,0,0,0,1643,2447,1692,0,0,0,0,0,0,0,0,0,0,0,0,0,0,0],"split_type":[0,0,0,0,0,0,0,0,0,0,0,0,0,0,0,0,0,0,0,0,0,0,0,0,0,0,0,0,0,0,0,0,0,0,0,0,0,0,0,0,0,0,0,0,0,0,0],"sum_hessian":[1.2800063E3,1.266725E3,1.3281324E1,1.0882319E3,1.7849312E2,1.6458789E0,1.1635446E1,1.0736587E3,1.4573228E1,1.4932948E2,2.9163631E1,1.6847897E2,9.051797E2,8.671485E0,5.9017425E0,5.439949E0,1.4388954E2,1.7892342E1,1.127129E1,2.501043E0,1.6597794E2,2.1724062E0,9.030073E2,4.724613E0,3.946872E0,4.6620574E0,1.2396854E0,1.6840838E0,3.7558656E0,1.3696739E2,6.922143E0,1.6564207E1,1.3281341E0,9.938926E0,1.3323636E0,1.2889904E0,1.6468893E2,1.6445857E0,9.0136273E2,2.8550587E0,1.8695543E0,1.3014046E2,6.8269434E0,1.5816278E0,5.340515E0,3.5614297E0,1.3002778E1],"tree_param":{"num_deleted":"0","num_feature":"5000","num_nodes":"47","size_leaf_vector":"1"}},{"base_weights":[1.4890556E0,-1.7901087E-1,1.5110335E0,-3.4141272E-1,9.607787E-2,3.407522E-1,1.5305487E0,-5.1621145E-1,2.9917E-1,7.88658E-1,-2.53163E-1,1.6273859E0,1.2869792E0,8.787368E-3,-4.550844E-2,6.7094095E-2,-3.1822983E-2,-3.6064375E-2,1.0918345E0,-4.5692694E-1,3.647343E-1,1.6367323E0,-9.62221E-2,8.6136097E-1,1.3704671E0,1.3748233E0,-1.4232664E-1,-4.356054E-2,1.4029899E-2,5.3949032E-2,-1.0546573E-3,1.6467382E0,3.2723135E-1,-3.8190465E-2,3.8063474E-2,9.681241E-1,-2.8266153E-1,1.3945093E0,-2.1545765E-1,4.005263E-3,1.23965226E-1,-2.8526178E-2,1.4380061E-2,-1.0907123E-3,1.307911E-1,-4.23204E-2,7.8543484E-2,-2.5602296E-2,8.326405E-2,-4.264538E-2,4.6435963E-2,1.1375675E-1,5.6295022E-2,2.1504976E-2,-3.841121E-2],"categories":[],"categories_nodes":[],"categories_segments":[],"categories_sizes":[],"default_left":[0,1,0,0,0,0,0,0,0,1,1,1,0,0,0,0,0,0,1,1,0,1,0,1,1,0,0,0,0,0,0,1,0,0,0,0,0,1,0,0,0,0,0,0,0,0,0,0,0,0,0,0,0,0,0],"id":10,"left_children":[1,3,5,7,-1,9,11,13,15,17,19,21,23,-1,-1,-1,-1,-1,25,27,29,31,33,35,37,39,41,-1,-1,-1,-1,43,45,-1,-1,47,49,51,53,-1,-1,-1,-1,-1,-1,-1,-1,-1,-1,-1,-1,-1,-1,-1,-1],"loss_changes":[5.8879395E1,5.3165126E0,3.551709E1,2.4161723E0,0E0,7.427076E0,3.4508057E1,6.583047E-1,2.2468758E0,6.430333E0,1.7326164E0,1.7984375E1,1.467627E1,0E0,0E0,0E0,0E0,0E0,4.716069E0,6.756499E-1,4.445864E-1,1.38828125E1,1.7708137E0,9.540398E0,1.4460449E1,2.599121E0,2.9968703E-1,0E0,0E0,0E0,0E0,8.481689E0,6.0227723E0,0E0,0E0,7.8191376E0,1.9272084E0,9.441162E0,9.733098E-1,0E0,0E0,0E0,0E0,0E0,0E0,0E0,0E0,0E0,0E0,0E0,0E0,0E0,0E0,0E0,0E0],"parents":[2147483647,0,0,1,1,2,2,3,3,5,5,6,6,7,7,8,8,9,9,10,10,11,11,12,12,18,18,19,19,20,20,21,21,22,22,23,23,24,24,25,25,26,26,31,31,32,32,35,35,36,36,37,37,38,38],"right_children":[2,4,6,8,-1,10,12,14,16,18,20,22,24,-1,-1,-1,-1,-1,26,28,30,32,34,36,38,40,42,-1,-1,-1,-1,44,46,-1,-1,48,50,52,54,-1,-1,-1,-1,-1,-1,-1,-1,-1,-1,-1,-1,-1,-1,-1,-1],"split_conditions":[1.9362433E-1,4.9802948E-2,1.9676875E-1,3.6056943E-2,9.607787E-2,4.2888857E-2,5.3263284E-2,4.3703366E-2,5.9319895E-2,2.5666475E-2,6.417152E-2,2.0648058E-1,4.3361306E-2,8.787368E-3,-4.550844E-2,6.7094095E-2,-3.1822983E-2,-3.6064375E-2,1.6710007E-1,5.9761368E-2,4.302704E-2,1.2721735E-1,5.5394918E-2,8.704646E-2,1.4144799E-1,4.507548E-2,7.375039E-2,-4.356054E-2,1.4029899E-2,5.3949032E-2,-1.0546573E-3,1.9178921E-2,4.2273052E-2,-3.8190465E-2,3.8063474E-2,1.17517024E-1,3.968589E-2,1.0437515E-1,6.285781E-2,4.005263E-3,1.23965226E-1,-2.8526178E-2,1.4380061E-2,-1.0907123E-3,1.307911E-1,-4.23204E-2,7.8543484E-2,-2.5602296E-2,8.326405E-2,-4.264538E-2,4.6435963E-2,1.1375675E-1,5.6295022E-2,2.1504976E-2,-3.841121E-2],"split_indices":[4504,4950,2444,655,0,3364,2883,2109,1325,1745,270,3961,4983,0,0,0,0,0,572,3894,88,43,212,1813,4703,422,1165,0,0,0,0,4932,54,0,0,1074,1461,3958,2447,0,0,0,0,0,0,0,0,0,0,0,0,0,0,0,0],"split_type":[0,0,0,0,0,0,0,0,0,0,0,0,0,0,0,0,0,0,0,0,0,0,0,0,0,0,0,0,0,0,0,0,0,0,0,0,0,0,0,0,0,0,0,0,0,0,0,0,0,0,0,0,0,0,0],"sum_hessian":[1.5976868E3,2.0683908E1,1.5770028E3,1.9198944E1,1.4849643E0,2.6168898E1,1.5508339E3,1.523567E1,3.963274E0,1.4731287E1,1.1437611E1,1.105595E3,4.4523898E2,1.2209849E0,1.4014685E1,2.107353E0,1.8559209E0,2.7882745E0,1.1943012E1,8.797104E0,2.640507E0,1.0996821E3,5.9127455E0,7.4870224E1,3.7036874E2,9.622608E0,2.320404E0,7.78663E0,1.0104736E0,1.0009079E0,1.639599E0,1.0910878E3,8.594471E0,3.6406412E0,2.2721043E0,6.862016E1,6.2500577E0,3.649568E2,5.4119515E0,1.3686726E0,8.253936E0,1.3203189E0,1.000085E0,3.0509803E0,1.0880367E3,3.8274918E0,4.766979E0,3.978258E0,6.464191E1,5.122549E0,1.1275085E0,3.4288635E2,2.2070429E1,1.9255354E0,3.4864163E0],"tree_param":{"num_deleted":"0","num_feature":"5000","num_nodes":"55","size_leaf_vector":"1"}},{"base_weights":[-4.728485E-1,-1.4140809E-1,-5.553295E-1,1.3624246E0,-1.7368641E-1,1.0776584E-1,-5.5929947E-1,3.6410965E-2,1.2402212E-1,-2.2429696E-1,7.4351084E-1,6.923861E-1,-5.6322306E-1,2.3104586E-1,-3.2312444E-1,1.5532869E-1,1.543314E0,-2.6601756E-2,1.0905838E-1,7.779385E-2,-5.662176E-1,-6.6155076E-2,7.9078615E-1,-3.5060778E-1,9.517616E-2,9.64655E-1,-3.9903454E-2,4.103884E-2,1.3802466E-1,-5.692038E-1,4.5281243E-2,9.082183E-2,-2.6918374E-2,-1.352906E-2,1.0146824E-1,-2.9266383E-2,7.830944E-2,1.084613E-1,2.3656126E-2,-4.5386065E-2,2.7377244E-2],"categories":[],"categories_nodes":[],"categories_segments":[],"categories_sizes":[],"default_left":[0,0,0,0,1,0,0,0,0,0,0,1,0,1,1,1,0,0,0,0,1,0,0,1,0,1,0,0,0,1,0,0,0,0,0,0,0,0,0,0,0],"id":11,"left_children":[1,3,5,7,9,-1,11,-1,-1,13,15,17,19,21,23,25,27,-1,-1,-1,29,31,33,35,-1,37,-1,-1,-1,39,-1,-1,-1,-1,-1,-1,-1,-1,-1,-1,-1],"loss_changes":[3.3470398E1,1.2172158E1,8.233093E0,2.5003242E-1,1.1382015E1,0E0,5.2077637E0,0E0,0E0,1.04129715E1,5.8129387E0,2.936275E0,5.0845337E0,6.964922E0,8.349665E0,5.034361E0,1.8873692E-1,0E0,0E0,0E0,3.6462097E0,9.707183E0,7.050946E0,5.0935154E0,0E0,7.1516323E-1,0E0,0E0,0E0,3.6352844E0,0E0,0E0,0E0,0E0,0E0,0E0,0E0,0E0,0E0,0E0,0E0],"parents":[2147483647,0,0,1,1,2,2,3,3,4,4,6,6,9,9,10,10,11,11,12,12,13,13,14,14,15,15,16,16,20,20,21,21,22,22,23,23,25,25,29,29],"right_children":[2,4,6,8,10,-1,12,-1,-1,14,16,18,20,22,24,26,28,-1,-1,-1,30,32,34,36,-1,38,-1,-1,-1,40,-1,-1,-1,-1,-1,-1,-1,-1,-1,-1,-1],"split_conditions":[5.0188232E-2,1.2767997E-1,1.838298E-1,2.4299523E-2,1.0749903E-1,1.0776584E-1,1.6920273E-1,3.6410965E-2,1.2402212E-1,6.654008E-2,3.0056024E-2,3.3681694E-2,1.61088E-1,6.129658E-2,1.448161E-1,6.92661E-2,3.2159768E-2,-2.6601756E-2,1.0905838E-1,7.779385E-2,1.5142374E-1,1.0088086E-1,2.914058E-2,1.2285045E-1,9.517616E-2,3.0135779E-2,-3.9903454E-2,4.103884E-2,1.3802466E-1,1.8726346E-1,4.5281243E-2,9.082183E-2,-2.6918374E-2,-1.352906E-2,1.0146824E-1,-2.9266383E-2,7.830944E-2,1.084613E-1,2.3656126E-2,-4.5386065E-2,2.7377244E-2],"split_indices":[3734,293,1625,95,4338,0,990,0,0,2158,4505,88,3311,2543,287,2908,88,0,0,0,523,979,755,1782,0,955,0,0,0,572,0,0,0,0,0,0,0,0,0,0,0],"split_type":[0,0,0,0,0,0,0,0,0,0,0,0,0,0,0,0,0,0,0,0,0,0,0,0,0,0,0,0,0,0,0,0,0,0,0,0,0,0,0,0,0],"sum_hessian":[1.2262101E3,2.4488443E2,9.813257E2,4.2798424E0,2.406046E2,1.3224795E0,9.800032E2,1.386946E0,2.8928962E0,2.2873837E2,1.1866229E1,2.5140464E0,9.7748914E2,4.055327E1,1.8818509E2,7.525857E0,4.3403716E0,1.2084224E0,1.305624E0,1.2579288E0,9.762312E2,2.7064732E1,1.3488539E1,1.8560979E2,2.5753078E0,3.170101E0,4.355756E0,1.292825E0,3.0475469E0,9.741746E2,2.0566196E0,4.396038E0,2.2668694E1,4.77556E0,8.712978E0,1.8373875E2,1.8710349E0,1.3146462E0,1.8554548E0,9.7046155E2,3.7130806E0],"tree_param":{"num_deleted":"0","num_feature":"5000","num_nodes":"41","size_leaf_vector":"1"}},{"base_weights":[-5.287024E-1,4.3918216E-1,-5.4666245E-1,1.7723702E-1,1.14282414E-1,1.0276065E0,-5.5297333E-1,7.382985E-1,-3.7103203E-1,1.2476598E-1,-2.7940296E-2,1.0593086E0,-5.5854946E-1,-2.3601127E-1,1.2361883E0,-4.385826E-2,5.2020237E-2,1.1471632E-1,5.681888E-3,8.129319E-2,-5.617546E-1,-3.3485748E-2,1.3825448E-2,1.1958743E-1,5.576637E-3,3.8559943E-1,-5.664722E-1,-3.4444783E-2,7.727897E-2,5.751886E-2,-4.5119453E-2],"categories":[],"categories_nodes":[],"categories_segments":[],"categories_sizes":[],"default_left":[0,1,0,1,0,1,0,0,0,0,0,1,0,1,0,0,0,0,0,0,0,0,0,0,0,0,0,0,0,0,0],"id":12,"left_children":[1,3,5,7,-1,9,11,13,15,-1,-1,17,19,21,23,-1,-1,-1,-1,-1,25,-1,-1,-1,-1,27,29,-1,-1,-1,-1],"loss_changes":[2.156131E1,5.7653356E0,1.2536316E1,6.210988E0,0E0,4.4568152E0,1.1384369E1,5.0813284E0,2.3221684E0,0E0,0E0,1.6188054E0,6.65744E0,3.9428192E-1,2.0301619E0,0E0,0E0,0E0,0E0,0E0,5.5601807E0,0E0,0E0,0E0,0E0,3.5802176E0,5.3627014E0,0E0,0E0,0E0,0E0],"parents":[2147483647,0,0,1,1,2,2,3,3,5,5,6,6,7,7,8,8,11,11,12,12,13,13,14,14,20,20,25,25,26,26],"right_children":[2,4,6,8,-1,10,12,14,16,-1,-1,18,20,22,24,-1,-1,-1,-1,-1,26,-1,-1,-1,-1,28,30,-1,-1,-1,-1],"split_conditions":[1.9362433E-1,5.9064995E-2,4.0764442E-1,1.18111834E-1,1.14282414E-1,3.1942777E-2,3.747312E-1,1.2309549E-1,3.855495E-2,1.2476598E-1,-2.7940296E-2,5.0682727E-2,1.1161587E-1,2.9249327E-2,3.356307E-2,-4.385826E-2,5.2020237E-2,1.1471632E-1,5.681888E-3,8.129319E-2,2.3064476E-1,-3.3485748E-2,1.3825448E-2,1.1958743E-1,5.576637E-3,3.8399298E-2,1.172177E-1,-3.4444783E-2,7.727897E-2,5.751886E-2,-4.5119453E-2],"split_indices":[4504,1722,2112,287,0,2911,4709,1523,1588,0,0,1643,521,54,1571,0,0,0,0,0,1852,0,0,0,0,2911,407,0,0,0,0],"split_type":[0,0,0,0,0,0,0,0,0,0,0,0,0,0,0,0,0,0,0,0,0,0,0,0,0,0,0,0,0,0,0],"sum_hessian":[1.2255374E3,2.1899529E1,1.2036378E3,1.830043E1,3.5990977E0,4.1596785E0,1.1994781E3,8.873397E0,9.427033E0,2.8769271E0,1.2827514E0,3.4828377E0,1.1959952E3,3.178817E0,5.69458E0,8.395673E0,1.0313601E0,2.1636324E0,1.3192052E0,1.7693905E0,1.194226E3,2.1643736E0,1.0144433E0,4.3725653E0,1.3220149E0,5.517417E0,1.1887085E3,2.4182503E0,3.0991664E0,2.3937082E0,1.1863148E3],"tree_param":{"num_deleted":"0","num_feature":"5000","num_nodes":"31","size_leaf_vector":"1"}},{"base_weights":[-5.882704E-1,5.6815606E-1,-5.9146494E-1,-2.681756E-2,8.809144E-2,-5.9466296E-1,2.4321106E-1,5.2360613E-2,-5.9627193E-1,-3.3207625E-2,6.4345986E-2,-5.9789675E-1,4.231493E-2,4.089761E-2,-5.995194E-1,2.535162E-2,-4.7611587E-2],"categories":[],"categories_nodes":[],"categories_segments":[],"categories_sizes":[],"default_left":[0,0,1,0,0,0,0,0,1,0,0,0,0,0,0,0,0],"id":13,"left_children":[1,3,5,-1,-1,7,9,-1,11,-1,-1,13,-1,-1,15,-1,-1],"loss_changes":[4.841278E0,2.285812E0,3.3923035E0,0E0,0E0,2.8437195E0,2.3595843E0,0E0,2.5445862E0,0E0,0E0,2.497345E0,0E0,0E0,2.0121155E0,0E0,0E0],"parents":[2147483647,0,0,1,1,2,2,5,5,6,6,8,8,11,11,14,14],"right_children":[2,4,6,-1,-1,8,10,-1,12,-1,-1,14,-1,-1,16,-1,-1],"split_conditions":[1.5551464E-1,5.5444695E-2,1.4383674E-1,-2.681756E-2,8.809144E-2,4.15801E-1,5.534493E-2,5.2360613E-2,1.6317205E-1,-3.3207625E-2,6.4345986E-2,1.5792935E-1,4.231493E-2,4.089761E-2,1.7893404E-1,2.535162E-2,-4.7611587E-2],"split_indices":[1179,429,489,0,0,3897,4268,0,813,0,0,14,0,0,2112,0,0],"split_type":[0,0,0,0,0,0,0,0,0,0,0,0,0,0,0,0,0],"sum_hessian":[1.218544E3,2.8696375E0,1.2156743E3,1.2178209E0,1.6518166E0,1.2113208E3,4.35356E0,1.0255053E0,1.2102953E3,2.1337037E0,2.2198563E0,1.2090288E3,1.2665017E0,1.2967166E0,1.207732E3,1.8003874E0,1.2059316E3],"tree_param":{"num_deleted":"0","num_feature":"5000","num_nodes":"17","size_leaf_vector":"1"}},{"base_weights":[-3.4240654E-1,-4.283111E-1,5.407876E-2,-4.4254917E-1,7.18288E-1,-9.4711065E-2,7.391925E-1,1.1880107E-1,-4.471498E-1,1.1809859E0,-2.8584155E-1,1.0199841E0,-1.451709E-1,1.5402558E0,3.632078E-1,-4.5562166E-1,6.0644495E-1,-4.1750744E-3,1.5036106E0,-3.552418E-2,9.320833E-3,-3.1307984E-2,1.44272E0,-1.9366322E-1,8.4607035E-1,1.3085483E-1,3.2944147E-2,-3.1187856E-1,6.1115944E-1,1.0886179E-1,-4.5935294E-1,-3.6749076E-2,1.2842339E0,1.3732022E-1,4.659839E-2,1.3287893E-1,1.1026312E-2,-2.3853557E-1,9.268195E-1,-2.7322458E-2,1.0992461E0,5.331791E-2,-4.269615E-2,1.15298174E-1,3.8647014E-1,1.0667316E-1,-3.6676213E-2,1.2836301E-1,7.166785E-3,5.9848893E-2,-2.112016E-2,1.06821455E-1,-6.112911E-3,1.07195295E-1,3.3267904E-2,-3.7650123E-2,4.7585685E-2],"categories":[],"categories_nodes":[],"categories_segments":[],"categories_sizes":[],"default_left":[0,1,1,0,0,0,1,0,1,0,0,0,1,1,1,0,0,0,1,0,0,0,1,1,0,0,0,0,1,0,0,0,0,0,0,0,0,1,1,0,1,0,0,0,1,0,0,0,0,0,0,0,0,0,0,0,0],"id":14,"left_children":[1,3,5,7,9,11,13,-1,15,17,19,21,23,25,27,29,31,-1,33,-1,-1,-1,35,37,39,-1,-1,41,43,-1,45,-1,47,-1,-1,-1,-1,49,51,-1,53,-1,-1,-1,55,-1,-1,-1,-1,-1,-1,-1,-1,-1,-1,-1,-1],"loss_changes":[4.2828873E1,1.7183258E1,2.2975092E1,9.795715E0,6.4017944E0,1.0581452E1,1.1549864E1,0E0,9.375244E0,3.7131872E0,3.7595317E-1,5.451022E0,8.73591E0,8.9038086E-1,4.989812E0,7.5408783E0,6.8067813E0,0E0,5.120392E-1,0E0,0E0,0E0,1.7568359E0,8.810178E0,2.9434357E0,0E0,0E0,2.2349682E0,3.4810123E0,0E0,7.432846E0,0E0,2.065528E0,0E0,0E0,0E0,0E0,4.8178988E0,2.9773574E0,0E0,6.8365E-1,0E0,0E0,0E0,3.646402E0,0E0,0E0,0E0,0E0,0E0,0E0,0E0,0E0,0E0,0E0,0E0,0E0],"parents":[2147483647,0,0,1,1,2,2,3,3,4,4,5,5,6,6,8,8,9,9,10,10,11,11,12,12,13,13,14,14,15,15,16,16,18,18,22,22,23,23,24,24,27,27,28,28,30,30,32,32,37,37,38,38,40,40,44,44],"right_children":[2,4,6,8,10,12,14,-1,16,18,20,22,24,26,28,30,32,-1,34,-1,-1,-1,36,38,40,-1,-1,42,44,-1,46,-1,48,-1,-1,-1,-1,50,52,-1,54,-1,-1,-1,56,-1,-1,-1,-1,-1,-1,-1,-1,-1,-1,-1,-1],"split_conditions":[4.1428264E-2,1.4921165E-1,7.348888E-2,5.139649E-1,1.2949207E-1,1.4315777E-1,7.911727E-2,1.1880107E-1,1.2812503E-1,6.456499E-2,3.8716123E-2,5.7518054E-2,1.7942381E-1,7.126512E-2,4.8981886E-2,4.7452775E-1,5.382832E-2,-4.1750744E-3,7.968701E-2,-3.552418E-2,9.320833E-3,-3.1307984E-2,3.0674875E-2,1.5365387E-1,6.0945265E-2,1.3085483E-1,3.2944147E-2,8.169841E-2,6.546719E-2,1.0886179E-1,4.9329227E-1,-3.6749076E-2,5.5448305E-2,1.3732022E-1,4.659839E-2,1.3287893E-1,1.1026312E-2,1.9178921E-2,9.424967E-2,-2.7322458E-2,7.844542E-2,5.331791E-2,-4.269615E-2,1.15298174E-1,9.266131E-2,1.0667316E-1,-3.6676213E-2,1.2836301E-1,7.166785E-3,5.9848893E-2,-2.112016E-2,1.06821455E-1,-6.112911E-3,1.07195295E-1,3.3267904E-2,-3.7650123E-2,4.7585685E-2],"split_indices":[2789,58,2845,3729,1073,288,2875,0,4703,2067,34,1399,58,3734,1692,4941,2447,0,1147,0,0,0,3167,1414,2447,0,0,689,422,0,425,0,54,0,0,0,0,4932,1195,0,2959,0,0,0,2489,0,0,0,0,0,0,0,0,0,0,0,0],"split_type":[0,0,0,0,0,0,0,0,0,0,0,0,0,0,0,0,0,0,0,0,0,0,0,0,0,0,0,0,0,0,0,0,0,0,0,0,0,0,0,0,0,0,0,0,0,0,0,0,0,0,0,0,0,0,0,0,0],"sum_hessian":[1.2557771E3,1.0320808E3,2.236963E2,1.0200285E3,1.2052315E1,1.8449113E2,3.9205173E1,1.642068E0,1.0183865E3,8.129946E0,3.9223683E0,7.157731E0,1.773334E2,1.1534172E1,2.7671001E1,1.01082605E3,7.5603933E0,1.8587556E0,6.2711906E0,2.7158465E0,1.2065217E0,1.6611671E0,5.496564E0,1.6982982E2,7.5035877E0,1.00626335E1,1.4715388E0,7.3638816E0,2.030712E1,1.3091805E0,1.00951685E3,3.0534394E0,4.5069537E0,4.2961073E0,1.9750834E0,4.413591E0,1.0829731E0,1.6404727E2,5.782542E0,1.2518272E0,6.2517605E0,1.012281E0,6.3516006E0,3.1157298E0,1.719139E1,1.33865E0,1.0081782E3,3.2368119E0,1.270142E0,3.8026934E0,1.6024458E2,3.8297117E0,1.9528306E0,3.82665E0,2.4251106E0,3.1816401E0,1.4009748E1],"tree_param":{"num_deleted":"0","num_feature":"5000","num_nodes":"57","size_leaf_vector":"1"}},{"base_weights":[1.3050042E0,4.082396E-1,1.3352315E0,-1.2287983E-1,1.1466873E0,1.0296117E0,1.3908991E0,-2.638389E-1,8.7909386E-2,1.2563647E0,-2.9805379E-2,2.115715E-2,1.0720971E0,1.4025772E0,-2.0208748E-1,-3.742902E-1,8.91122E-2,1.3477604E0,-2.6369514E-2,5.215382E-1,-4.127795E-2,-1.5606767E-1,1.1034025E0,-3.7804446E-1,1.4092244E0,-3.4847564E-1,3.990346E-2,4.2494088E-1,-5.5773735E-1,2.9166865E-3,1.4360745E0,9.701308E-1,-3.1672515E-2,6.0077675E-2,-4.3590628E-2,-1.984396E-1,1.1282674E0,-4.135118E-2,1.1796237E-2,1.4188133E0,4.1167203E-1,-4.1476626E-2,4.675289E-3,-2.701804E-2,5.4073356E-2,-4.720548E-2,1.3742449E-2,1.19973436E-1,6.755056E-3,5.8108876E-3,1.02335185E-1,4.0911462E-2,-4.1835487E-2,-3.5403166E-2,9.052373E-2,1.1428408E-1,7.857664E-2,6.164874E-2,-2.7550232E-2],"categories":[],"categories_nodes":[],"categories_segments":[],"categories_sizes":[],"default_left":[1,1,0,1,1,0,1,0,0,1,0,0,0,0,1,0,0,0,0,1,0,0,0,0,1,0,0,0,1,0,1,1,0,0,0,0,0,0,0,0,0,0,0,0,0,0,0,0,0,0,0,0,0,0,0,0,0,0,0],"id":15,"left_children":[1,3,5,7,9,11,13,15,-1,17,-1,19,21,23,25,27,-1,29,-1,31,-1,33,35,37,39,41,-1,43,45,-1,47,49,-1,-1,-1,51,53,-1,-1,55,57,-1,-1,-1,-1,-1,-1,-1,-1,-1,-1,-1,-1,-1,-1,-1,-1,-1,-1],"loss_changes":[4.6173584E1,2.2747631E1,2.692627E1,6.2761E0,4.5169353E0,1.1146118E1,2.6461182E1,5.2852097E0,0E0,3.7626915E0,0E0,3.4085393E0,9.789001E0,1.706836E1,1.3241771E0,4.653106E0,0E0,2.4677467E0,0E0,3.0795677E0,0E0,2.9756746E0,8.123199E0,5.321088E-1,1.2732178E1,7.3045564E-1,0E0,1.4554987E0,8.014698E-1,0E0,2.0375748E0,1.2540212E0,0E0,0E0,0E0,1.5518198E0,6.062744E0,0E0,0E0,1.2782471E1,4.354828E0,0E0,0E0,0E0,0E0,0E0,0E0,0E0,0E0,0E0,0E0,0E0,0E0,0E0,0E0,0E0,0E0,0E0,0E0],"parents":[2147483647,0,0,1,1,2,2,3,3,4,4,5,5,6,6,7,7,9,9,11,11,12,12,13,13,14,14,15,15,17,17,19,19,21,21,22,22,23,23,24,24,25,25,27,27,28,28,30,30,31,31,35,35,36,36,39,39,40,40],"right_children":[2,4,6,8,10,12,14,16,-1,18,-1,20,22,24,26,28,-1,30,-1,32,-1,34,36,38,40,42,-1,44,46,-1,48,50,-1,-1,-1,52,54,-1,-1,56,58,-1,-1,-1,-1,-1,-1,-1,-1,-1,-1,-1,-1,-1,-1,-1,-1,-1,-1],"split_conditions":[2.0623054E-2,3.344481E-2,6.147863E-2,7.862283E-2,1.40382E-1,1.4221011E-1,1.9809437E-1,3.9428383E-2,8.7909386E-2,8.824514E-2,-2.9805379E-2,3.201326E-2,1.288142E-1,3.747312E-1,7.760792E-2,6.3063785E-2,8.91122E-2,1.4355433E-1,-2.6369514E-2,3.819909E-2,-4.127795E-2,6.478885E-2,1.6606016E-1,3.0290063E-2,1.1695995E-1,5.718465E-2,3.990346E-2,3.4529317E-2,9.5212124E-2,2.9166865E-3,8.1296995E-2,3.1514954E-2,-3.1672515E-2,6.0077675E-2,-4.3590628E-2,8.765304E-2,1.1854146E-1,-4.135118E-2,1.1796237E-2,4.7243282E-2,4.6848875E-2,-4.1476626E-2,4.675289E-3,-2.701804E-2,5.4073356E-2,-4.720548E-2,1.3742449E-2,1.19973436E-1,6.755056E-3,5.8108876E-3,1.02335185E-1,4.0911462E-2,-4.1835487E-2,-3.5403166E-2,9.052373E-2,1.1428408E-1,7.857664E-2,6.164874E-2,-2.7550232E-2],"split_indices":[1173,4917,1195,1316,489,2418,4703,2997,0,417,0,507,442,4709,1803,4968,0,1045,0,1788,0,2315,31,1754,2418,212,0,271,264,0,1147,1981,0,0,0,255,1034,0,0,4577,2883,0,0,0,0,0,0,0,0,0,0,0,0,0,0,0,0,0,0],"split_type":[0,0,0,0,0,0,0,0,0,0,0,0,0,0,0,0,0,0,0,0,0,0,0,0,0,0,0,0,0,0,0,0,0,0,0,0,0,0,0,0,0,0,0,0,0,0,0,0,0,0,0,0,0,0,0,0,0,0,0],"sum_hessian":[1.7225022E3,5.664024E1,1.6658619E3,3.3429832E1,2.3210403E1,2.596817E2,1.4061802E3,3.0705118E1,2.7247155E0,2.1814548E1,1.395855E0,1.0558479E1,2.4912323E2,1.3960652E3,1.0115002E1,2.9120052E1,1.5850661E0,2.077201E1,1.042538E0,5.511645E0,5.0468345E0,6.093162E0,2.4303008E2,4.9844275E0,1.3910808E3,8.797081E0,1.3179206E0,5.1904035E0,2.392965E1,1.4004693E0,1.9371542E1,3.671423E0,1.8402216E0,1.5572964E0,4.535866E0,4.423996E0,2.3860608E2,3.921602E0,1.0628257E0,1.3774181E3,1.3662633E1,5.952513E0,2.844568E0,1.2255042E0,3.9648993E0,2.2914663E1,1.0149858E0,1.8189766E1,1.1817762E0,1.294348E0,2.377075E0,1.2176676E0,3.2063282E0,1.9354553E0,2.3667062E2,1.3013282E3,7.6089836E1,9.197157E0,4.465476E0],"tree_param":{"num_deleted":"0","num_feature":"5000","num_nodes":"59","size_leaf_vector":"1"}},{"base_weights":[-4.6254715E-1,-1.7086574E-1,-5.478813E-1,1.3683419E-1,-3.2457218E-1,1.0237187E-1,-5.521164E-1,-5.8330428E-2,7.2453415E-1,-3.8923404E-1,7.025337E-1,-5.563662E-1,7.701017E-2,-1.2664387E-1,1.03930146E-1,-3.6781874E-2,9.348044E-1,-4.1897276E-1,6.3868153E-1,1.1258917E0,-3.523768E-2,9.31202E-2,-5.5957913E-1,-2.4854207E-1,7.0869267E-1,-1.9438142E-1,1.3464997E0,7.563093E-2,-4.409995E-1,-3.0642973E-2,9.594953E-2,-1.7038171E-1,1.3729219E-1,-5.6384355E-1,6.4400065E-1,-2.4264092E-2,8.107025E-2,1.11730725E-1,1.2105445E-2,3.547049E-2,-3.8362376E-2,1.250946E-1,-2.951205E-2,-3.6710866E-2,6.8440005E-2,1.4303049E-2,-2.9962933E-2,-4.506579E-2,3.1758457E-2,1.17366545E-1,-2.8739076E-2],"categories":[],"categories_nodes":[],"categories_segments":[],"categories_sizes":[],"default_left":[0,1,0,1,1,0,1,1,0,1,1,0,0,1,0,0,0,0,0,0,0,0,1,1,0,0,0,0,1,0,0,0,0,1,0,0,0,0,0,0,0,0,0,0,0,0,0,0,0,0,0],"id":16,"left_children":[1,3,5,7,9,-1,11,13,15,17,19,21,-1,23,-1,-1,25,27,29,31,-1,-1,33,35,37,39,41,-1,43,-1,-1,45,-1,47,49,-1,-1,-1,-1,-1,-1,-1,-1,-1,-1,-1,-1,-1,-1,-1,-1],"loss_changes":[2.9285675E1,1.2748658E1,7.827881E0,1.0386426E1,1.2190132E1,0E0,6.445343E0,6.5918026E0,6.07353E0,5.447336E0,5.836536E0,5.719116E0,0E0,6.9253936E0,0E0,0E0,9.3266735E0,5.4230957E0,3.5003297E0,6.8376493E0,0E0,0E0,5.025757E0,4.6228595E0,3.1794996E0,1.3500005E0,6.362316E0,0E0,5.2023335E0,0E0,0E0,3.2823968E-1,0E0,4.745331E0,3.6374612E0,0E0,0E0,0E0,0E0,0E0,0E0,0E0,0E0,0E0,0E0,0E0,0E0,0E0,0E0,0E0,0E0],"parents":[2147483647,0,0,1,1,2,2,3,3,4,4,6,6,7,7,8,8,9,9,10,10,11,11,13,13,16,16,17,17,18,18,19,19,22,22,23,23,24,24,25,25,26,26,28,28,31,31,33,33,34,34],"right_children":[2,4,6,8,10,-1,12,14,16,18,20,22,-1,24,-1,-1,26,28,30,32,-1,-1,34,36,38,40,42,-1,44,-1,-1,46,-1,48,50,-1,-1,-1,-1,-1,-1,-1,-1,-1,-1,-1,-1,-1,-1,-1,-1],"split_conditions":[5.189251E-2,2.5382135E-2,1.838298E-1,7.048394E-2,1.2109935E-1,1.0237187E-1,1.7566949E-1,1.1068461E-1,1.2015184E-1,1.3664633E-1,6.361511E-2,2.0097612E-1,7.701017E-2,7.7513985E-2,1.03930146E-1,-3.6781874E-2,2.5651855E-2,1.3664056E-1,7.529951E-2,6.502167E-2,-3.523768E-2,9.31202E-2,1.4382371E-1,1.2357135E-1,2.8918963E-2,7.5763464E-2,3.1255428E-2,7.563093E-2,1.4086545E-1,-3.0642973E-2,9.594953E-2,2.6599495E-2,1.3729219E-1,1.8726346E-1,1.448143E-1,-2.4264092E-2,8.107025E-2,1.11730725E-1,1.2105445E-2,3.547049E-2,-3.8362376E-2,1.250946E-1,-2.951205E-2,-3.6710866E-2,6.8440005E-2,1.4303049E-2,-2.9962933E-2,-4.506579E-2,3.1758457E-2,1.17366545E-1,-2.8739076E-2],"split_indices":[3734,4567,1625,364,621,0,226,293,1663,287,1643,469,0,4773,0,0,1441,3344,1722,270,0,0,2152,30,3248,139,2578,0,866,0,0,34,0,572,1710,0,0,0,0,0,0,0,0,0,0,0,0,0,0,0,0],"split_type":[0,0,0,0,0,0,0,0,0,0,0,0,0,0,0,0,0,0,0,0,0,0,0,0,0,0,0,0,0,0,0,0,0,0,0,0,0,0,0,0,0,0,0,0,0,0,0,0,0,0,0],"sum_hessian":[1.1793475E3,2.6761453E2,9.11733E2,8.9185905E1,1.7842863E2,1.3947604E0,9.1033826E2,6.7628456E1,2.1557451E1,1.6844513E2,9.983496E0,9.0844073E2,1.8974682E0,6.528221E1,2.346245E0,3.0579445E0,1.8499506E1,1.642846E2,4.1605268E0,7.306517E0,2.6769786E0,1.0062523E0,9.074345E2,5.7581913E1,7.700295E0,5.083762E0,1.3415744E1,1.9239761E0,1.6236063E2,1.6072772E0,2.5532496E0,2.5614269E0,4.74509E0,9.047603E2,2.6741672E0,5.580463E1,1.7772855E0,2.7230287E0,4.9772663E0,1.4120748E0,3.6716876E0,1.1886154E1,1.5295892E0,1.6024037E2,2.1202576E0,1.001876E0,1.5595509E0,9.0034717E2,4.4132013E0,1.2020481E0,1.4721191E0],"tree_param":{"num_deleted":"0","num_feature":"5000","num_nodes":"51","size_leaf_vector":"1"}},{"base_weights":[-5.190646E-1,4.1661665E-1,-5.36627E-1,9.3462855E-1,8.024101E-3,3.4030548E-1,-5.532229E-1,6.7949545E-4,1.3651826E0,6.1403453E-1,-3.3849373E-1,1.2682023E0,2.637715E-2,1.0822998E0,-5.5907226E-1,4.4602938E-2,-3.2760788E-2,1.2222365E-1,3.3549823E-2,-2.8184086E-2,8.106408E-2,-4.2787477E-2,3.685625E-2,7.022317E-3,1.2665588E-1,-4.2967822E-2,4.6691236E-1,1.2816265E-2,1.0456688E-1,7.9257675E-2,-5.6166536E-1,8.2040375E-1,-3.5526592E-2,6.9002724E-1,-5.650259E-1,1.0501382E-1,-1.3283053E-2,1.176363E-2,6.873294E-2,-4.488789E-2,4.8824355E-2],"categories":[],"categories_nodes":[],"categories_segments":[],"categories_sizes":[],"default_left":[0,1,0,0,0,0,0,0,0,0,1,0,1,0,0,0,0,0,0,0,0,0,0,0,0,0,0,0,0,0,0,1,0,0,1,0,0,0,0,0,0],"id":17,"left_children":[1,3,5,7,9,11,13,15,17,19,21,23,25,27,29,-1,-1,-1,-1,-1,-1,-1,-1,-1,-1,-1,31,-1,-1,-1,33,35,-1,37,39,-1,-1,-1,-1,-1,-1],"loss_changes":[1.9528625E1,4.6927567E0,1.6976929E1,3.9332523E0,3.0266674E0,6.388158E0,1.1439911E1,1.1855917E0,4.6882153E-1,2.4448757E0,1.7409778E0,2.0256567E0,4.6375384E0,7.451205E-1,5.1292114E0,0E0,0E0,0E0,0E0,0E0,0E0,0E0,0E0,0E0,0E0,0E0,3.7324579E0,0E0,0E0,0E0,5.1343994E0,4.145561E0,0E0,2.0524251E-1,2.6635437E0,0E0,0E0,0E0,0E0,0E0,0E0],"parents":[2147483647,0,0,1,1,2,2,3,3,4,4,5,5,6,6,7,7,8,8,9,9,10,10,11,11,12,12,13,13,14,14,26,26,30,30,31,31,33,33,34,34],"right_children":[2,4,6,8,10,12,14,16,18,20,22,24,26,28,30,-1,-1,-1,-1,-1,-1,-1,-1,-1,-1,-1,32,-1,-1,-1,34,36,-1,38,40,-1,-1,-1,-1,-1,-1],"split_conditions":[1.735154E-1,2.8249627E-2,1.9362433E-1,4.716158E-2,4.739566E-2,2.4446242E-2,1.64942E-1,2.581011E-2,3.8031828E-2,2.808213E-2,1.8785077E-1,6.970206E-2,2.6169753E-2,3.1050073E-2,3.523574E-1,4.4602938E-2,-3.2760788E-2,1.2222365E-1,3.3549823E-2,-2.8184086E-2,8.106408E-2,-4.2787477E-2,3.685625E-2,7.022317E-3,1.2665588E-1,-4.2967822E-2,4.2853724E-2,1.2816265E-2,1.0456688E-1,7.9257675E-2,1.172177E-1,3.6623023E-2,-3.5526592E-2,2.2070004E-2,1.823686E-1,1.0501382E-1,-1.3283053E-2,1.176363E-2,6.873294E-2,-4.488789E-2,4.8824355E-2],"split_indices":[2444,1592,4504,2979,271,3065,4709,4080,3065,307,4118,139,1441,345,1661,0,0,0,0,0,0,0,0,0,0,0,943,0,0,0,407,345,0,95,971,0,0,0,0,0,0],"split_type":[0,0,0,0,0,0,0,0,0,0,0,0,0,0,0,0,0,0,0,0,0,0,0,0,0,0,0,0,0,0,0,0,0,0,0,0,0,0,0,0,0],"sum_hessian":[1.1737926E3,2.1207075E1,1.1525856E3,8.783702E0,1.2423374E1,2.1045181E1,1.1315404E3,3.0876384E0,5.696063E0,4.2386184E0,8.184755E0,4.551691E0,1.649349E1,3.3766782E0,1.1281637E3,1.1572775E0,1.930361E0,4.2528834E0,1.4431796E0,1.2972085E0,2.9414098E0,6.804799E0,1.3799567E0,1.275192E0,3.276499E0,7.0970125E0,9.396478E0,1.0388062E0,2.337872E0,1.2335552E0,1.1269302E3,6.8538704E0,2.5426073E0,2.4703526E0,1.1244597E3,4.3079963E0,2.5458739E0,1.0643601E0,1.4059925E0,1.1233254E3,1.1343702E0],"tree_param":{"num_deleted":"0","num_feature":"5000","num_nodes":"41","size_leaf_vector":"1"}},{"base_weights":[-5.8328766E-1,5.3367168E-2,-5.857443E-1,-5.873849E-1,4.983951E-2,-5.8906394E-1,4.5230504E-2,-5.9073365E-1,3.2695126E-2,-5.9240544E-1,3.271842E-2,2.7511718E-2,-4.704916E-2],"categories":[],"categories_nodes":[],"categories_segments":[],"categories_sizes":[],"default_left":[0,0,1,1,0,1,0,1,0,0,0,0,0],"id":18,"left_children":[1,-1,3,5,-1,7,-1,9,-1,11,-1,-1,-1],"loss_changes":[4.0260925E0,0E0,2.710022E0,2.6181335E0,0E0,2.2041626E0,0E0,2.2087402E0,0E0,2.0182495E0,0E0,0E0,0E0],"parents":[2147483647,0,0,2,2,3,3,5,5,7,7,9,9],"right_children":[2,-1,4,6,-1,8,-1,10,-1,12,-1,-1,-1],"split_conditions":[4.4015923E-1,5.3367168E-2,2.061217E-1,1.5510054E-1,4.983951E-2,1.6030233E-1,4.5230504E-2,2.158014E-1,3.2695126E-2,1.7005906E-1,3.271842E-2,2.7511718E-2,-4.704916E-2],"split_indices":[3359,0,3897,2782,0,467,0,1644,0,572,0,0,0],"split_type":[0,0,0,0,0,0,0,0,0,0,0,0,0],"sum_hessian":[1.1748527E3,1.7584084E0,1.1730942E3,1.1720283E3,1.0659544E0,1.1708229E3,1.2054367E0,1.1692845E3,1.5383182E0,1.1677496E3,1.534899E0,1.6789677E0,1.1660707E3],"tree_param":{"num_deleted":"0","num_feature":"5000","num_nodes":"13","size_leaf_vector":"1"}},{"base_weights":[-3.3497116E-1,-4.0044764E-1,1.485087E-1,-4.0782917E-1,1.1884202E0,-1.7703183E-1,5.063882E-1,-1.54302E-1,-4.56035E-1,1.4269543E-2,1.0991864E-1,1.02358855E-1,-5.621678E-1,-3.369523E-1,6.8747556E-1,-1.8767631E-1,1.07602865E-1,-4.619E-1,8.126114E-1,-3.6900377E-1,4.2083997E-1,9.997739E-3,-4.691758E-2,-4.786351E-1,5.192275E-2,8.3114153E-1,-2.929751E-1,-2.1812554E-1,1.2064137E-1,-4.6706554E-1,8.1591046E-1,3.3814674E-3,9.066176E-2,-5.1238775E-1,3.483648E-2,1.0965172E0,8.4215716E-2,1.0277159E-2,-4.4167984E-2,1.5319891E0,6.633161E-1,-4.180107E-2,4.4968758E-2,1.1075505E-1,-1.9320764E-2,-3.7739784E-2,2.022356E-2,-2.843532E-2,1.302972E-1,1.0175547E-2,-4.518267E-2,-2.229554E-3,1.0877691E-1,-9.287621E-3,9.145567E-2,1.3048297E-1,3.932755E-2,5.9626937E-2,-2.071097E-2],"categories":[],"categories_nodes":[],"categories_segments":[],"categories_sizes":[],"default_left":[1,1,0,0,0,0,0,0,1,0,0,0,1,1,0,0,0,1,0,0,1,0,0,1,0,0,0,0,0,1,0,0,0,0,0,0,1,0,0,1,0,0,0,0,0,0,0,0,0,0,0,0,0,0,0,0,0,0,0],"id":19,"left_children":[1,3,5,7,9,11,13,15,17,-1,-1,19,21,23,25,27,-1,29,31,33,35,-1,-1,37,-1,39,41,43,-1,45,47,-1,-1,49,-1,51,53,-1,-1,55,57,-1,-1,-1,-1,-1,-1,-1,-1,-1,-1,-1,-1,-1,-1,-1,-1,-1,-1],"loss_changes":[3.8324326E1,1.297348E1,1.6971392E1,1.2892563E1,7.9150724E-1,8.302171E0,1.08122635E1,8.887575E0,7.0027313E0,0E0,0E0,6.9485984E0,7.482786E-1,2.1303973E0,8.323633E0,9.092552E0,0E0,6.2373962E0,1.0918376E0,2.403377E0,6.156359E0,0E0,0E0,6.4377E-1,0E0,4.899292E0,1.9309261E0,7.274554E0,0E0,6.1566467E0,4.425896E0,0E0,0E0,6.844549E-1,0E0,2.8580856E0,4.3242874E0,0E0,0E0,2.528267E-1,3.7033634E0,0E0,0E0,0E0,0E0,0E0,0E0,0E0,0E0,0E0,0E0,0E0,0E0,0E0,0E0,0E0,0E0,0E0,0E0],"parents":[2147483647,0,0,1,1,2,2,3,3,4,4,5,5,6,6,7,7,8,8,11,11,12,12,13,13,14,14,15,15,17,17,18,18,19,19,20,20,23,23,25,25,26,26,27,27,29,29,30,30,33,33,35,35,36,36,39,39,40,40],"right_children":[2,4,6,8,10,12,14,16,18,-1,-1,20,22,24,26,28,-1,30,32,34,36,-1,-1,38,-1,40,42,44,-1,46,48,-1,-1,50,-1,52,54,-1,-1,56,58,-1,-1,-1,-1,-1,-1,-1,-1,-1,-1,-1,-1,-1,-1,-1,-1,-1,-1],"split_conditions":[6.672156E-2,1.8844324E-1,1.09625876E-1,3.5265733E-2,4.8773468E-2,9.8610096E-2,8.932539E-2,2.743727E-2,1.9458136E-1,1.4269543E-2,1.0991864E-1,6.1765265E-2,4.4588383E-2,1.5298374E-1,8.0264784E-2,2.7324574E-2,1.07602865E-1,1.6309762E-1,5.7019286E-2,5.420912E-2,5.9472594E-2,9.997739E-3,-4.691758E-2,4.555108E-2,5.192275E-2,1.0261935E-1,6.33105E-2,2.4664113E-1,1.2064137E-1,1.4921165E-1,1.06429644E-1,3.3814674E-3,9.066176E-2,1.1093808E-1,3.483648E-2,7.435476E-2,8.269579E-2,1.0277159E-2,-4.4167984E-2,9.0619564E-2,6.8461835E-2,-4.180107E-2,4.4968758E-2,1.1075505E-1,-1.9320764E-2,-3.7739784E-2,2.022356E-2,-2.843532E-2,1.302972E-1,1.0175547E-2,-4.518267E-2,-2.229554E-3,1.0877691E-1,-9.287621E-3,9.145567E-2,1.3048297E-1,3.932755E-2,5.9626937E-2,-2.071097E-2],"split_indices":[1325,4013,1147,1820,2090,429,429,4952,2940,0,0,4302,3065,2916,1692,1367,0,231,2447,2224,54,0,0,1704,0,1643,2313,425,0,58,154,0,0,4320,0,2067,1803,0,0,429,212,0,0,0,0,0,0,0,0,0,0,0,0,0,0,0,0,0,0],"split_type":[0,0,0,0,0,0,0,0,0,0,0,0,0,0,0,0,0,0,0,0,0,0,0,0,0,0,0,0,0,0,0,0,0,0,0,0,0,0,0,0,0,0,0,0,0,0,0,0,0,0,0,0,0,0,0,0,0,0,0],"sum_hessian":[1.2077491E3,1.0638467E3,1.4390239E2,1.0596671E3,4.1796613E0,7.56205E1,6.82819E1,1.6996687E2,8.897002E2,1.0045702E0,3.175091E0,4.425248E1,3.136802E1,1.19179945E1,5.6363903E1,1.6715546E2,2.8114095E0,8.8623895E2,3.4612186E0,1.7779537E1,2.6472944E1,1.1857576E0,3.0182262E1,1.0882339E1,1.035656E0,4.9293224E1,7.070677E0,1.6508987E2,2.0655835E0,8.833027E2,2.9362803E0,1.3831826E0,2.0780358E0,1.5413722E1,2.3658164E0,8.0524845E0,1.842046E1,1.1774656E0,9.704873E0,7.952927E0,4.1340298E1,5.859136E0,1.2115407E0,1.7600163E0,1.6332986E2,8.72237E2,1.1065706E1,1.4495335E0,1.4867467E0,1.1805501E0,1.4233171E1,1.7685124E0,6.2839723E0,1.6252111E1,2.168347E0,6.622871E0,1.3300563E0,3.7860256E1,3.480041E0],"tree_param":{"num_deleted":"0","num_feature":"5000","num_nodes":"59","size_leaf_vector":"1"}},{"base_weights":[1.1874359E0,-2.3641841E-1,1.202551E0,-3.6797518E-1,7.825085E-2,1.2770048E0,1.0019464E0,1.8822823E-1,-4.467721E-2,3.5851696E-1,1.2911896E0,1.0200385E0,-1.9857973E-1,7.49846E-2,-3.5658035E-2,9.207462E-1,2.5262317E-2,1.08159274E-1,1.2965751E0,-6.8088785E-2,1.0392137E0,4.0637645E-1,-4.2030495E-2,1.07887484E-1,-3.0774634E-2,8.859945E-1,-2.4375513E-1,8.382048E-2,-4.41996E-2,1.3012877E0,7.659066E-2,6.758611E-2,-4.4129106E-1,1.0513072E0,-3.8058978E-2,-2.7704485E-2,8.0254816E-2,8.932567E-2,1.1760814E-2,-4.380322E-2,2.445516E-2,1.0341939E-1,2.7951226E-3,6.9231935E-2,-2.6613211E-2,1.1172256E-2,-4.456416E-2,7.26974E-3,8.471982E-2],"categories":[],"categories_nodes":[],"categories_segments":[],"categories_sizes":[],"default_left":[0,1,0,0,0,0,1,0,0,0,0,0,0,0,0,0,0,1,0,0,1,0,0,0,0,0,0,0,0,1,0,0,0,0,0,0,0,0,0,0,0,0,0,0,0,0,0,0,0],"id":20,"left_children":[1,3,5,7,-1,9,11,13,-1,15,17,19,21,-1,-1,23,25,27,29,31,33,35,-1,-1,-1,37,39,-1,-1,41,43,-1,45,47,-1,-1,-1,-1,-1,-1,-1,-1,-1,-1,-1,-1,-1,-1,-1],"loss_changes":[3.925659E1,3.5621824E0,2.5485107E1,2.1416814E0,0E0,1.6516602E1,1.0838837E1,3.1452045E0,0E0,3.949942E0,8.034668E0,1.0140076E1,1.8445086E0,0E0,0E0,5.074578E0,3.5369196E0,4.962123E0,7.243408E0,3.5732138E0,9.222534E0,1.9331281E0,0E0,0E0,0E0,4.801612E-1,2.1723056E0,0E0,0E0,7.221924E0,2.2606392E0,0E0,5.9365916E-1,8.209412E0,0E0,0E0,0E0,0E0,0E0,0E0,0E0,0E0,0E0,0E0,0E0,0E0,0E0,0E0,0E0],"parents":[2147483647,0,0,1,1,2,2,3,3,5,5,6,6,7,7,9,9,10,10,11,11,12,12,15,15,16,16,17,17,18,18,19,19,20,20,21,21,25,25,26,26,29,29,30,30,32,32,33,33],"right_children":[2,4,6,8,-1,10,12,14,-1,16,18,20,22,-1,-1,24,26,28,30,32,34,36,-1,-1,-1,38,40,-1,-1,42,44,-1,46,48,-1,-1,-1,-1,-1,-1,-1,-1,-1,-1,-1,-1,-1,-1,-1],"split_conditions":[1.7752433E-1,1.1015394E-1,5.4032847E-2,2.9071435E-2,7.825085E-2,1.9676875E-1,1.2812503E-1,4.403038E-2,-4.467721E-2,5.471076E-2,1.4419101E-1,1.17517024E-1,6.3064314E-2,7.49846E-2,-3.5658035E-2,4.087755E-2,2.2007397E-1,3.423442E-2,4.327062E-2,6.050879E-2,1.2232042E-1,7.80499E-2,-4.2030495E-2,1.07887484E-1,-3.0774634E-2,5.772578E-2,4.58341E-2,8.382048E-2,-4.41996E-2,1.9809437E-1,1.3107477E-1,6.758611E-2,4.4579376E-2,1.0513127E-1,-3.8058978E-2,-2.7704485E-2,8.0254816E-2,8.932567E-2,1.1760814E-2,-4.380322E-2,2.445516E-2,1.0341939E-1,2.7951226E-3,6.9231935E-2,-2.6613211E-2,1.1172256E-2,-4.456416E-2,7.26974E-3,8.471982E-2],"split_indices":[4504,534,2224,4464,0,2418,1298,1325,0,3894,970,1074,2447,0,0,955,4134,1788,4932,4211,2418,1402,0,0,0,1461,4541,0,0,1298,668,0,1801,1813,0,0,0,0,0,0,0,0,0,0,0,0,0,0,0],"split_type":[0,0,0,0,0,0,0,0,0,0,0,0,0,0,0,0,0,0,0,0,0,0,0,0,0,0,0,0,0,0,0,0,0,0,0,0,0,0,0,0,0,0,0,0,0,0,0,0,0],"sum_hessian":[1.8098376E3,1.8857E1,1.7909806E3,1.7659126E1,1.1978745E0,1.3022782E3,4.8870242E2,4.6141777E0,1.3044948E1,2.0205622E1,1.2820726E3,4.815951E2,7.107321E0,1.888063E0,2.7261145E0,6.863469E0,1.3342154E1,5.9055142E0,1.2761671E3,8.295598E0,4.732995E2,2.4396744E0,4.6676464E0,5.1025934E0,1.7608758E0,2.6309326E0,1.0711221E1,2.1914892E0,3.714025E0,1.2711901E3,4.976949E0,2.0204506E0,6.275148E0,4.698687E2,3.4307857E0,1.2749248E0,1.1647495E0,1.5826359E0,1.0482967E0,6.8663573E0,3.8448634E0,1.2666434E3,4.5466266E0,1.3155588E0,3.6613905E0,1.0544337E0,5.220714E0,8.94762E0,4.6092108E2],"tree_param":{"num_deleted":"0","num_feature":"5000","num_nodes":"49","size_leaf_vector":"1"}},{"base_weights":[-4.5968232E-1,-1.3614348E-1,-5.3981835E-1,1.2112541E-1,-2.9466197E-1,9.592656E-2,-5.4398906E-1,-2.9859978E-3,8.943196E-1,-4.1421473E-1,7.033984E-2,-5.511854E-1,3.3306447E-1,-7.972042E-2,1.0216778E-1,-3.2797724E-2,1.2084327E0,-4.622386E-1,4.5776588E-1,-3.5972315E-1,5.0158954E-1,1.6828038E-1,-5.5632955E-1,1.1499798E-1,-1.9366157E-1,-2.3281105E-1,6.553469E-1,1.2961857E-1,7.1093105E-2,-4.975877E-1,4.946032E-1,-3.1935725E-2,9.80341E-1,5.3528402E-2,-4.5773813E-1,1.2394024E0,-1.05290525E-1,-3.834784E-2,9.032334E-2,4.21538E-2,-5.595214E-1,-3.8337346E-2,4.595648E-2,-2.4617106E-2,5.921713E-2,-9.582006E-3,1.111975E-1,-3.0885717E-2,5.3053826E-2,3.6983665E-2,-4.091671E-2,-2.7859367E-2,8.414924E-2,1.0064782E-1,1.0735467E-2,1.8234253E-2,-4.4860154E-2,1.38243E-1,-3.1086262E-2,8.931535E-2,-2.7783165E-2,3.9191715E-2,-4.4566233E-2],"categories":[],"categories_nodes":[],"categories_segments":[],"categories_sizes":[],"default_left":[0,1,0,1,1,0,1,1,0,1,0,0,0,1,0,0,1,0,0,0,0,0,0,0,1,1,0,0,1,0,1,0,0,0,0,1,0,0,0,0,0,0,0,0,0,0,0,0,0,0,0,0,0,0,0,0,0,0,0,0,0,0,0],"id":21,"left_children":[1,3,5,7,9,-1,11,13,15,17,19,21,23,25,-1,-1,27,29,31,33,35,37,39,-1,41,43,45,-1,47,49,51,-1,53,-1,55,57,59,-1,-1,-1,61,-1,-1,-1,-1,-1,-1,-1,-1,-1,-1,-1,-1,-1,-1,-1,-1,-1,-1,-1,-1,-1,-1],"loss_changes":[2.9529633E1,9.33394E0,7.339569E0,8.412152E0,6.197935E0,0E0,5.947937E0,7.6937704E0,5.483494E0,4.6769295E0,6.8077745E0,3.4476013E0,5.0292163E0,8.385913E0,0E0,0E0,4.769129E0,3.6813583E0,3.1257777E0,2.1845198E0,8.306622E0,5.120048E0,3.4250793E0,0E0,1.7102227E0,4.920552E0,7.6520123E0,0E0,1.3073562E0,2.048933E0,2.3539515E0,0E0,8.259423E-1,0E0,1.4367905E0,7.5559187E0,3.707467E0,0E0,0E0,0E0,3.292389E0,0E0,0E0,0E0,0E0,0E0,0E0,0E0,0E0,0E0,0E0,0E0,0E0,0E0,0E0,0E0,0E0,0E0,0E0,0E0,0E0,0E0,0E0],"parents":[2147483647,0,0,1,1,2,2,3,3,4,4,6,6,7,7,8,8,9,9,10,10,11,11,12,12,13,13,16,16,17,17,18,18,19,19,20,20,21,21,22,22,24,24,25,25,26,26,28,28,29,29,30,30,32,32,34,34,35,35,36,36,40,40],"right_children":[2,4,6,8,10,-1,12,14,16,18,20,22,24,26,-1,-1,28,30,32,34,36,38,40,-1,42,44,46,-1,48,50,52,-1,54,-1,56,58,60,-1,-1,-1,62,-1,-1,-1,-1,-1,-1,-1,-1,-1,-1,-1,-1,-1,-1,-1,-1,-1,-1,-1,-1,-1,-1],"split_conditions":[5.005713E-2,2.5382135E-2,1.838298E-1,8.825999E-2,7.7596664E-2,9.592656E-2,1.3533682E-1,1.1068461E-1,6.728882E-2,4.9063396E-2,4.116976E-2,1.6624846E-1,3.7742123E-2,7.620049E-2,1.0216778E-1,-3.2797724E-2,3.2157347E-2,2.988671E-2,3.5120428E-2,3.5914224E-2,6.0263984E-2,4.406407E-2,1.6920273E-1,1.1499798E-1,6.917149E-2,9.724575E-2,3.6393367E-2,1.2961857E-1,8.281285E-2,1.46995E-1,3.6577445E-2,-3.1935725E-2,3.447409E-2,5.3528402E-2,4.7093343E-2,5.8397714E-2,1.133492E-1,-3.834784E-2,9.032334E-2,4.21538E-2,1.61088E-1,-3.8337346E-2,4.595648E-2,-2.4617106E-2,5.921713E-2,-9.582006E-3,1.111975E-1,-3.0885717E-2,5.3053826E-2,3.6983665E-2,-4.091671E-2,-2.7859367E-2,8.414924E-2,1.0064782E-1,1.0735467E-2,1.8234253E-2,-4.4860154E-2,1.38243E-1,-3.1086262E-2,8.931535E-2,-2.7783165E-2,3.9191715E-2,-4.4566233E-2],"split_indices":[3734,4567,1625,4909,1052,0,621,1174,2695,2109,3668,866,3844,2916,0,0,4483,1920,955,899,632,3288,990,0,309,2471,1537,0,364,865,2090,0,755,0,2109,270,311,0,0,0,552,0,0,0,0,0,0,0,0,0,0,0,0,0,0,0,0,0,0,0,0,0,0],"split_type":[0,0,0,0,0,0,0,0,0,0,0,0,0,0,0,0,0,0,0,0,0,0,0,0,0,0,0,0,0,0,0,0,0,0,0,0,0,0,0,0,0,0,0,0,0,0,0,0,0,0,0,0,0,0,0,0,0,0,0,0,0,0,0],"sum_hessian":[1.1407822E3,2.2699956E2,9.137827E2,8.663327E1,1.4036629E2,1.4836817E0,9.12299E2,7.550889E1,1.112438E1,1.05632545E2,3.473374E1,9.052429E2,7.0561E0,7.21645E1,3.3443885E0,2.091968E0,9.032412E0,1.00563934E2,5.0686083E0,1.7473843E1,1.7259897E1,6.2013054E0,8.990416E2,1.6962003E0,5.3598995E0,6.02911E1,1.1873398E1,6.243136E0,2.789276E0,9.744398E1,3.1199555E0,2.000676E0,3.0679324E0,1.0011011E0,1.647274E1,7.319267E0,9.940631E0,4.0111585E0,2.1901467E0,2.1438482E0,8.9689777E2,4.1698112E0,1.1900883E0,5.648039E1,3.810712E0,6.2405753E0,5.6328225E0,1.7728722E0,1.0164037E0,1.4306291E0,9.601335E1,1.4056287E0,1.7143267E0,1.9077194E0,1.160213E0,2.0946186E0,1.4378122E1,5.533578E0,1.7856886E0,1.0539501E0,8.886682E0,2.2350605E0,8.946627E2],"tree_param":{"num_deleted":"0","num_feature":"5000","num_nodes":"63","size_leaf_vector":"1"}},{"base_weights":[-5.088324E-1,4.0469387E-1,-5.2668667E-1,-3.941451E-2,6.1953473E-1,-5.5308855E-1,6.99216E-2,1.1493142E0,-2.5085602E-2,7.5775325E-1,-5.5922204E-1,9.691101E-2,-1.9740507E-2,-2.9477976E-2,1.13305524E-1,-4.082392E-2,7.081979E-1,-6.8454025E-3,1.010884E-1,-5.619114E-1,4.250063E-1,7.0947003E-1,-1.8214057E-1,-2.5988044E-2,9.714346E-2,-1.8132608E-1,-5.6966525E-1,9.078069E-2,-2.815695E-2,1.0619969E0,-3.1049998E-2,-3.5140756E-1,8.248884E-1,-3.7138067E-2,8.3492234E-2,4.876006E-2,-4.5267757E-2,1.1076829E-1,1.6600674E-2,5.27877E-2,-3.6312114E-2,1.3434894E-2,9.4808646E-2],"categories":[],"categories_nodes":[],"categories_segments":[],"categories_sizes":[],"default_left":[0,0,0,0,1,0,0,0,0,0,1,0,0,0,0,0,0,0,0,0,1,1,1,0,0,1,0,0,0,0,0,0,1,0,0,0,0,0,0,0,0,0,0],"id":22,"left_children":[1,3,5,-1,7,9,11,13,15,17,19,-1,21,-1,-1,-1,23,-1,-1,25,27,29,31,-1,-1,33,35,-1,-1,37,-1,39,41,-1,-1,-1,-1,-1,-1,-1,-1,-1,-1],"loss_changes":[1.8668365E1,4.62292E0,1.7526825E1,0E0,6.319921E0,8.97287E0,4.9830008E0,4.8695135E0,3.705074E0,2.4642963E0,3.0416565E0,0E0,5.5133615E0,0E0,0E0,0E0,2.6283972E0,0E0,0E0,3.0144043E0,2.3523643E0,3.7113433E0,6.7637525E0,0E0,0E0,8.510874E0,2.6793823E0,0E0,0E0,1.6284971E0,0E0,3.9260106E0,1.2026458E0,0E0,0E0,0E0,0E0,0E0,0E0,0E0,0E0,0E0,0E0],"parents":[2147483647,0,0,1,1,2,2,4,4,5,5,6,6,7,7,8,8,9,9,10,10,12,12,16,16,19,19,20,20,21,21,22,22,25,25,26,26,29,29,31,31,32,32],"right_children":[2,4,6,-1,8,10,12,14,16,18,20,-1,22,-1,-1,-1,24,-1,-1,26,28,30,32,-1,-1,34,36,-1,-1,38,-1,40,42,-1,-1,-1,-1,-1,-1,-1,-1,-1,-1],"split_conditions":[1.6334155E-1,1.0378816E-1,1.0625374E-1,-3.941451E-2,2.8580537E-2,3.747312E-1,1.1929577E-1,7.5419374E-2,3.567942E-2,3.435785E-2,1.9025467E-1,9.691101E-2,3.3924884E-1,-2.9477976E-2,1.13305524E-1,-4.082392E-2,3.13073E-2,-6.8454025E-3,1.010884E-1,6.1790567E-2,4.6367228E-2,7.490957E-2,6.4576894E-2,-2.5988044E-2,9.714346E-2,4.121641E-2,1.9372441E-1,9.078069E-2,-2.815695E-2,3.3761714E-2,-3.1049998E-2,1.00786164E-1,9.049085E-2,-3.7138067E-2,8.3492234E-2,4.876006E-2,-4.5267757E-2,1.1076829E-1,1.6600674E-2,5.27877E-2,-3.6312114E-2,1.3434894E-2,9.4808646E-2],"split_indices":[2444,4520,292,0,1068,4709,1635,1399,880,345,4118,0,39,0,0,0,459,0,0,4968,345,1500,1722,0,0,4917,690,0,0,88,0,2105,3865,0,0,0,0,0,0,0,0,0,0],"split_type":[0,0,0,0,0,0,0,0,0,0,0,0,0,0,0,0,0,0,0,0,0,0,0,0,0,0,0,0,0,0,0,0,0,0,0,0,0,0,0,0,0,0,0],"sum_hessian":[1.130504E3,2.1256054E1,1.1092479E3,3.834479E0,1.7421576E1,1.0623102E3,4.693778E1,9.132842E0,8.288733E0,4.376743E0,1.0579333E3,2.4727893E0,4.446499E1,1.3746699E0,7.758172E0,5.1451097E0,3.143623E0,1.9827038E0,2.3940392E0,1.0554785E3,2.4549255E0,7.4853835E0,3.6979607E1,1.1704966E0,1.9731264E0,2.1561344E1,1.0339171E3,1.0324233E0,1.4225023E0,5.6977596E0,1.7876235E0,3.2215664E1,4.7639413E0,1.7993513E1,3.5678306E0,1.1353829E0,1.0327817E3,3.6253867E0,2.0723732E0,2.569055E0,2.9646608E1,2.2530773E0,2.5108638E0],"tree_param":{"num_deleted":"0","num_feature":"5000","num_nodes":"43","size_leaf_vector":"1"}},{"base_weights":[-5.760864E-1,5.104931E-2,-5.7867867E-1,-5.812352E-1,3.299843E-1,-5.8296967E-1,4.0873278E-2,8.4555544E-2,-2.979197E-2,3.5194986E-2,-5.8467317E-1,-5.8641225E-1,3.1560946E-2,-4.6581123E-2,2.3097098E-2],"categories":[],"categories_nodes":[],"categories_segments":[],"categories_sizes":[],"default_left":[0,0,1,1,0,0,0,0,0,0,1,1,0,0,0],"id":23,"left_children":[1,-1,3,5,7,9,-1,-1,-1,-1,11,13,-1,-1,-1],"loss_changes":[3.9302063E0,0E0,2.7989502E0,2.4316406E0,2.3740003E0,2.216858E0,0E0,0E0,0E0,0E0,2.143219E0,1.8687744E0,0E0,0E0,0E0],"parents":[2147483647,0,0,2,2,3,3,4,4,5,5,10,10,11,11],"right_children":[2,-1,4,6,8,10,-1,-1,-1,-1,12,14,-1,-1,-1],"split_conditions":[1.107269E-1,5.104931E-2,1.7726053E-1,1.7204514E-1,8.413901E-2,4.4015923E-1,4.0873278E-2,8.4555544E-2,-2.979197E-2,3.5194986E-2,1.6030233E-1,2.158014E-1,3.1560946E-2,-4.6581123E-2,2.3097098E-2],"split_indices":[2438,0,464,1058,270,1057,0,0,0,0,467,1644,0,0,0],"split_type":[0,0,0,0,0,0,0,0,0,0,0,0,0,0,0],"sum_hessian":[1.1231812E3,1.8554012E0,1.1213257E3,1.1185391E3,2.7866852E0,1.1172418E3,1.2972357E0,1.1125854E0,1.6740998E0,1.4193583E0,1.1158225E3,1.1142551E3,1.5673561E0,1.1123894E3,1.8656893E0],"tree_param":{"num_deleted":"0","num_feature":"5000","num_nodes":"15","size_leaf_vector":"1"}},{"base_weights":[-3.1515396E-1,-3.4924978E-1,5.8538896E-1,-3.70002E-1,6.3935053E-1,4.60611E-2,1.0662249E0,-4.1574377E-1,-4.2775907E-2,8.809026E-1,-3.8409706E-2,2.7910078E-1,-4.178005E-2,1.146841E0,-2.5858002E-2,1.10993415E-1,-4.2138153E-1,-2.4053067E-1,2.9298648E-1,6.3226655E-2,1.1019202E0,-3.359236E-1,5.741658E-1,1.2540407E0,4.0043414E-2,1.07179336E-1,-4.26064E-1,4.6253312E-1,-3.068375E-1,5.3004354E-1,-4.1809952E-1,8.9845695E-2,-3.6983836E-2,2.3010323E-2,1.184206E0,1.069496E-2,-3.8240917E-2,8.763184E-1,-4.9851756E-3,4.0213846E-2,1.0437154E-1,-3.4185037E-2,8.0021515E-2,-2.011764E-2,8.4080234E-2,5.21005E-2,-2.7441734E-2,-7.5879865E-3,6.32808E-2,-4.4380903E-2,5.275729E-2,9.955354E-2,1.2156598E-2,2.172707E-2,1.17806226E-1],"categories":[],"categories_nodes":[],"categories_segments":[],"categories_sizes":[],"default_left":[1,1,0,0,0,0,0,0,0,0,0,1,0,1,0,0,0,1,1,0,0,0,1,0,0,0,1,0,0,0,1,0,0,0,1,0,0,1,0,0,0,0,0,0,0,0,0,0,0,0,0,0,0,0,0],"id":24,"left_children":[1,3,5,7,9,11,13,15,17,19,-1,21,-1,23,-1,-1,25,27,29,31,33,35,37,39,-1,-1,41,43,45,47,49,-1,-1,-1,51,-1,-1,53,-1,-1,-1,-1,-1,-1,-1,-1,-1,-1,-1,-1,-1,-1,-1,-1,-1],"loss_changes":[3.6502884E1,2.3617752E1,1.123159E1,1.669954E1,6.8903933E0,3.027517E0,2.9513493E0,1.0628235E1,9.239562E0,3.5347395E0,0E0,3.0921865E0,0E0,8.72591E-1,0E0,0E0,8.6996155E0,4.2189116E0,8.925821E0,3.5425203E0,7.0015144E-1,4.6725804E-1,2.2046347E0,1.9255638E-1,0E0,0E0,8.2361145E0,3.6763606E0,3.3076625E0,6.6693993E0,2.450879E0,0E0,0E0,0E0,8.479214E-1,0E0,0E0,2.4029946E0,0E0,0E0,0E0,0E0,0E0,0E0,0E0,0E0,0E0,0E0,0E0,0E0,0E0,0E0,0E0,0E0,0E0],"parents":[2147483647,0,0,1,1,2,2,3,3,4,4,5,5,6,6,7,7,8,8,9,9,11,11,13,13,16,16,17,17,18,18,19,19,20,20,21,21,22,22,23,23,26,26,27,27,28,28,29,29,30,30,34,34,37,37],"right_children":[2,4,6,8,10,12,14,16,18,20,-1,22,-1,24,-1,-1,26,28,30,32,34,36,38,40,-1,-1,42,44,46,48,50,-1,-1,-1,52,-1,-1,54,-1,-1,-1,-1,-1,-1,-1,-1,-1,-1,-1,-1,-1,-1,-1,-1,-1],"split_conditions":[1.0845719E-1,1.571336E-1,1.4123863E-1,4.3179978E-2,9.0619564E-2,1.0258493E-1,6.856215E-2,6.1485535E-1,9.083913E-2,7.37882E-2,-3.8409706E-2,5.0475635E-2,-4.178005E-2,9.452252E-2,-2.5858002E-2,1.10993415E-1,5.139649E-1,3.061236E-2,9.9355906E-2,3.9103784E-2,9.946862E-2,4.0355463E-2,7.2470486E-2,8.199328E-2,4.0043414E-2,1.07179336E-1,1.6519041E-1,9.343444E-2,1.6842064E-1,8.932539E-2,4.7984764E-2,8.9845695E-2,-3.6983836E-2,2.3010323E-2,1.7989077E-1,1.069496E-2,-3.8240917E-2,7.035776E-2,-4.9851756E-3,4.0213846E-2,1.0437154E-1,-3.4185037E-2,8.0021515E-2,-2.011764E-2,8.4080234E-2,5.21005E-2,-2.7441734E-2,-7.5879865E-3,6.32808E-2,-4.4380903E-2,5.275729E-2,9.955354E-2,1.2156598E-2,2.172707E-2,1.17806226E-1],"split_indices":[2845,2307,1293,2789,429,2489,54,3208,579,579,0,1005,0,1801,0,0,3730,2224,293,343,270,34,422,4953,0,0,680,1192,1414,429,4953,0,0,0,2418,0,0,1638,0,0,0,0,0,0,0,0,0,0,0,0,0,0,0,0,0],"split_type":[0,0,0,0,0,0,0,0,0,0,0,0,0,0,0,0,0,0,0,0,0,0,0,0,0,0,0,0,0,0,0,0,0,0,0,0,0,0,0,0,0,0,0,0,0,0,0,0,0,0,0,0,0,0,0],"sum_hessian":[1.181176E3,1.1386763E3,4.2499714E1,1.115878E3,2.2798248E1,2.0547962E1,2.1951754E1,9.7878644E2,1.370916E2,1.8944637E1,3.8536103E0,1.4976606E1,5.5713563E0,2.0917503E1,1.03425E0,2.2615354E0,9.765249E2,8.645538E1,5.0636208E1,4.3047767E0,1.4639861E1,4.810752E0,1.01658535E1,1.7102715E1,3.8147879E0,1.8118974E0,9.74713E2,6.9360027E0,7.951939E1,3.816696E1,1.2469246E1,1.0479357E0,3.2568407E0,1.7651595E0,1.28747015E1,1.1631057E0,3.6476462E0,6.6409106E0,3.5249434E0,2.0521307E0,1.5050585E1,9.71648E2,3.0649922E0,3.4206717E0,3.5153308E0,2.523776E0,7.6995605E1,1.1665519E1,2.650144E1,1.1450013E1,1.0192326E0,1.1820475E1,1.0542274E0,4.0753994E0,2.565511E0],"tree_param":{"num_deleted":"0","num_feature":"5000","num_nodes":"55","size_leaf_vector":"1"}},{"base_weights":[1.0732316E0,3.8941923E-1,1.0969846E0,-1.1297449E-1,8.3483386E-1,1.6292915E-1,1.1093967E0,3.6026552E-1,-4.0204716E-1,9.92928E-1,1.882998E-3,5.303774E-1,-3.8377103E-1,1.1797223E0,9.654177E-1,-3.1588766E-1,6.413754E-1,4.7061484E-2,-4.6851046E-2,1.0930661E0,-3.4912445E-2,-4.053403E-2,4.214096E-2,-3.677723E-2,7.964633E-1,-4.3722015E-2,2.138032E-2,1.1875741E0,6.461434E-2,-9.8180085E-2,9.83193E-1,3.943626E-3,-3.7932567E-2,9.1252945E-2,-6.265038E-3,1.1839478E0,-7.054589E-3,2.4036993E-1,1.0485379E-1,3.6814958E-1,1.1950151E0,-4.503651E-2,5.9264195E-1,-2.3196308E-1,3.6600046E-2,-3.9206275E-1,9.944955E-1,-4.3098915E-2,6.517315E-2,-4.378536E-3,1.00580156E-1,5.561949E-2,-3.568481E-2,6.856664E-2,-4.5578584E-2,9.486358E-2,-3.587208E-2,8.001018E-2,-1.3122062E-2,-3.207185E-2,2.7527837E-2,-4.2996988E-2,6.5225866E-3,-5.7493416E-3,7.990989E-2],"categories":[],"categories_nodes":[],"categories_segments":[],"categories_sizes":[],"default_left":[1,1,0,0,0,0,0,0,0,1,0,0,1,1,0,1,0,0,0,1,0,0,0,0,0,0,0,0,0,1,0,0,0,0,0,0,0,1,0,1,1,0,1,1,0,1,0,0,0,0,0,0,0,0,0,0,0,0,0,0,0,0,0,0,0],"id":25,"left_children":[1,3,5,7,9,11,13,15,17,19,21,23,25,27,29,31,33,-1,-1,35,-1,-1,-1,-1,37,-1,-1,39,41,43,45,-1,-1,-1,47,49,-1,51,-1,53,55,-1,57,59,-1,61,63,-1,-1,-1,-1,-1,-1,-1,-1,-1,-1,-1,-1,-1,-1,-1,-1,-1,-1],"loss_changes":[3.0101318E1,1.456045E1,2.087207E1,4.421345E0,4.5261765E0,5.222813E0,1.7004639E1,2.556025E0,4.104637E0,4.6308403E0,2.039105E0,4.4360633E0,1.3176615E0,1.0424438E1,1.1317688E1,2.806048E-1,3.0096254E0,0E0,0E0,3.038334E0,0E0,0E0,0E0,0E0,3.34482E0,0E0,0E0,6.821533E0,3.4947343E0,9.06668E-1,9.465515E0,0E0,0E0,0E0,2.6762812E0,2.779457E0,0E0,2.6464882E0,0E0,6.2090206E0,5.9034424E0,0E0,1.9531714E0,1.0706307E0,0E0,4.3659496E-1,9.017944E0,0E0,0E0,0E0,0E0,0E0,0E0,0E0,0E0,0E0,0E0,0E0,0E0,0E0,0E0,0E0,0E0,0E0,0E0],"parents":[2147483647,0,0,1,1,2,2,3,3,4,4,5,5,6,6,7,7,8,8,9,9,10,10,11,11,12,12,13,13,14,14,15,15,16,16,19,19,24,24,27,27,28,28,29,29,30,30,34,34,35,35,37,37,39,39,40,40,42,42,43,43,45,45,46,46],"right_children":[2,4,6,8,10,12,14,16,18,20,22,24,26,28,30,32,34,-1,-1,36,-1,-1,-1,-1,38,-1,-1,40,42,44,46,-1,-1,-1,48,50,-1,52,-1,54,56,-1,58,60,-1,62,64,-1,-1,-1,-1,-1,-1,-1,-1,-1,-1,-1,-1,-1,-1,-1,-1,-1,-1],"split_conditions":[2.0585913E-2,3.435734E-2,1.9676875E-1,5.9976317E-2,4.387314E-2,4.0458225E-2,5.010423E-2,3.373604E-2,9.258232E-2,9.342221E-2,4.6660345E-2,9.034682E-2,7.4456446E-2,1.2721735E-1,4.872063E-1,2.630486E-2,3.7109114E-2,4.7061484E-2,-4.6851046E-2,1.40382E-1,-3.4912445E-2,-4.053403E-2,4.214096E-2,-3.677723E-2,5.2509867E-2,-4.3722015E-2,2.138032E-2,1.1095126E-1,4.2273052E-2,7.314138E-2,1.2274045E-1,3.943626E-3,-3.7932567E-2,9.1252945E-2,5.477678E-2,2.790905E-2,-7.054589E-3,2.911958E-2,1.0485379E-1,8.2210466E-2,2.15733E-1,-4.503651E-2,3.3755574E-2,1.4039083E-1,3.6600046E-2,8.140598E-2,1.4746949E-1,-4.3098915E-2,6.517315E-2,-4.378536E-3,1.00580156E-1,5.561949E-2,-3.568481E-2,6.856664E-2,-4.5578584E-2,9.486358E-2,-3.587208E-2,8.001018E-2,-1.3122062E-2,-3.207185E-2,2.7527837E-2,-4.2996988E-2,6.5225866E-3,-5.7493416E-3,7.990989E-2],"split_indices":[2789,2959,2418,2883,1891,507,4757,507,3027,1498,353,2145,309,621,3961,372,1420,0,0,489,0,0,0,0,1461,0,0,3406,54,4462,1034,0,0,0,1005,3552,0,353,0,449,2102,0,880,1414,0,257,1061,0,0,0,0,0,0,0,0,0,0,0,0,0,0,0,0,0,0],"split_type":[0,0,0,0,0,0,0,0,0,0,0,0,0,0,0,0,0,0,0,0,0,0,0,0,0,0,0,0,0,0,0,0,0,0,0,0,0,0,0,0,0,0,0,0,0,0,0,0,0,0,0,0,0,0,0,0,0,0,0,0,0,0,0,0,0],"sum_hessian":[1.8785337E3,6.3646324E1,1.8148873E3,3.0260805E1,3.338552E1,2.3985907E1,1.7909014E3,1.1381654E1,1.887915E1,2.789835E1,5.4871716E0,1.4362462E1,9.623444E0,1.1983707E3,5.925307E2,3.3060064E0,8.075647E0,2.6759253E0,1.6203226E1,2.629913E1,1.5992208E0,2.804647E0,2.6825247E0,2.8738196E0,1.1488642E1,7.7770886E0,1.8463554E0,1.1899271E3,8.443624E0,9.665487E0,5.828652E2,1.2337625E0,2.072244E0,4.0792246E0,3.9964228E0,2.4420198E1,1.8789302E0,6.301079E0,5.1875634E0,1.1162408E1,1.1787648E3,3.804279E0,4.639344E0,8.275543E0,1.3899441E0,4.4766264E0,5.7838855E2,2.6323767E0,1.3640461E0,1.6079731E0,2.2812225E1,3.7666457E0,2.5344331E0,7.362581E0,3.7998269E0,1.1770684E3,1.6963435E0,2.7776086E0,1.8617356E0,6.605223E0,1.6703205E0,3.2872162E0,1.1894104E0,7.683195E0,5.707054E2],"tree_param":{"num_deleted":"0","num_feature":"5000","num_nodes":"65","size_leaf_vector":"1"}},{"base_weights":[-4.446146E-1,-1.4892782E-1,-5.326591E-1,4.2199828E-2,-3.903775E-1,1.0519176E-1,-5.372286E-1,1.0998399E0,-8.234239E-3,-4.294765E-1,7.2877906E-2,3.571468E-1,-5.4486954E-1,7.6318565E-3,1.0475121E-1,-6.685686E-2,9.852473E-1,6.577515E-2,-4.6286792E-1,-3.7970018E-2,1.0600061E-1,-5.483751E-1,7.3519245E-2,1.048373E0,-1.160684E-1,-2.8047986E-2,1.345261E0,-5.0489765E-1,5.406976E-1,-5.527676E-1,3.0470327E-1,1.0972383E-2,9.776502E-2,9.632527E-2,-1.215964E-2,3.3773E-2,1.2112885E-1,-4.2140573E-2,3.646704E-2,1.04924865E-1,-3.14699E-2,3.9999414E-2,-4.4050116E-2,6.455846E-2,-3.0863006E-2],"categories":[],"categories_nodes":[],"categories_segments":[],"categories_sizes":[],"default_left":[0,1,0,0,1,0,0,1,1,0,0,0,1,0,0,0,0,0,1,0,0,1,0,0,0,0,0,1,0,0,1,0,0,0,0,0,0,0,0,0,0,0,0,0,0],"id":26,"left_children":[1,3,5,7,9,-1,11,13,15,17,-1,19,21,-1,-1,23,25,-1,27,-1,-1,29,-1,31,33,-1,35,37,39,41,43,-1,-1,-1,-1,-1,-1,-1,-1,-1,-1,-1,-1,-1,-1],"loss_changes":[2.8485825E1,1.1698437E1,7.8995056E0,7.5940533E0,6.1313934E0,0E0,5.960602E0,1.3210683E0,8.0284195E0,4.986418E0,0E0,7.0045576E0,4.831436E0,0E0,0E0,7.2583976E0,4.180379E0,0E0,4.7947254E0,0E0,0E0,3.2996216E0,0E0,7.7604246E-1,6.4476542E0,0E0,4.0742207E-1,2.9582767E0,4.051123E0,3.2904663E0,2.0633233E0,0E0,0E0,0E0,0E0,0E0,0E0,0E0,0E0,0E0,0E0,0E0,0E0,0E0,0E0],"parents":[2147483647,0,0,1,1,2,2,3,3,4,4,6,6,7,7,8,8,9,9,11,11,12,12,15,15,16,16,18,18,21,21,23,23,24,24,26,26,27,27,28,28,29,29,30,30],"right_children":[2,4,6,8,10,-1,12,14,16,18,-1,20,22,-1,-1,24,26,-1,28,-1,-1,30,-1,32,34,-1,36,38,40,42,44,-1,-1,-1,-1,-1,-1,-1,-1,-1,-1,-1,-1,-1,-1],"split_conditions":[5.189251E-2,3.0875592E-2,4.890774E-1,1.4544605E-1,1.2109935E-1,1.0519176E-1,6.911692E-2,2.2888303E-2,8.481189E-2,1.1386505E-1,7.2877906E-2,5.8239758E-2,1.5142374E-1,7.6318565E-3,1.0475121E-1,1.1192909E-1,7.400469E-2,6.577515E-2,9.6792586E-2,-3.7970018E-2,1.0600061E-1,1.8269667E-1,7.3519245E-2,4.6770927E-2,1.3749495E-1,-2.8047986E-2,4.4420462E-2,1.2285045E-1,6.943108E-2,1.6920273E-1,6.103852E-2,1.0972383E-2,9.776502E-2,9.632527E-2,-1.215964E-2,3.3773E-2,1.2112885E-1,-4.2140573E-2,3.646704E-2,1.04924865E-1,-3.14699E-2,3.9999414E-2,-4.4050116E-2,6.455846E-2,-3.0863006E-2],"split_indices":[3734,4877,4476,1174,621,0,3235,1754,3236,2471,0,2433,523,0,0,892,2739,0,4909,0,0,2418,0,429,4038,0,1265,2037,689,990,3894,0,0,0,0,0,0,0,0,0,0,0,0,0,0],"split_type":[0,0,0,0,0,0,0,0,0,0,0,0,0,0,0,0,0,0,0,0,0,0,0,0,0,0,0,0,0,0,0,0,0,0,0,0,0,0,0,0,0,0,0,0,0],"sum_hessian":[1.0962423E3,2.5214285E2,8.440995E2,1.4119801E2,1.1094483E2,1.3581502E0,8.4274133E2,5.4795833E0,1.3571843E2,1.0838361E2,2.561219E0,6.75136E0,8.3599E2,1.2557422E0,4.223841E0,1.2903702E2,6.681416E0,2.1818945E0,1.0620172E2,3.9204085E0,2.8309512E0,8.346316E2,1.3583792E0,4.5952926E0,1.2444172E2,1.4188952E0,5.262521E0,1.0240965E2,3.7920637E0,8.3070636E2,3.9252381E0,1.0762753E0,3.5190172E0,2.5428715E0,1.2189885E2,1.4321505E0,3.8303704E0,1.0004168E2,2.3679752E0,1.8409258E0,1.951138E0,2.2050052E0,8.2850134E2,2.162066E0,1.7631723E0],"tree_param":{"num_deleted":"0","num_feature":"5000","num_nodes":"45","size_leaf_vector":"1"}},{"base_weights":[-4.9750873E-1,3.333347E-1,-5.160606E-1,7.0613E-1,-5.1367298E-2,-5.4193914E-1,6.656691E-2,9.347177E-2,2.226032E-1,-2.8355047E-1,7.0087636E-1,9.01839E-2,-5.491139E-1,-4.8689193E-1,2.9949304E-1,-3.6621224E-2,7.43898E-1,-4.250476E-2,4.8462895E-1,7.899291E-3,7.661017E-2,5.060832E-1,-5.5192244E-1,-4.388674E-2,1.36573715E-2,-3.634306E-1,5.872828E-1,8.487129E-2,1.2478648E-3,4.6083186E-2,1.1715898E-2,-2.4668863E-2,8.415509E-2,2.2629409E-1,-5.5556065E-1,-4.2340774E-2,4.742367E-2,7.970959E-1,-8.538472E-2,-3.4366075E-2,7.466815E-2,5.3646594E-2,-4.4152886E-2,7.938216E-2,6.207863E-3,-3.8476452E-2,4.745213E-2],"categories":[],"categories_nodes":[],"categories_segments":[],"categories_sizes":[],"default_left":[0,0,0,0,0,0,0,0,0,1,0,0,0,1,0,0,0,0,0,0,0,0,0,0,0,0,1,0,0,0,0,0,0,0,0,0,0,1,1,0,0,0,0,0,0,0,0],"id":27,"left_children":[1,3,5,7,9,11,13,-1,15,17,19,-1,21,23,25,-1,27,-1,29,-1,-1,31,33,-1,-1,35,37,-1,-1,-1,-1,-1,-1,39,41,-1,-1,43,45,-1,-1,-1,-1,-1,-1,-1,-1],"loss_changes":[1.7132294E1,3.5700612E0,1.6269958E1,2.621305E0,2.4795403E0,1.3057495E1,6.163612E0,0E0,3.008214E0,2.3388476E0,4.4293404E-1,0E0,3.323761E0,7.2536254E-1,6.5994673E0,0E0,1.0855675E0,0E0,1.787138E-2,0E0,0E0,1.8089702E0,3.027954E0,0E0,0E0,2.090758E0,3.4161282E0,0E0,0E0,0E0,0E0,0E0,0E0,3.0015035E0,2.800232E0,0E0,0E0,2.6025581E0,2.0846412E0,0E0,0E0,0E0,0E0,0E0,0E0,0E0,0E0],"parents":[2147483647,0,0,1,1,2,2,3,3,4,4,5,5,6,6,8,8,9,9,10,10,12,12,13,13,14,14,16,16,18,18,21,21,22,22,25,25,26,26,33,33,34,34,37,37,38,38],"right_children":[2,4,6,8,10,12,14,-1,16,18,20,-1,22,24,26,-1,28,-1,30,-1,-1,32,34,-1,-1,36,38,-1,-1,-1,-1,-1,-1,40,42,-1,-1,44,46,-1,-1,-1,-1,-1,-1,-1,-1],"split_conditions":[1.735154E-1,3.9133597E-2,1.0625374E-1,2.9230988E-2,3.9298605E-2,1.64942E-1,5.414898E-2,9.347177E-2,3.1104583E-2,7.3014714E-2,5.4776948E-2,9.01839E-2,1.644307E-1,1.2917821E-1,1.4979215E-1,-3.6621224E-2,3.506178E-2,-4.250476E-2,3.750186E-2,7.899291E-3,7.661017E-2,1.0365158E-1,7.468842E-2,-4.388674E-2,1.36573715E-2,3.068414E-2,6.833471E-2,8.487129E-2,1.2478648E-3,4.6083186E-2,1.1715898E-2,-2.4668863E-2,8.415509E-2,2.1519525E-2,4.917626E-1,-4.2340774E-2,4.742367E-2,4.395986E-2,2.4700534E-2,-3.4366075E-2,7.466815E-2,5.3646594E-2,-4.4152886E-2,7.938216E-2,6.207863E-3,-3.8476452E-2,4.745213E-2],"split_indices":[2445,2313,1173,4171,1335,4709,3844,0,4512,270,2959,0,31,379,293,0,1080,0,95,0,0,523,1482,0,0,1013,3608,0,0,0,0,0,0,307,1346,0,0,2121,1664,0,0,0,0,0,0,0,0],"split_type":[0,0,0,0,0,0,0,0,0,0,0,0,0,0,0,0,0,0,0,0,0,0,0,0,0,0,0,0,0,0,0,0,0,0,0,0,0,0,0,0,0,0,0,0,0,0,0],"sum_hessian":[1.0993365E3,2.3640285E1,1.0756963E3,1.1581609E1,1.2058677E1,1.030016E3,4.5680294E1,5.1204753E0,6.4611335E0,9.690671E0,2.368006E0,3.708179E0,1.0263077E3,1.3207486E1,3.247281E1,2.840999E0,3.6201344E0,7.5155563E0,2.1751149E0,1.1492616E0,1.2187444E0,2.2486832E0,1.0240591E3,1.213012E1,1.0773659E0,9.7502575E0,2.272255E1,2.1712403E0,1.4488943E0,1.1227739E0,1.0523409E0,1.0890187E0,1.1596645E0,4.4804463E0,1.0195787E3,8.654964E0,1.0952932E0,1.717918E1,5.5433702E0,2.5370517E0,1.9433949E0,1.0427332E0,1.01853595E3,1.3056708E1,4.1224713E0,3.6806118E0,1.8627588E0],"tree_param":{"num_deleted":"0","num_feature":"5000","num_nodes":"47","size_leaf_vector":"1"}},{"base_weights":[-5.672239E-1,6.0355645E-2,-5.707481E-1,5.047797E-2,-5.761184E-1,-4.052453E-2,9.9612355E-1,-5.7795006E-1,5.333745E-2,1.1021885E-1,2.5122331E-2,-5.815878E-1,1.2340805E-1,-5.8341366E-1,3.0128686E-2,-2.8970426E-1,7.9472914E-2,1.0845944E-2,-4.635389E-2,-3.591597E-2,1.1567363E-2],"categories":[],"categories_nodes":[],"categories_segments":[],"categories_sizes":[],"default_left":[0,0,0,0,1,0,1,1,0,0,0,1,0,0,0,1,0,0,0,0,0],"id":28,"left_children":[1,-1,3,5,7,-1,9,11,-1,-1,-1,13,15,17,-1,19,-1,-1,-1,-1,-1],"loss_changes":[5.448517E0,0E0,3.5920105E0,5.8642178E0,2.8127747E0,0E0,6.5812874E-1,2.770813E0,0E0,0E0,0E0,2.0707397E0,2.5750997E0,1.490509E0,0E0,4.267953E-1,0E0,0E0,0E0,0E0,0E0],"parents":[2147483647,0,0,2,2,3,3,4,4,6,6,7,7,11,11,12,12,13,13,15,15],"right_children":[2,-1,4,6,8,-1,10,12,-1,-1,-1,14,16,18,-1,20,-1,-1,-1,-1,-1],"split_conditions":[4.4015923E-1,6.0355645E-2,8.305143E-2,2.2029074E-2,1.7042458E-1,-4.052453E-2,2.4137557E-2,1.4383674E-1,5.333745E-2,1.1021885E-1,2.5122331E-2,2.158014E-1,5.781579E-2,1.7893404E-1,3.0128686E-2,5.777225E-2,7.9472914E-2,1.0845944E-2,-4.635389E-2,-3.591597E-2,1.1567363E-2],"split_indices":[1057,0,417,1223,813,0,95,489,0,0,0,1644,4268,2112,0,4462,0,0,0,0,0],"split_type":[0,0,0,0,0,0,0,0,0,0,0,0,0,0,0,0,0,0,0,0,0],"sum_hessian":[1.0692172E3,2.2580228E0,1.0669591E3,9.072551E0,1.0578866E3,5.977854E0,3.0946972E0,1.0568749E3,1.0117159E0,1.292129E0,1.8025681E0,1.0515913E3,5.283508E0,1.0499921E3,1.5993055E0,4.0521364E0,1.2313718E0,2.5211785E0,1.0474708E3,2.9156134E0,1.1365229E0],"tree_param":{"num_deleted":"0","num_feature":"5000","num_nodes":"21","size_leaf_vector":"1"}},{"base_weights":[-3.1581938E-1,-3.942467E-1,8.322273E-2,-4.083416E-1,5.2081805E-1,5.0335217E-1,-1.3457505E-1,-4.169379E-1,8.3784163E-1,1.0042198E0,-3.4322414E-1,7.0523506E-1,-4.6784052E-1,-1.8881395E-1,1.0029632E0,1.2111907E-1,-4.218869E-1,1.1312923E-3,8.334467E-2,-3.136059E-2,1.0827146E-1,-3.8210496E-2,1.0846818E-2,8.788006E-1,1.0767103E-2,-4.333127E-2,1.1473635E-2,-2.5210753E-1,6.2108445E-1,-2.509641E-2,1.3783429E0,1.2225416E-1,-4.2592174E-1,9.506776E-1,-3.3170316E-2,9.3953836E-1,-4.2413227E-2,-3.8604638E-1,5.9420023E-2,7.5339586E-2,2.1127625E-1,1.2818092E-1,3.649758E-2,1.0876911E-1,-3.404761E-2,8.164561E-2,-1.0156998E-3,-2.5479559E-2,1.0815989E-1,-3.3059124E-2,2.9413873E-2,-3.0327171E-2,3.2505617E-2,-2.6025645E-2,3.5065062E-2],"categories":[],"categories_nodes":[],"categories_segments":[],"categories_sizes":[],"default_left":[0,1,0,1,0,1,1,0,0,0,0,0,0,1,0,0,0,0,0,0,0,0,0,1,0,0,0,0,0,0,0,0,0,1,0,0,0,1,0,0,1,0,0,0,0,0,0,0,0,0,0,0,0,0,0],"id":29,"left_children":[1,3,5,7,9,11,13,15,17,19,21,23,25,27,29,-1,31,-1,-1,-1,-1,-1,-1,33,35,-1,-1,37,39,-1,41,-1,43,45,-1,47,-1,49,51,-1,53,-1,-1,-1,-1,-1,-1,-1,-1,-1,-1,-1,-1,-1,-1],"loss_changes":[3.6049088E1,1.2620026E1,1.7440306E1,1.0504227E1,6.623319E0,1.3080399E1,7.9527073E0,9.719513E0,1.1908321E0,5.5679855E0,4.7644758E-1,6.528179E0,6.520426E-1,6.356202E0,3.3523788E0,0E0,8.116211E0,0E0,0E0,0E0,0E0,0E0,0E0,4.444233E0,6.5193443E0,0E0,0E0,4.7331886E0,1.0242581E0,0E0,3.0471134E-1,0E0,7.3043213E0,3.2131233E0,0E0,2.9945846E0,0E0,2.0337763E0,5.561585E0,0E0,8.11027E-1,0E0,0E0,0E0,0E0,0E0,0E0,0E0,0E0,0E0,0E0,0E0,0E0,0E0,0E0],"parents":[2147483647,0,0,1,1,2,2,3,3,4,4,5,5,6,6,7,7,8,8,9,9,10,10,11,11,12,12,13,13,14,14,16,16,23,23,24,24,27,27,28,28,30,30,32,32,33,33,35,35,37,37,38,38,40,40],"right_children":[2,4,6,8,10,12,14,16,18,20,22,24,26,28,30,-1,32,-1,-1,-1,-1,-1,-1,34,36,-1,-1,38,40,-1,42,-1,44,46,-1,48,-1,50,52,-1,54,-1,-1,-1,-1,-1,-1,-1,-1,-1,-1,-1,-1,-1,-1],"split_conditions":[4.2465236E-2,1.4921165E-1,1.11118525E-1,1.9120187E-1,7.918427E-2,5.2315142E-2,7.8014456E-2,4.2408153E-1,5.951853E-2,6.2986866E-2,7.305992E-2,7.687222E-2,5.0102375E-2,1.7942381E-1,5.637132E-2,1.2111907E-1,4.7402328E-1,1.1312923E-3,8.334467E-2,-3.136059E-2,1.0827146E-1,-3.8210496E-2,1.0846818E-2,1.029135E-1,4.246824E-2,-4.333127E-2,1.1473635E-2,9.09498E-2,7.811242E-2,-2.509641E-2,6.664742E-2,1.2225416E-1,4.03935E-1,1.5762685E-1,-3.3170316E-2,3.2138925E-2,-4.2413227E-2,1.52409E-1,5.586739E-2,7.5339586E-2,1.4681676E-1,1.2818092E-1,3.649758E-2,1.0876911E-1,-3.404761E-2,8.164561E-2,-1.0156998E-3,-2.5479559E-2,1.0815989E-1,-3.3059124E-2,2.9413873E-2,-3.0327171E-2,3.2505617E-2,-2.6025645E-2,3.5065062E-2],"split_indices":[3522,58,309,1298,429,1192,3648,4327,2136,2067,2067,1692,1664,58,345,0,732,0,0,0,0,0,0,30,3265,0,0,2959,2959,0,2136,0,935,2417,0,1745,0,100,1537,0,83,0,0,0,0,0,0,0,0,0,0,0,0,0,0],"split_type":[0,0,0,0,0,0,0,0,0,0,0,0,0,0,0,0,0,0,0,0,0,0,0,0,0,0,0,0,0,0,0,0,0,0,0,0,0,0,0,0,0,0,0,0,0,0,0,0,0,0,0,0,0,0,0],"sum_hessian":[1.1498346E3,9.6097723E2,1.8885738E2,9.46945E2,1.4032211E1,6.4031075E1,1.248263E2,9.411185E2,5.826486E0,8.894058E0,5.1381526E0,5.3238228E1,1.0792845E1,1.199414E2,4.884904E0,1.6058408E0,9.395127E2,1.4243056E0,4.4021807E0,1.8116722E0,7.0823865E0,3.9795184E0,1.1586342E0,4.2380753E1,1.0857475E1,9.651243E0,1.1416018E0,1.118862E2,8.055194E0,1.116199E0,3.7687047E0,1.143017E0,9.383697E2,4.040976E1,1.9709902E0,3.7544632E0,7.1030126E0,7.807798E1,3.380822E1,3.729331E0,4.3258624E0,2.381538E0,1.3871667E0,1.3077191E0,9.3706195E2,3.7239998E1,3.1697633E0,1.0100027E0,2.7444606E0,7.540426E1,2.6737251E0,1.4917781E1,1.889044E1,1.1721585E0,3.153704E0],"tree_param":{"num_deleted":"0","num_feature":"5000","num_nodes":"55","size_leaf_vector":"1"}},{"base_weights":[9.753558E-1,-2.5724992E-1,9.882218E-1,-3.7849933E-1,6.898531E-2,7.3538107E-1,1.0351048E0,1.4540178E-1,-4.4434406E-2,8.122258E-1,3.2567406E-1,1.0496557E0,2.7561256E-1,6.8176605E-2,-3.634143E-2,-9.621086E-2,8.476972E-1,-2.3224497E-1,5.5391437E-1,1.0561688E0,-1.3465887E-1,4.9980682E-1,-2.691369E-1,-4.8853274E-2,6.45035E-2,-4.3323092E-2,8.70884E-1,2.4012314E-1,-5.0145786E-2,-3.37026E-1,7.1492165E-1,1.0653822E0,3.687156E-1,6.657933E-2,-3.55332E-2,6.714184E-1,-4.437348E-2,-5.2881664E-1,5.8744334E-2,-4.005742E-2,7.074966E-2,-4.0842786E-2,4.9735527E-2,2.933026E-2,-4.9587876E-2,4.147274E-3,6.912943E-2,-4.183574E-2,8.461437E-2,-3.8766064E-2,4.5587216E-2,-2.8835852E-2,2.0478854E-2,-1.212624E-2,6.7250215E-2,-5.151696E-2,6.509887E-3],"categories":[],"categories_nodes":[],"categories_segments":[],"categories_sizes":[],"default_left":[0,1,1,0,0,1,1,0,0,0,1,1,1,0,0,1,0,0,0,1,0,1,0,0,0,0,0,1,0,0,0,0,1,0,0,0,0,1,0,0,0,0,0,0,0,0,0,0,0,0,0,0,0,0,0,0,0],"id":30,"left_children":[1,3,5,7,-1,9,11,13,-1,15,17,19,21,-1,-1,23,25,27,29,31,33,35,37,-1,-1,-1,39,41,-1,43,45,47,49,51,-1,53,-1,55,-1,-1,-1,-1,-1,-1,-1,-1,-1,-1,-1,-1,-1,-1,-1,-1,-1,-1,-1],"loss_changes":[3.092334E1,3.1712308E0,2.1928955E1,1.9419012E0,0E0,9.270813E0,1.752832E1,2.911225E0,0E0,8.277954E0,6.4323273E0,1.2342163E1,4.0016823E0,0E0,0E0,5.459988E0,8.396286E0,3.0071573E0,5.3228016E0,9.570679E0,6.325151E-1,4.5207725E0,2.9862828E0,0E0,0E0,0E0,7.898926E0,2.5653334E0,0E0,1.4796109E0,3.127286E0,7.935791E0,4.246812E0,6.4673334E-1,0E0,3.069603E0,0E0,6.8126345E-1,0E0,0E0,0E0,0E0,0E0,0E0,0E0,0E0,0E0,0E0,0E0,0E0,0E0,0E0,0E0,0E0,0E0,0E0,0E0],"parents":[2147483647,0,0,1,1,2,2,3,3,5,5,6,6,7,7,9,9,10,10,11,11,12,12,15,15,16,16,17,17,18,18,19,19,20,20,21,21,22,22,26,26,27,27,29,29,30,30,31,31,32,32,33,33,35,35,37,37],"right_children":[2,4,6,8,-1,10,12,14,-1,16,18,20,22,-1,-1,24,26,28,30,32,34,36,38,-1,-1,-1,40,42,-1,44,46,48,50,52,-1,54,-1,56,-1,-1,-1,-1,-1,-1,-1,-1,-1,-1,-1,-1,-1,-1,-1,-1,-1,-1,-1],"split_conditions":[1.5704717E-1,1.0835246E-1,2.6964698E-2,2.9071435E-2,6.898531E-2,5.3730257E-2,8.761772E-2,4.403038E-2,-4.4434406E-2,1.4120954E-1,2.590888E-2,1.9120187E-1,7.850661E-2,6.8176605E-2,-3.634143E-2,8.237378E-2,1.2673016E-1,3.5556138E-2,1.1306674E-1,1.2348478E-1,5.525522E-2,9.311829E-2,7.543392E-2,-4.8853274E-2,6.45035E-2,-4.3323092E-2,1.763933E-1,2.7520698E-2,-5.0145786E-2,4.6868432E-2,7.3946066E-2,1.2200208E-1,2.8589137E-2,7.418398E-2,-3.55332E-2,1.0613668E-1,-4.437348E-2,9.701281E-2,5.8744334E-2,-4.005742E-2,7.074966E-2,-4.0842786E-2,4.9735527E-2,2.933026E-2,-4.9587876E-2,4.147274E-3,6.912943E-2,-4.183574E-2,8.461437E-2,-3.8766064E-2,4.5587216E-2,-2.8835852E-2,2.0478854E-2,-1.212624E-2,6.7250215E-2,-5.151696E-2,6.509887E-3],"split_indices":[4504,1662,4464,4464,0,309,2126,1325,0,1061,2789,1298,3611,0,0,1498,4496,899,2152,2418,2224,309,422,0,0,0,3316,4080,0,422,3545,4214,2578,2067,0,2158,0,270,0,0,0,0,0,0,0,0,0,0,0,0,0,0,0,0,0,0,0],"split_type":[0,0,0,0,0,0,0,0,0,0,0,0,0,0,0,0,0,0,0,0,0,0,0,0,0,0,0,0,0,0,0,0,0,0,0,0,0,0,0,0,0,0,0,0,0,0,0,0,0,0,0,0,0,0,0,0,0],"sum_hessian":[1.9329069E3,1.9771112E1,1.9131359E3,1.8452646E1,1.3184667E0,3.0186398E2,1.6112719E3,4.8206444E0,1.3632002E1,2.5336105E2,4.8502922E1,1.5806074E3,3.0664413E1,2.012891E0,2.8077533E0,9.456782E0,2.4390427E2,1.4076431E1,3.442649E1,1.57207E3,8.537421E0,2.1782303E1,8.882111E0,6.2221727E0,3.23461E0,3.6191332E0,2.4028514E2,6.6464043E0,7.430027E0,5.101866E0,2.9324625E1,1.5507368E3,2.133316E1,5.6830854E0,2.8543358E0,1.906292E1,2.7193837E0,7.446134E0,1.4359763E0,3.5050073E0,2.3678014E2,2.1422098E0,4.5041947E0,1.398595E0,3.703271E0,5.900646E0,2.3423979E1,2.56632E0,1.5481705E3,3.8784673E0,1.7454693E1,1.4759414E0,4.207144E0,3.4044945E0,1.5658425E1,6.1559396E0,1.2901947E0],"tree_param":{"num_deleted":"0","num_feature":"5000","num_nodes":"57","size_leaf_vector":"1"}},{"base_weights":[-4.3492034E-1,-1.0766097E-1,-5.2180195E-1,1.6250078E-1,-2.8545955E-1,8.3479434E-2,-5.262792E-1,-6.325937E-3,6.3235134E-1,-3.4238294E-1,6.562866E-1,8.5938856E-2,-5.3067416E-1,-8.7637834E-2,8.806702E-2,-2.285528E-1,9.160742E-1,-3.7407118E-1,7.0650704E-2,-3.153786E-2,1.02433E0,2.84765E-1,-5.3723687E-1,-2.1457502E-1,5.911764E-1,-3.9466377E-2,4.7218222E-2,2.0342396E-1,1.331343E0,6.9980934E-2,-4.0161884E-1,1.0979996E-1,-2.5619872E-2,-3.2302937E-1,1.1788465E-1,6.1004605E-2,-5.407122E-1,8.987934E-2,-2.0768166E-2,-1.2666731E-2,1.0030356E-1,7.4568756E-2,-2.547752E-2,1.2560603E-1,-2.1890095E-3,-3.354574E-2,7.6356694E-2,1.0350854E-2,-3.7009366E-2,5.3724032E-2,-4.309594E-2],"categories":[],"categories_nodes":[],"categories_segments":[],"categories_sizes":[],"default_left":[0,1,0,1,1,0,0,1,0,1,0,0,0,1,0,1,0,0,0,0,1,0,0,0,0,0,0,0,1,0,1,0,0,1,0,0,0,0,0,0,0,0,0,0,0,0,0,0,0,0,0],"id":31,"left_children":[1,3,5,7,9,-1,11,13,15,17,19,-1,21,23,-1,25,27,29,-1,-1,31,33,35,37,39,-1,-1,41,43,-1,45,-1,-1,47,-1,-1,49,-1,-1,-1,-1,-1,-1,-1,-1,-1,-1,-1,-1,-1,-1],"loss_changes":[3.0399734E1,1.090094E1,6.524872E0,7.1691313E0,7.549963E0,0E0,6.5560913E0,6.2298493E0,6.0439854E0,5.399947E0,3.5637522E0,0E0,4.663376E0,5.6240063E0,0E0,1.7924615E0,5.10518E0,4.7541313E0,0E0,0E0,3.5263176E0,5.881792E0,4.2172546E0,3.8005705E0,5.4353294E0,0E0,0E0,3.352577E0,3.9525318E0,0E0,4.1518936E0,0E0,0E0,4.3594003E-1,0E0,0E0,3.858139E0,0E0,0E0,0E0,0E0,0E0,0E0,0E0,0E0,0E0,0E0,0E0,0E0,0E0,0E0],"parents":[2147483647,0,0,1,1,2,2,3,3,4,4,6,6,7,7,8,8,9,9,10,10,12,12,13,13,15,15,16,16,17,17,20,20,21,21,22,22,23,23,24,24,27,27,28,28,30,30,33,33,36,36],"right_children":[2,4,6,8,10,-1,12,14,16,18,20,-1,22,24,-1,26,28,30,-1,-1,32,34,36,38,40,-1,-1,42,44,-1,46,-1,-1,48,-1,-1,50,-1,-1,-1,-1,-1,-1,-1,-1,-1,-1,-1,-1,-1,-1],"split_conditions":[5.003468E-2,2.5382135E-2,4.890774E-1,7.048394E-2,1.2109935E-1,8.3479434E-2,1.838298E-1,1.1068461E-1,3.63987E-2,1.3544144E-1,3.8612716E-2,8.5938856E-2,1.6624846E-1,7.441022E-2,8.806702E-2,9.238785E-2,9.252988E-2,1.3762043E-1,7.0650704E-2,-3.153786E-2,3.3141557E-2,3.0048609E-2,1.7213878E-1,1.2694177E-1,2.882568E-2,-3.9466377E-2,4.7218222E-2,1.1641934E-1,3.295483E-2,6.9980934E-2,1.2285045E-1,1.0979996E-1,-2.5619872E-2,2.238285E-2,1.1788465E-1,6.1004605E-2,1.6334803E-1,8.987934E-2,-2.0768166E-2,-1.2666731E-2,1.0030356E-1,7.4568756E-2,-2.547752E-2,1.2560603E-1,-2.1890095E-3,-3.354574E-2,7.6356694E-2,1.0350854E-2,-3.7009366E-2,5.3724032E-2,-4.309594E-2],"split_indices":[4983,4567,4476,364,43,0,1625,293,1981,4504,4483,0,866,2916,0,4909,1832,922,0,0,955,343,373,1448,1891,0,0,1950,439,0,2037,0,0,1107,0,0,735,0,0,0,0,0,0,0,0,0,0,0,0,0,0],"split_type":[0,0,0,0,0,0,0,0,0,0,0,0,0,0,0,0,0,0,0,0,0,0,0,0,0,0,0,0,0,0,0,0,0,0,0,0,0,0,0,0,0,0,0,0,0,0,0,0,0,0,0],"sum_hessian":[1.070154E3,2.2497469E2,8.451794E2,8.932816E1,1.3564651E2,1.7303741E0,8.4344904E2,6.6441086E1,2.2887077E1,1.2851494E2,7.1315866E0,