{"learner":{"attributes":{},"feature_names":[],"feature_types":[],"gradient_booster":{"model":{"gbtree_model_param":{"num_parallel_tree":"1","num_trees":"1050"},"iteration_indptr":[0,5,10,15,20,25,30,35,40,45,50,55,60,65,70,75,80,85,90,95,100,105,110,115,120,125,130,135,140,145,150,155,160,165,170,175,180,185,190,195,200,205,210,215,220,225,230,235,240,245,250,255,260,265,270,275,280,285,290,295,300,305,310,315,320,325,330,335,340,345,350,355,360,365,370,375,380,385,390,395,400,405,410,415,420,425,430,435,440,445,450,455,460,465,470,475,480,485,490,495,500,505,510,515,520,525,530,535,540,545,550,555,560,565,570,575,580,585,590,595,600,605,610,615,620,625,630,635,640,645,650,655,660,665,670,675,680,685,690,695,700,705,710,715,720,725,730,735,740,745,750,755,760,765,770,775,780,785,790,795,800,805,810,815,820,825,830,835,840,845,850,855,860,865,870,875,880,885,890,895,900,905,910,915,920,925,930,935,940,945,950,955,960,965,970,975,980,985,990,995,1000,1005,1010,1015,1020,1025,1030,1035,1040,1045,1050],"tree_info":[0,1,2,3,4,0,1,2,3,4,0,1,2,3,4,0,1,2,3,4,0,1,2,3,4,0,1,2,3,4,0,1,2,3,4,0,1,2,3,4,0,1,2,3,4,0,1,2,3,4,0,1,2,3,4,0,1,2,3,4,0,1,2,3,4,0,1,2,3,4,0,1,2,3,4,0,1,2,3,4,0,1,2,3,4,0,1,2,3,4,0,1,2,3,4,0,1,2,3,4,0,1,2,3,4,0,1,2,3,4,0,1,2,3,4,0,1,2,3,4,0,1,2,3,4,0,1,2,3,4,0,1,2,3,4,0,1,2,3,4,0,1,2,3,4,0,1,2,3,4,0,1,2,3,4,0,1,2,3,4,0,1,2,3,4,0,1,2,3,4,0,1,2,3,4,0,1,2,3,4,0,1,2,3,4,0,1,2,3,4,0,1,2,3,4,0,1,2,3,4,0,1,2,3,4,0,1,2,3,4,0,1,2,3,4,0,1,2,3,4,0,1,2,3,4,0,1,2,3,4,0,1,2,3,4,0,1,2,3,4,0,1,2,3,4,0,1,2,3,4,0,1,2,3,4,0,1,2,3,4,0,1,2,3,4,0,1,2,3,4,0,1,2,3,4,0,1,2,3,4,0,1,2,3,4,0,1,2,3,4,0,1,2,3,4,0,1,2,3,4,0,1,2,3,4,0,1,2,3,4,0,1,2,3,4,0,1,2,3,4,0,1,2,3,4,0,1,2,3,4,0,1,2,3,4,0,1,2,3,4,0,1,2,3,4,0,1,2,3,4,0,1,2,3,4,0,1,2,3,4,0,1,2,3,4,0,1,2,3,4,0,1,2,3,4,0,1,2,3,4,0,1,2,3,4,0,1,2,3,4,0,1,2,3,4,0,1,2,3,4,0,1,2,3,4,0,1,2,3,4,0,1,2,3,4,0,1,2,3,4,0,1,2,3,4,0,1,2,3,4,0,1,2,3,4,0,1,2,3,4,0,1,2,3,4,0,1,2,3,4,0,1,2,3,4,0,1,2,3,4,0,1,2,3,4,0,1,2,3,4,0,1,2,3,4,0,1,2,3,4,0,1,2,3,4,0,1,2,3,4,0,1,2,3,4,0,1,2,3,4,0,1,2,3,4,0,1,2,3,4,0,1,2,3,4,0,1,2,3,4,0,1,2,3,4,0,1,2,3,4,0,1,2,3,4,0,1,2,3,4,0,1,2,3,4,0,1,2,3,4,0,1,2,3,4,0,1,2,3,4,0,1,2,3,4,0,1,2,3,4,0,1,2,3,4,0,1,2,3,4,0,1,2,3,4,0,1,2,3,4,0,1,2,3,4,0,1,2,3,4,0,1,2,3,4,0,1,2,3,4,0,1,2,3,4,0,1,2,3,4,0,1,2,3,4,0,1,2,3,4,0,1,2,3,4,0,1,2,3,4,0,1,2,3,4,0,1,2,3,4,0,1,2,3,4,0,1,2,3,4,0,1,2,3,4,0,1,2,3,4,0,1,2,3,4,0,1,2,3,4,0,1,2,3,4,0,1,2,3,4,0,1,2,3,4,0,1,2,3,4,0,1,2,3,4,0,1,2,3,4,0,1,2,3,4,0,1,2,3,4,0,1,2,3,4,0,1,2,3,4,0,1,2,3,4,0,1,2,3,4,0,1,2,3,4,0,1,2,3,4,0,1,2,3,4,0,1,2,3,4,0,1,2,3,4,0,1,2,3,4,0,1,2,3,4,0,1,2,3,4,0,1,2,3,4,0,1,2,3,4,0,1,2,3,4,0,1,2,3,4,0,1,2,3,4,0,1,2,3,4,0,1,2,3,4,0,1,2,3,4,0,1,2,3,4,0,1,2,3,4,0,1,2,3,4,0,1,2,3,4,0,1,2,3,4,0,1,2,3,4,0,1,2,3,4,0,1,2,3,4,0,1,2,3,4,0,1,2,3,4,0,1,2,3,4,0,1,2,3,4,0,1,2,3,4,0,1,2,3,4,0,1,2,3,4,0,1,2,3,4,0,1,2,3,4,0,1,2,3,4,0,1,2,3,4,0,1,2,3,4,0,1,2,3,4,0,1,2,3,4,0,1,2,3,4,0,1,2,3,4,0,1,2,3,4,0,1,2,3,4,0,1,2,3,4,0,1,2,3,4,0,1,2,3,4,0,1,2,3,4,0,1,2,3,4,0,1,2,3,4,0,1,2,3,4,0,1,2,3,4,0,1,2,3,4,0,1,2,3,4,0,1,2,3,4,0,1,2,3,4,0,1,2,3,4,0,1,2,3,4,0,1,2,3,4,0,1,2,3,4,0,1,2,3,4,0,1,2,3,4,0,1,2,3,4,0,1,2,3,4],"trees":[{"base_weights":[1.5361123E0,8.499718E-1,2.1866252E0,1.5632925E0,5.829404E-1,2.2637036E0,9.1408587E-1,7.7075094E-1,1.8743944E0,3.3309194E-1,9.404388E-1,2.3276033E0,1.0444177E0,2.0408162E-1,1.4102564E0,9.739049E-1,-3.2258064E-1,5.445544E-1,2.1131065E0,1.9404914E-2,7.2593796E-1,2.1424259E-1,1.314621E0,8.1424934E-1,2.364251E0,-4.141176E-2,1.3475176E0,-4.0540537E-1,5.871886E-1,-3.422222E-2,1.6257088E0,-1.452282E-1,1.2602099E0,4.1684207E-2,-4.281081E-2,-2.3605148E-1,1.111111E0,2.1534555E0,1.4666666E-2,5.4533505E-1,-1.0866091E-1,8.647856E-1,-3.739612E-1,5.515041E-1,-4.273504E-1,1.7346938E0,8.5842407E-1,1.9170984E0,-2.2222221E-1,1.4447086E0,2.415913E0,-1.6853932E-1,1.5054601E0,-4.141176E-2,6.9473684E-3,1.1314285E-1,7.462686E-2,1.9047618E0,1.7699115E-1,-4.3343283E-2,9.138461E-2,1.2875614E-1,4.9359772E-2,-4.2177513E-2,3.1146066E-2,1.9677017E-2,1.4265837E-1,1.7846908E-1,9.737705E-2,1.19950205E-1,7.2660544E-3,-1.3555334E-2,9.55862E-2,1.3419542E-1,5.3833693E-2,6.0923073E-2,-4.564486E-2,-1.0527607E-2,8.382938E-2,-4.3324374E-2,3.1146066E-2,2.1405404E-2,1.4975703E-1,-1.971784E-2,8.2438655E-2,1.6725466E-1,4.1684207E-2,3.1146066E-2,-4.1813664E-2,1.846632E-2,1.3768795E-1,3.1146066E-2,1.9202876E-1,6.9473684E-3,-2.7789474E-2,1.2809852E-1,-2.7789474E-2,-3.9272726E-2,5.6571424E-2,6.9473684E-3,1.6169192E-1,7.642105E-2,-3.422222E-2],"categories":[],"categories_nodes":[],"categories_segments":[],"categories_sizes":[],"default_left":[1,0,1,0,0,1,0,1,0,1,0,0,0,0,0,1,0,1,1,0,1,0,0,0,0,0,0,0,1,0,0,0,0,0,0,0,0,1,0,1,1,0,0,0,1,0,0,1,0,0,0,0,1,0,0,0,1,0,1,0,0,0,0,0,0,0,0,0,0,0,0,0,0,0,0,0,0,0,0,0,0,0,0,0,0,0,0,0,0,0,0,0,0,0,0,0,0,0,0,0,0,0,0],"id":0,"left_children":[1,3,5,7,9,11,13,15,17,19,21,23,25,27,29,31,33,35,37,39,41,43,45,47,49,-1,51,53,55,-1,57,59,61,-1,-1,63,65,67,-1,69,71,73,75,77,79,81,83,85,87,89,91,93,95,-1,-1,-1,97,99,101,-1,-1,-1,-1,-1,-1,-1,-1,-1,-1,-1,-1,-1,-1,-1,-1,-1,-1,-1,-1,-1,-1,-1,-1,-1,-1,-1,-1,-1,-1,-1,-1,-1,-1,-1,-1,-1,-1,-1,-1,-1,-1,-1,-1],"loss_changes":[5.8276196E2,1.2082007E2,6.3816406E1,4.1328735E1,4.1363663E1,4.686255E1,1.3817612E1,1.1553165E1,3.8174866E1,3.4022236E1,5.17274E1,3.1371338E1,1.6533134E1,4.3569665E0,9.99086E0,1.3935165E1,1.8905152E0,9.19588E0,7.7442627E0,1.0472135E1,1.9046669E1,1.4577657E1,2.2680038E1,1.839511E1,2.4330566E1,0E0,7.006218E0,4.7453046E-1,4.74076E0,0E0,8.217213E0,5.6661787E0,6.9677277E0,0E0,0E0,1.9484081E0,6.6252575E0,6.688843E0,0E0,1.3242957E1,1.04962435E1,1.5607849E1,3.7838683E0,1.5365714E1,2.513142E0,1.4281952E1,1.2875938E1,9.7901726E-1,1.9011483E0,1.1567909E1,8.769531E0,1.9712201E-1,5.895714E0,0E0,0E0,0E0,3.2881634E0,4.2058105E0,2.586152E0,0E0,0E0,0E0,0E0,0E0,0E0,0E0,0E0,0E0,0E0,0E0,0E0,0E0,0E0,0E0,0E0,0E0,0E0,0E0,0E0,0E0,0E0,0E0,0E0,0E0,0E0,0E0,0E0,0E0,0E0,0E0,0E0,0E0,0E0,0E0,0E0,0E0,0E0,0E0,0E0,0E0,0E0,0E0,0E0],"parents":[2147483647,0,0,1,1,2,2,3,3,4,4,5,5,6,6,7,7,8,8,9,9,10,10,11,11,12,12,13,13,14,14,15,15,16,16,17,17,18,18,19,19,20,20,21,21,22,22,23,23,24,24,26,26,27,27,28,28,30,30,31,31,32,32,35,35,36,36,37,37,39,39,40,40,41,41,42,42,43,43,44,44,45,45,46,46,47,47,48,48,49,49,50,50,51,51,52,52,56,56,57,57,58,58],"right_children":[2,4,6,8,10,12,14,16,18,20,22,24,26,28,30,32,34,36,38,40,42,44,46,48,50,-1,52,54,56,-1,58,60,62,-1,-1,64,66,68,-1,70,72,74,76,78,80,82,84,86,88,90,92,94,96,-1,-1,-1,98,100,102,-1,-1,-1,-1,-1,-1,-1,-1,-1,-1,-1,-1,-1,-1,-1,-1,-1,-1,-1,-1,-1,-1,-1,-1,-1,-1,-1,-1,-1,-1,-1,-1,-1,-1,-1,-1,-1,-1,-1,-1,-1,-1,-1,-1],"split_conditions":[4.1726265E-2,7.514263E-2,9.925867E-2,1.1290274E-1,9.933259E-2,7.026836E-2,8.95417E-2,7.1911894E-2,1.5379424E-1,4.2878117E-2,8.733921E-2,4.0747398E-1,1.9530268E-1,9.698553E-2,8.5224986E-2,2.5931664E-2,4.2395815E-2,4.6893395E-2,1.2510622E-1,1.2733467E-1,1.1852985E-1,3.6232587E-2,3.2461893E-2,4.4027835E-2,9.8272026E-2,-4.141176E-2,1.1831789E-1,5.9761263E-2,4.186139E-2,-3.422222E-2,5.33781E-2,3.377614E-2,4.8719585E-2,4.1684207E-2,-4.281081E-2,6.0011957E-2,4.8511498E-2,1.0939375E-1,1.4666666E-2,5.0823282E-2,8.208043E-2,1.3570619E-1,3.5450365E-2,5.010263E-2,1.0215881E-1,1.3037811E-1,1.2485035E-1,4.5091067E-2,5.5394918E-2,6.526172E-2,1.8381889E-1,3.331285E-2,1.13339305E-1,-4.141176E-2,6.9473684E-3,1.1314285E-1,5.497319E-2,1.5364309E-1,3.3072613E-2,-4.3343283E-2,9.138461E-2,1.2875614E-1,4.9359772E-2,-4.2177513E-2,3.1146066E-2,1.9677017E-2,1.4265837E-1,1.7846908E-1,9.737705E-2,1.19950205E-1,7.2660544E-3,-1.3555334E-2,9.55862E-2,1.3419542E-1,5.3833693E-2,6.0923073E-2,-4.564486E-2,-1.0527607E-2,8.382938E-2,-4.3324374E-2,3.1146066E-2,2.1405404E-2,1.4975703E-1,-1.971784E-2,8.2438655E-2,1.6725466E-1,4.1684207E-2,3.1146066E-2,-4.1813664E-2,1.846632E-2,1.3768795E-1,3.1146066E-2,1.9202876E-1,6.9473684E-3,-2.7789474E-2,1.2809852E-1,-2.7789474E-2,-3.9272726E-2,5.6571424E-2,6.9473684E-3,1.6169192E-1,7.642105E-2,-3.422222E-2],"split_indices":[4220,579,2285,2908,4691,4968,4950,1722,1414,4462,3967,2788,2444,632,2722,4464,54,4462,1607,2417,523,2883,4464,4464,3967,0,2391,54,2183,0,1135,3022,4335,0,0,3633,2883,3954,0,4052,817,2417,698,4917,17,3966,2788,54,212,4950,2444,34,3187,0,0,0,1402,3947,1013,0,0,0,0,0,0,0,0,0,0,0,0,0,0,0,0,0,0,0,0,0,0,0,0,0,0,0,0,0,0,0,0,0,0,0,0,0,0,0,0,0,0,0,0],"split_type":[0,0,0,0,0,0,0,0,0,0,0,0,0,0,0,0,0,0,0,0,0,0,0,0,0,0,0,0,0,0,0,0,0,0,0,0,0,0,0,0,0,0,0,0,0,0,0,0,0,0,0,0,0,0,0,0,0,0,0,0,0,0,0,0,0,0,0,0,0,0,0,0,0,0,0,0,0,0,0,0,0,0,0,0,0,0,0,0,0,0,0,0,0,0,0,0,0,0,0,0,0,0,0],"sum_hessian":[1.3088E3,6.3808E2,6.7072003E2,1.7248001E2,4.6560004E2,6.3168005E2,3.904E1,4.9600002E1,1.22880005E2,2.752E2,1.9040001E2,5.9936005E2,3.2320004E1,1.6640001E1,2.2400002E1,4.1920002E1,7.6800003E0,1.92E1,1.0368001E2,1.536E2,1.21600006E2,6.528001E1,1.2512001E2,1.4720001E1,5.8464E2,5.1200004E0,2.7200003E1,6.4000006E0,1.0240001E1,2.2400002E0,2.0160002E1,8.64E0,3.3280003E1,1.2800001E0,6.4000006E0,8.320001E0,1.0880001E1,1.0144001E2,2.2400002E0,2.9440002E1,1.2416001E2,1.0816001E2,1.3440001E1,4.2880005E1,2.2400002E1,6.3680004E1,6.1440002E1,6.7200003E0,8.000001E0,3.2640003E1,5.5200006E2,2.5600002E0,2.4640001E1,5.1200004E0,1.2800001E0,3.2000003E0,7.0400004E0,1.6640001E1,3.5200002E0,7.0400004E0,1.6000001E0,2.0160002E1,1.3120001E1,5.76E0,2.5600002E0,5.4400005E0,5.4400005E0,9.0240005E1,1.1200001E1,8.64E0,2.0800001E1,1.1936001E2,4.8E0,1.8240002E1,8.9920006E1,1.6000001E0,1.1840001E1,1.8560001E1,2.4320002E1,1.9840002E1,2.5600002E0,6.4000006E0,5.7280003E1,8.64E0,5.2800003E1,5.4400005E0,1.2800001E0,2.5600002E0,5.4400005E0,6.7200003E0,2.5920002E1,2.5600002E0,5.4944006E2,1.2800001E0,1.2800001E0,2.3360003E1,1.2800001E0,3.8400002E0,3.2000003E0,1.2800001E0,1.5360001E1,1.2800001E0,2.2400002E0],"tree_param":{"num_deleted":"0","num_feature":"5000","num_nodes":"103","size_leaf_vector":"1"}},{"base_weights":[-5.113062E-1,-6.182414E-1,-4.3633723E-1,-6.200942E-1,6.9473684E-3,-4.424365E-1,1.2184615E-1,-6.2195575E-1,6.9473684E-3,4.8387095E-1,-4.5239967E-1,-4.940693E-2,-5.4246574E-3,-3.9906975E-2,1.5044247E0,-4.57293E-1,9.138461E-2,1.3688888E-1,4.1684207E-2,-4.6606788E-1,3.0042917E-1,-3.7542388E-2,2.8725388E-2,-1.0702702E-2,1.03068486E-1],"categories":[],"categories_nodes":[],"categories_segments":[],"categories_sizes":[],"default_left":[0,1,1,1,0,0,0,1,0,0,1,0,0,0,0,1,0,0,0,1,1,0,0,0,0],"id":1,"left_children":[1,3,5,7,-1,9,-1,11,-1,13,15,-1,-1,-1,17,19,-1,-1,-1,21,23,-1,-1,-1,-1],"loss_changes":[1.0210144E1,7.5593567E-1,9.977829E0,7.595978E-1,0E0,7.327774E0,0E0,5.0949097E-1,0E0,9.507908E0,6.5216217E0,0E0,0E0,0E0,8.050251E-2,5.1998444E0,0E0,0E0,0E0,5.132416E0,4.239139E0,0E0,0E0,0E0,0E0],"parents":[2147483647,0,0,1,1,2,2,3,3,5,5,7,7,9,9,10,10,14,14,15,15,19,19,20,20],"right_children":[2,4,6,8,-1,10,-1,12,-1,14,16,-1,-1,-1,18,20,-1,-1,-1,22,24,-1,-1,-1,-1],"split_conditions":[1.9478486E-1,1.8538512E-1,1.567692E-1,2.0646194E-1,6.9473684E-3,1.3466392E-1,1.2184615E-1,1.9876806E-1,6.9473684E-3,3.1011598E-2,9.040341E-2,-4.940693E-2,-5.4246574E-3,-3.9906975E-2,3.2316644E-2,1.3026826E-1,9.138461E-2,1.3688888E-1,4.1684207E-2,7.9742916E-2,3.360791E-2,-3.7542388E-2,2.8725388E-2,-1.0702702E-2,1.03068486E-1],"split_indices":[4405,216,3995,398,0,1652,0,2788,0,88,1147,0,0,0,156,1443,0,0,0,579,698,0,0,0,0],"split_type":[0,0,0,0,0,0,0,0,0,0,0,0,0,0,0,0,0,0,0,0,0,0,0,0,0],"sum_hessian":[1.3062401E3,5.3536005E2,7.7088007E2,5.3408E2,1.2800001E0,7.6928E2,1.6000001E0,5.3280005E2,1.2800001E0,7.6800003E0,7.6160004E2,5.3088007E2,1.9200001E0,4.1600003E0,3.5200002E0,7.6000006E2,1.6000001E0,2.2400002E0,1.2800001E0,7.5168005E2,8.320001E0,7.449601E2,6.7200003E0,6.4000006E0,1.9200001E0],"tree_param":{"num_deleted":"0","num_feature":"5000","num_nodes":"25","size_leaf_vector":"1"}},{"base_weights":[-4.5538664E-1,-2.62373E-1,-5.479175E-1,-2.8079793E-1,8.757062E-1,-5.522798E-1,9.138461E-2,5.809128E-1,-3.0016407E-1,-1.6853932E-1,1.5044247E0,-5.627024E-1,2.024922E-1,-3.1007752E-1,1.3138685E0,8.799999E-2,-3.1052884E-1,6.9473684E-3,-2.7789474E-2,1.3688888E-1,4.1684207E-2,7.5945206E-2,-5.6713754E-1,1.0248446E0,-4.281081E-2,6.9473684E-3,-3.6742266E-2,-2.7789474E-2,1.5085714E-1,-3.2376927E-1,6.20915E-1,6.7415726E-1,-5.71553E-1,-9.777777E-3,1.32E-1,-2.6452249E-2,6.531958E-2,-1.6329896E-2,1.12444445E-1,-2.7789474E-2,1.11157894E-1,4.8821915E-2,-4.5530625E-2],"categories":[],"categories_nodes":[],"categories_segments":[],"categories_sizes":[],"default_left":[0,1,1,0,0,1,0,0,0,0,1,0,1,0,0,0,1,0,0,0,0,0,0,1,0,0,0,0,0,1,0,0,0,0,0,0,0,0,0,0,0,0,0],"id":2,"left_children":[1,3,5,7,9,11,-1,13,15,17,19,21,23,25,27,-1,29,-1,-1,-1,-1,-1,31,33,-1,-1,-1,-1,-1,35,37,39,41,-1,-1,-1,-1,-1,-1,-1,-1,-1,-1],"loss_changes":[2.3403198E1,9.244974E0,7.2463074E0,7.234726E0,4.9018335E0,7.10495E0,0E0,6.7028656E0,6.407284E0,1.9712201E-1,8.050251E-2,6.4612427E0,8.399657E0,3.5647136E-1,6.058943E0,0E0,5.2845764E0,0E0,0E0,0E0,0E0,0E0,5.180664E0,4.9520745E0,0E0,0E0,0E0,0E0,0E0,5.0554466E0,4.336335E0,3.1539521E0,3.804016E0,0E0,0E0,0E0,0E0,0E0,0E0,0E0,0E0,0E0,0E0],"parents":[2147483647,0,0,1,1,2,2,3,3,4,4,5,5,7,7,8,8,9,9,10,10,11,11,12,12,13,13,14,14,16,16,22,22,23,23,29,29,30,30,31,31,32,32],"right_children":[2,4,6,8,10,12,-1,14,16,18,20,22,24,26,28,-1,30,-1,-1,-1,-1,-1,32,34,-1,-1,-1,-1,-1,36,38,40,42,-1,-1,-1,-1,-1,-1,-1,-1,-1,-1],"split_conditions":[9.933259E-2,1.598495E-1,2.337044E-1,7.388302E-2,3.9845705E-2,1.4002228E-1,9.138461E-2,2.957593E-2,2.6459315E-1,3.1774383E-2,3.8207725E-2,1.9036874E-1,1.220714E-1,2.9046565E-2,2.1946538E-2,8.799999E-2,1.4154153E-1,6.9473684E-3,-2.7789474E-2,1.3688888E-1,4.1684207E-2,7.5945206E-2,1.7690219E-1,5.318808E-2,-4.281081E-2,6.9473684E-3,-3.6742266E-2,-2.7789474E-2,1.5085714E-1,1.333968E-1,4.568178E-2,2.783097E-2,1.3321157E-1,-9.777777E-3,1.32E-1,-2.6452249E-2,6.531958E-2,-1.6329896E-2,1.12444445E-1,-2.7789474E-2,1.11157894E-1,4.8821915E-2,-4.5530625E-2],"split_indices":[4691,2216,1298,3528,809,1047,0,156,403,307,3265,1934,3947,88,3445,0,682,0,0,0,0,0,2664,4953,0,0,0,0,0,2283,1692,95,741,0,0,0,0,0,0,0,0,0,0],"split_type":[0,0,0,0,0,0,0,0,0,0,0,0,0,0,0,0,0,0,0,0,0,0,0,0,0,0,0,0,0,0,0,0,0,0,0,0,0,0,0,0,0,0,0],"sum_hessian":[1.3174401E3,4.2816003E2,8.892801E2,4.2208002E2,6.0800004E0,8.8768005E2,1.6000001E0,8.64E0,4.1344003E2,2.5600002E0,3.5200002E0,8.758401E2,1.1840001E1,4.1600003E0,4.4800005E0,2.2400002E0,4.1120004E2,1.2800001E0,1.2800001E0,2.2400002E0,1.2800001E0,1.9200001E0,8.7392004E2,5.4400005E0,6.4000006E0,1.2800001E0,2.88E0,1.2800001E0,3.2000003E0,4.0608002E2,5.1200004E0,2.5600002E0,8.7136005E2,2.2400002E0,3.2000003E0,4.0320004E2,2.88E0,2.88E0,2.2400002E0,1.2800001E0,1.2800001E0,1.9200001E0,8.6944006E2],"tree_param":{"num_deleted":"0","num_feature":"5000","num_nodes":"43","size_leaf_vector":"1"}},{"base_weights":[-4.4030327E-1,-2.8252044E-1,-5.80859E-1,-2.9789603E-1,5.536332E-1,-4.796163E-2,-5.931103E-1,1.0258697E-1,-3.2907277E-1,1.0248446E0,-3.2679737E-2,-2.5974023E-1,1.11157894E-1,-5.9745634E-1,4.8821915E-2,-2.700186E-1,4.2692938E-1,-3.354802E-1,1.11157894E-1,-2.7789474E-2,1.4341085E0,-3.854867E-2,6.0923073E-2,-4.436514E-2,2.0710059E-1,3.9111108E-2,-6.018161E-1,-3.9603958E-1,7.642105E-2,-2.2222221E-1,7.579462E-1,-3.419167E-1,1.11157894E-1,6.9473684E-3,1.4696907E-1,9.138461E-2,-3.1007752E-1,-6.0474515E-1,4.1684207E-2,2.6181817E-2,-4.6474326E-2,7.642105E-2,-4.3088082E-2,-1.6329896E-2,7.755489E-2,6.070073E-2,-2.789131E-2,6.9473684E-3,-3.6742266E-2,2.169863E-2,-4.8127376E-2],"categories":[],"categories_nodes":[],"categories_segments":[],"categories_sizes":[],"default_left":[1,1,0,0,1,1,1,0,1,1,1,1,0,0,0,1,0,1,0,0,1,0,0,0,0,0,1,0,0,0,0,0,0,0,0,0,1,0,0,0,0,0,0,0,0,0,0,0,0,0,0],"id":3,"left_children":[1,3,5,7,9,11,13,15,17,19,21,23,-1,25,-1,27,29,31,-1,-1,33,-1,-1,-1,35,-1,37,39,-1,41,43,45,-1,-1,-1,-1,47,49,-1,-1,-1,-1,-1,-1,-1,-1,-1,-1,-1,-1,-1],"loss_changes":[2.8968872E1,8.1466675E0,4.501175E0,7.6535645E0,3.227258E0,5.49182E0,3.932953E0,5.534273E0,6.7591095E0,4.12913E0,2.6027217E0,2.275876E0,0E0,3.5144043E0,0E0,3.7250156E0,5.402912E0,6.8057213E0,0E0,0E0,2.7659655E0,0E0,0E0,0E0,3.6677215E0,0E0,2.5453033E0,2.9938605E0,0E0,3.9633362E0,3.6922312E0,6.6735535E0,0E0,0E0,0E0,0E0,3.5647136E-1,1.8946686E0,0E0,0E0,0E0,0E0,0E0,0E0,0E0,0E0,0E0,0E0,0E0,0E0,0E0],"parents":[2147483647,0,0,1,1,2,2,3,3,4,4,5,5,6,6,7,7,8,8,9,9,10,10,11,11,13,13,15,15,16,16,17,17,20,20,24,24,26,26,27,27,29,29,30,30,31,31,36,36,37,37],"right_children":[2,4,6,8,10,12,14,16,18,20,22,24,-1,26,-1,28,30,32,-1,-1,34,-1,-1,-1,36,-1,38,40,-1,42,44,46,-1,-1,-1,-1,48,50,-1,-1,-1,-1,-1,-1,-1,-1,-1,-1,-1,-1,-1],"split_conditions":[3.9715253E-2,1.2758741E-1,1.04221635E-1,1.3755867E-1,6.377373E-2,9.640511E-2,1.8328282E-1,3.7575297E-2,1.831095E-1,6.872267E-2,8.699863E-2,4.8198663E-2,1.11157894E-1,1.8063654E-1,4.8821915E-2,9.843435E-2,4.731756E-2,1.7504933E-1,1.11157894E-1,-2.7789474E-2,6.869227E-2,-3.854867E-2,6.0923073E-2,-4.436514E-2,1.0434884E-1,3.9111108E-2,2.0512627E-1,3.433328E-2,7.642105E-2,9.009818E-2,7.751352E-2,1.5429558E-1,1.11157894E-1,6.9473684E-3,1.4696907E-1,9.138461E-2,3.223585E-2,1.7020714E-1,4.1684207E-2,2.6181817E-2,-4.6474326E-2,7.642105E-2,-4.3088082E-2,-1.6329896E-2,7.755489E-2,6.070073E-2,-2.789131E-2,6.9473684E-3,-3.6742266E-2,2.169863E-2,-4.8127376E-2],"split_indices":[2979,3896,4394,4969,4141,1463,2788,459,108,3925,1801,4917,0,1523,0,364,2136,838,0,0,2121,0,0,0,545,0,1906,156,0,1627,1709,215,0,0,0,0,95,1883,0,0,0,0,0,0,0,0,0,0,0,0,0],"split_type":[0,0,0,0,0,0,0,0,0,0,0,0,0,0,0,0,0,0,0,0,0,0,0,0,0,0,0,0,0,0,0,0,0,0,0,0,0,0,0,0,0,0,0,0,0,0,0,0,0,0,0],"sum_hessian":[1.3126401E3,6.1984E2,6.9280005E2,6.0928E2,1.056E1,1.5680001E1,6.7712006E2,4.3840004E1,5.6544006E2,5.4400005E0,5.1200004E0,1.4400001E1,1.2800001E0,6.752001E2,1.9200001E0,2.0480001E1,2.3360003E1,5.6416003E2,1.2800001E0,1.2800001E0,4.1600003E0,3.5200002E0,1.6000001E0,8.64E0,5.76E0,2.2400002E0,6.7296E2,1.92E1,1.2800001E0,8.000001E0,1.5360001E1,5.6288007E2,1.2800001E0,1.2800001E0,2.88E0,1.6000001E0,4.1600003E0,6.7168005E2,1.2800001E0,3.8400002E0,1.5360001E1,1.2800001E0,6.7200003E0,2.88E0,1.24800005E1,4.4800005E0,5.584E2,1.2800001E0,2.88E0,1.9200001E0,6.697601E2],"tree_param":{"num_deleted":"0","num_feature":"5000","num_nodes":"51","size_leaf_vector":"1"}},{"base_weights":[-1.14770606E-1,2.770301E-1,-4.546231E-1,6.4265245E-1,-6.1798457E-2,1.6952789E0,-4.8284805E-1,-3.848431E-2,8.428949E-1,-1.1415525E-1,1.3321799E0,6.9473684E-3,1.5367164E-1,-5.1718944E-1,2.8252298E-1,5.319149E-1,-4.360753E-1,8.403361E-2,9.687049E-1,1.5702479E0,-1.407055E-1,1.1450601E-1,3.0461537E-2,-5.3800774E-1,4.5706367E-1,7.142857E-1,-2.8985506E-1,1.3321799E0,-2.2675736E-2,7.642105E-2,-5.06653E-1,-1.6152716E-1,1.016949E0,1.4696085E0,7.98696E-1,1.4238201E-1,4.1684207E-2,-1.6038865E-1,1.3688888E-1,-5.45376E-1,9.5505613E-1,-3.9548022E-1,1.1244018E0,-3.7714284E-2,1.0110803E0,-4.9520764E-1,7.642105E-2,-2.7789474E-2,1.2480933E-1,-2.7683888E-2,6.070073E-2,4.1684207E-2,-4.3999996E-2,-2.5649289E-2,1.03068486E-1,1.32E-1,4.082474E-3,1.2329921E-1,-3.2547943E-2,7.4936375E-2,4.9422774E-3,2.7087947E-2,-1.8193139E-2,2.9198155E-2,-4.410713E-2,6.9473684E-3,1.11157894E-1,6.9473684E-3,-4.0965516E-2,-0E0,1.10130176E-1,-3.422222E-2,1.0386885E-1,6.9473684E-3,-4.5096084E-2],"categories":[],"categories_nodes":[],"categories_segments":[],"categories_sizes":[],"default_left":[1,1,0,0,1,0,1,0,0,0,0,0,0,1,1,1,0,1,0,0,1,0,0,1,0,0,0,0,0,0,0,1,0,1,1,0,0,0,0,0,0,0,0,0,0,0,0,0,0,0,0,0,0,0,0,0,0,0,0,0,0,0,0,0,0,0,0,0,0,0,0,0,0,0,0],"id":4,"left_children":[1,3,5,7,9,11,13,15,17,19,21,-1,-1,23,25,27,29,31,33,35,37,-1,-1,39,41,43,45,47,49,-1,51,53,55,57,59,-1,-1,61,-1,63,65,67,69,-1,71,73,-1,-1,-1,-1,-1,-1,-1,-1,-1,-1,-1,-1,-1,-1,-1,-1,-1,-1,-1,-1,-1,-1,-1,-1,-1,-1,-1,-1,-1],"loss_changes":[1.7461687E2,7.552429E1,4.3423798E1,4.001725E1,2.3299753E1,3.5007896E0,1.8381912E1,1.5553588E1,2.1552643E1,1.3932505E1,6.8832016E-1,0E0,0E0,1.3720627E1,7.7297225E0,1.2545917E1,4.4796114E0,7.7974586E0,1.5370758E1,2.0331287E-1,1.1415689E1,0E0,0E0,7.681839E0,8.660101E0,6.7141533E0,4.0336742E0,5.2943134E0,4.8178105E0,0E0,2.2665148E0,6.8900943E0,4.354942E0,8.517616E0,1.592849E1,0E0,0E0,1.0545163E1,0E0,7.039627E0,1.261581E0,4.6192336E-1,2.5016289E0,0E0,6.826771E0,5.913842E-1,0E0,0E0,0E0,0E0,0E0,0E0,0E0,0E0,0E0,0E0,0E0,0E0,0E0,0E0,0E0,0E0,0E0,0E0,0E0,0E0,0E0,0E0,0E0,0E0,0E0,0E0,0E0,0E0,0E0],"parents":[2147483647,0,0,1,1,2,2,3,3,4,4,5,5,6,6,7,7,8,8,9,9,10,10,13,13,14,14,15,15,16,16,17,17,18,18,19,19,20,20,23,23,24,24,25,25,26,26,27,27,28,28,30,30,31,31,32,32,33,33,34,34,37,37,39,39,40,40,41,41,42,42,44,44,45,45],"right_children":[2,4,6,8,10,12,14,16,18,20,22,-1,-1,24,26,28,30,32,34,36,38,-1,-1,40,42,44,46,48,50,-1,52,54,56,58,60,-1,-1,62,-1,64,66,68,70,-1,72,74,-1,-1,-1,-1,-1,-1,-1,-1,-1,-1,-1,-1,-1,-1,-1,-1,-1,-1,-1,-1,-1,-1,-1,-1,-1,-1,-1,-1,-1],"split_conditions":[3.9560113E-2,3.8571976E-2,1.9155933E-1,7.73506E-2,1.3152975E-1,8.032333E-2,1.0819042E-1,8.2832575E-2,1.2733467E-1,9.878777E-2,4.083085E-2,6.9473684E-3,1.5367164E-1,1.2845661E-1,6.355868E-2,3.0063834E-2,1.7488955E-1,4.1660324E-2,1.0145201E-1,3.3139687E-2,1.0651732E-1,1.1450601E-1,3.0461537E-2,1.2416953E-1,4.4692673E-2,7.798101E-2,4.845637E-2,1.4806947E-1,6.6789255E-2,7.642105E-2,2.3544602E-1,1.1606157E-1,2.9626245E-2,1.0059275E-1,3.2429416E-2,1.4238201E-1,4.1684207E-2,7.251565E-2,1.3688888E-1,7.120184E-2,5.0224043E-2,1.9263852E-1,5.023559E-2,-3.7714284E-2,1.017864E-1,1.07094154E-1,7.642105E-2,-2.7789474E-2,1.2480933E-1,-2.7683888E-2,6.070073E-2,4.1684207E-2,-4.3999996E-2,-2.5649289E-2,1.03068486E-1,1.32E-1,4.082474E-3,1.2329921E-1,-3.2547943E-2,7.4936375E-2,4.9422774E-3,2.7087947E-2,-1.8193139E-2,2.9198155E-2,-4.410713E-2,6.9473684E-3,1.11157894E-1,6.9473684E-3,-4.0965516E-2,-0E0,1.10130176E-1,-3.422222E-2,1.0386885E-1,6.9473684E-3,-4.5096084E-2],"split_indices":[2979,3734,2418,579,523,1147,2285,1165,2417,1663,459,0,0,2788,2844,809,1140,1265,4968,54,2788,0,0,2152,4464,1722,507,68,2959,0,188,2577,1423,1558,4335,0,0,4716,0,211,88,1653,212,0,689,316,0,0,0,0,0,0,0,0,0,0,0,0,0,0,0,0,0,0,0,0,0,0,0,0,0,0,0,0,0],"split_type":[0,0,0,0,0,0,0,0,0,0,0,0,0,0,0,0,0,0,0,0,0,0,0,0,0,0,0,0,0,0,0,0,0,0,0,0,0,0,0,0,0,0,0,0,0,0,0,0,0,0,0,0,0,0,0,0,0,0,0,0,0,0,0,0,0,0,0,0,0,0,0,0,0,0,0],"sum_hessian":[1.3094401E3,6.0832007E2,7.0112006E2,2.9216003E2,3.1616003E2,8.320001E0,6.9280005E2,6.6560005E1,2.2560002E2,3.0560004E2,1.056E1,1.2800001E0,7.0400004E0,6.6336005E2,2.9440002E1,2.7200003E1,3.9360004E1,3.2320004E1,1.9328001E2,3.8400002E0,3.0176E2,8.960001E0,1.6000001E0,6.4992004E2,1.3440001E1,1.6640001E1,1.2800001E1,1.056E1,1.6640001E1,1.2800001E0,3.808E1,2.6240002E1,6.0800004E0,4.7040005E1,1.4624E2,2.5600002E0,1.2800001E0,2.9952002E2,2.2400002E0,6.4736005E2,2.5600002E0,6.0800004E0,7.3600006E0,3.2000003E0,1.3440001E1,1.152E1,1.2800001E0,1.2800001E0,9.280001E0,1.2160001E1,4.4800005E0,1.2800001E0,3.6800003E1,2.4320002E1,1.9200001E0,3.2000003E0,2.88E0,4.5120003E1,1.9200001E0,1.21600006E2,2.4640001E1,3.5840004E1,2.6368002E2,7.6800003E0,6.3968005E2,1.2800001E0,1.2800001E0,1.2800001E0,4.8E0,1.6000001E0,5.76E0,2.2400002E0,1.1200001E1,1.2800001E0,1.0240001E1],"tree_param":{"num_deleted":"0","num_feature":"5000","num_nodes":"75","size_leaf_vector":"1"}},{"base_weights":[1.3261998E0,6.170928E-1,1.7848376E0,1.2161565E0,3.9977306E-1,9.3639165E-1,1.8790454E0,1.4415528E0,6.755547E-1,9.9098675E-2,6.808679E-1,-2.984134E-2,1.1606873E0,-1.4423002E-1,1.9127032E0,1.5152057E0,-3.9129537E-2,-1.0322123E-1,9.958457E-1,-9.3112096E-2,4.0399343E-1,7.844873E-1,-1.5359819E-1,-4.4597852E-1,1.10631965E-1,1.2283499E0,-3.627766E-2,9.734154E-2,-4.8497367E-1,1.9544525E0,3.4026197E-1,1.5662814E0,-3.543264E-2,9.4256125E-2,-4.191936E-1,1.1582278E0,-3.7480086E-2,-1.8737438E-1,6.1649585E-1,-3.2153395E-1,7.9956514E-1,6.683624E-1,1.4558638E0,-4.0887356E-1,1.2356082E0,-4.525703E-2,3.368759E-2,-2.3793906E-1,1.3023171E0,1.4008398E-2,-4.464598E-2,1.9710572E0,9.493049E-2,1.6170353E0,-3.1511205E-1,4.7537718E-2,1.31329E-1,1.8567199E-2,-4.5242153E-2,9.994513E-2,-3.0959453E-2,-1.8992549E-2,1.0218113E-1,1.0185297E-1,-2.1258898E-2,9.267608E-2,-3.320477E-2,-4.0376063E-2,7.409343E-2,6.363325E-2,1.4615113E-2,-3.215296E-2,1.2641431E-1,9.0183474E-2,-4.3011475E-2,1.21753246E-1,1.3493327E-2,5.3474225E-2,-3.2874774E-2,6.882264E-3,-3.251186E-2,1.1404263E-1,3.177938E-2,1.5678251E-1,-3.6043383E-2,-2.739871E-2,6.989339E-2,1.4479788E-1,1.3109843E-2,2.0319339E-2,-4.4915E-2],"categories":[],"categories_nodes":[],"categories_segments":[],"categories_sizes":[],"default_left":[1,0,0,0,1,0,0,1,1,0,1,1,1,0,1,1,0,0,1,1,0,1,1,1,0,0,0,0,0,1,0,0,0,0,0,1,0,1,1,0,0,1,0,0,0,0,1,0,1,0,0,1,1,1,0,0,0,0,0,0,0,0,0,0,0,0,0,0,0,0,0,0,0,0,0,0,0,0,0,0,0,0,0,0,0,0,0,0,0,0,0],"id":5,"left_children":[1,3,5,7,9,11,13,15,17,19,21,23,25,27,29,31,-1,33,35,37,39,41,43,45,-1,47,-1,-1,49,51,53,55,-1,-1,57,59,-1,61,63,65,67,69,71,73,75,-1,77,79,81,-1,-1,83,85,87,89,-1,-1,-1,-1,-1,-1,-1,-1,-1,-1,-1,-1,-1,-1,-1,-1,-1,-1,-1,-1,-1,-1,-1,-1,-1,-1,-1,-1,-1,-1,-1,-1,-1,-1,-1,-1],"loss_changes":[4.6681445E2,7.327936E1,6.8031494E1,1.734497E1,3.519905E1,1.937809E1,5.3726074E1,1.5749176E1,1.1606653E1,1.1921459E1,1.8752754E1,1.1185337E1,8.499504E0,7.041044E0,5.002368E1,1.0886063E1,0E0,6.361572E0,8.366272E0,8.4891815E0,2.2813686E1,1.3983963E1,9.242701E0,8.936429E-1,0E0,7.8832703E0,0E0,0E0,7.121403E-1,2.303003E1,1.8232954E1,7.8177643E0,0E0,0E0,1.3532329E0,5.280998E0,0E0,8.929612E0,9.180529E0,4.63685E0,9.582592E0,1.0662491E1,7.814785E0,5.0970745E0,1.0470858E0,0E0,1.419372E0,2.7103972E-1,7.684265E0,0E0,0E0,1.6305176E1,2.980794E0,1.9500427E0,2.2823706E0,0E0,0E0,0E0,0E0,0E0,0E0,0E0,0E0,0E0,0E0,0E0,0E0,0E0,0E0,0E0,0E0,0E0,0E0,0E0,0E0,0E0,0E0,0E0,0E0,0E0,0E0,0E0,0E0,0E0,0E0,0E0,0E0,0E0,0E0,0E0,0E0],"parents":[2147483647,0,0,1,1,2,2,3,3,4,4,5,5,6,6,7,7,8,8,9,9,10,10,11,11,12,12,13,13,14,14,15,15,17,17,18,18,19,19,20,20,21,21,22,22,23,23,25,25,28,28,29,29,30,30,31,31,34,34,35,35,37,37,38,38,39,39,40,40,41,41,42,42,43,43,44,44,46,46,47,47,48,48,51,51,52,52,53,53,54,54],"right_children":[2,4,6,8,10,12,14,16,18,20,22,24,26,28,30,32,-1,34,36,38,40,42,44,46,-1,48,-1,-1,50,52,54,56,-1,-1,58,60,-1,62,64,66,68,70,72,74,76,-1,78,80,82,-1,-1,84,86,88,90,-1,-1,-1,-1,-1,-1,-1,-1,-1,-1,-1,-1,-1,-1,-1,-1,-1,-1,-1,-1,-1,-1,-1,-1,-1,-1,-1,-1,-1,-1,-1,-1,-1,-1,-1,-1],"split_conditions":[3.410209E-2,7.418398E-2,9.673125E-2,4.875433E-2,3.8224112E-2,5.802725E-2,1.9676875E-1,1.4518987E-1,2.8528454E-2,1.0590105E-1,9.794589E-2,5.6334022E-2,1.05670005E-1,1.0038791E-1,1.03825346E-1,1.4626017E-1,-3.9129537E-2,4.17876E-2,9.194388E-2,8.174492E-2,1.14444E-1,7.772184E-2,6.966335E-2,3.945018E-2,1.10631965E-1,9.772178E-2,-3.627766E-2,9.734154E-2,1.0619338E-1,8.794251E-2,3.8310558E-2,1.4476144E-1,-3.543264E-2,9.4256125E-2,6.622123E-2,1.2307601E-1,-3.7480086E-2,9.626404E-2,5.0777443E-2,1.8943244E-1,1.1049212E-1,6.345632E-2,5.6438744E-2,1.3285914E-1,3.145037E-2,-4.525703E-2,2.9825252E-2,3.6410607E-2,5.6017302E-2,1.4008398E-2,-4.464598E-2,2.1835229E-1,8.6765744E-2,6.1268244E-2,4.532837E-2,4.7537718E-2,1.31329E-1,1.8567199E-2,-4.5242153E-2,9.994513E-2,-3.0959453E-2,-1.8992549E-2,1.0218113E-1,1.0185297E-1,-2.1258898E-2,9.267608E-2,-3.320477E-2,-4.0376063E-2,7.409343E-2,6.363325E-2,1.4615113E-2,-3.215296E-2,1.2641431E-1,9.0183474E-2,-4.3011475E-2,1.21753246E-1,1.3493327E-2,5.3474225E-2,-3.2874774E-2,6.882264E-3,-3.251186E-2,1.1404263E-1,3.177938E-2,1.5678251E-1,-3.6043383E-2,-2.739871E-2,6.989339E-2,1.4479788E-1,1.3109843E-2,2.0319339E-2,-4.4915E-2],"split_indices":[912,2067,3967,955,3734,4950,2444,723,1754,4691,4336,1192,4475,3951,2994,1201,0,2121,1710,3865,3967,3865,859,1717,0,1498,0,0,1433,1643,4464,17,0,0,1318,643,0,1087,632,1426,3837,1722,2109,892,1423,0,307,54,3727,0,0,1298,1192,1165,1031,0,0,0,0,0,0,0,0,0,0,0,0,0,0,0,0,0,0,0,0,0,0,0,0,0,0,0,0,0,0,0,0,0,0,0,0],"split_type":[0,0,0,0,0,0,0,0,0,0,0,0,0,0,0,0,0,0,0,0,0,0,0,0,0,0,0,0,0,0,0,0,0,0,0,0,0,0,0,0,0,0,0,0,0,0,0,0,0,0,0,0,0,0,0,0,0,0,0,0,0,0,0,0,0,0,0,0,0,0,0,0,0,0,0,0,0,0,0,0,0,0,0,0,0,0,0,0,0,0,0],"sum_hessian":[1.4377529E3,5.6560614E2,8.7214685E2,1.4933978E2,4.1626633E2,8.825475E1,7.838921E2,1.0422011E2,4.5119686E1,2.017819E2,2.1448442E2,1.6790535E1,7.146422E1,1.2773105E1,7.71119E2,1.0060898E2,3.6111233E0,1.3346318E1,3.1773365E1,1.2418697E2,7.759494E1,1.908461E2,2.3638323E1,1.3531212E1,3.2593243E0,6.882839E1,2.6358263E0,2.0209863E0,1.0752118E1,7.509381E2,2.0180891E1,9.825388E1,2.3550963E0,2.077267E0,1.1269052E1,2.8801443E1,2.971922E0,1.1027438E2,1.3912588E1,2.744485E1,5.015009E1,1.644052E2,2.64409E1,2.0565044E1,3.0732775E0,1.0574364E1,2.956848E0,3.198868E0,6.5629524E1,1.0106425E0,9.741476E0,7.4423254E2,6.705597E0,6.347534E0,1.3833358E1,9.19018E0,8.9063705E1,2.024421E0,9.244631E0,2.7168083E1,1.6333605E0,1.0730439E2,2.9699965E0,7.6621475E0,6.250441E0,1.0125974E0,2.6432255E1,4.4588437E0,4.5691242E1,1.2800487E2,3.640033E1,1.7198565E0,2.4721045E1,1.0437686E0,1.9521276E1,2.0496626E0,1.0236149E0,1.0094309E0,1.947417E0,1.2820193E0,1.9168487E0,5.641542E1,9.214102E0,7.418116E2,2.4209583E0,4.658519E0,2.047078E0,5.3146048E0,1.0329292E0,4.2267113E0,9.606647E0],"tree_param":{"num_deleted":"0","num_feature":"5000","num_nodes":"91","size_leaf_vector":"1"}},{"base_weights":[-4.9828765E-1,-5.0276124E-1,1.05031356E-1,-6.077775E-1,-4.3284643E-1,-6.1171114E-1,4.128721E-2,-4.377326E-1,1.05886295E-1,8.386985E-3,-6.136913E-1,-4.424606E-1,7.0958E-2,-4.8760552E-2,-4.814832E-3,7.8539E-2,-4.4612193E-1,-3.5855547E-2,2.6600868E-2],"categories":[],"categories_nodes":[],"categories_segments":[],"categories_sizes":[],"default_left":[1,0,0,1,1,0,0,1,0,0,1,0,0,0,0,0,1,0,0],"id":6,"left_children":[1,3,-1,5,7,9,-1,11,-1,-1,13,15,-1,-1,-1,-1,17,-1,-1],"loss_changes":[1.1021484E1,9.034332E0,0E0,2.5557098E0,7.1891327E0,7.788086E-1,0E0,5.2032623E0,0E0,0E0,5.089874E-1,4.4345703E0,0E0,0E0,0E0,0E0,4.069397E0,0E0,0E0],"parents":[2147483647,0,0,1,1,3,3,4,4,5,5,7,7,10,10,11,11,16,16],"right_children":[2,4,-1,6,8,10,-1,12,-1,-1,14,16,-1,-1,-1,-1,18,-1,-1],"split_conditions":[1.567692E-1,9.738743E-2,1.05031356E-1,1.887659E-1,8.9309216E-2,1.4749396E-1,4.128721E-2,1.6541937E-1,1.05886295E-1,8.386985E-3,1.9876806E-1,1.6551343E-1,7.0958E-2,-4.8760552E-2,-4.814832E-3,7.8539E-2,1.3619757E-1,-3.5855547E-2,2.6600868E-2],"split_indices":[3995,4405,0,216,1192,1627,0,373,0,0,2788,3531,0,0,0,0,1845,0,0],"split_type":[0,0,0,0,0,0,0,0,0,0,0,0,0,0,0,0,0,0,0],"sum_hessian":[1.2676772E3,1.2652991E3,2.378141E0,5.026284E2,7.626708E2,5.0133997E2,1.2884216E0,7.613215E2,1.3492503E0,1.235146E0,5.001048E2,7.59298E2,2.0235498E0,4.982141E2,1.8906848E0,1.2464116E0,7.580515E2,7.5212506E2,5.9264855E0],"tree_param":{"num_deleted":"0","num_feature":"5000","num_nodes":"19","size_leaf_vector":"1"}},{"base_weights":[-4.3763074E-1,-2.4381508E-1,-5.316388E-1,7.0398706E-1,-2.6675916E-1,-5.5580276E-1,-1.1321766E-1,1.4240892E0,-2.6536277E-2,-2.859344E-1,8.8881433E-1,1.06022604E-1,-5.6716144E-1,1.0927946E-1,-1.8366612E-1,3.066141E-2,1.4073013E-1,7.493504E-2,-3.8878676E-2,-2.9817805E-1,9.753031E-1,1.0608343E-1,-3.0489169E-2,8.788492E-1,-2.754987E-1,-5.7081884E-1,7.944203E-2,7.8701466E-1,-3.0202124E-1,-3.1687704E-1,5.6054693E-1,1.3133839E-1,-2.7181402E-2,1.07548505E-1,-2.6991764E-2,-4.3134727E-2,4.2023793E-2,-5.744754E-1,7.6924175E-2,-3.353029E-2,1.3684449E-1,-3.628839E-1,6.360843E-2,1.1141351E-1,-2.5820795E-2,-3.555093E-2,8.177038E-2,-4.5787267E-2,7.298216E-2,5.867297E-2,-3.3851385E-2],"categories":[],"categories_nodes":[],"categories_segments":[],"categories_sizes":[],"default_left":[0,0,1,1,1,0,1,0,0,1,1,0,1,0,0,0,0,0,0,0,0,0,0,1,1,1,0,1,1,0,0,0,0,0,0,0,0,1,0,0,0,0,0,0,0,0,0,0,0,0,0],"id":7,"left_children":[1,3,5,7,9,11,13,15,17,19,21,23,25,-1,27,-1,-1,-1,-1,29,31,-1,-1,33,35,37,-1,39,41,43,45,-1,-1,-1,-1,-1,-1,47,-1,-1,-1,49,-1,-1,-1,-1,-1,-1,-1,-1,-1],"loss_changes":[2.331752E1,9.368313E0,8.690033E0,5.4312944E0,9.40353E0,6.2108154E0,5.356905E0,1.207717E0,3.2066894E0,6.5746384E0,4.523973E0,4.5610495E0,5.1929626E0,0E0,5.6622825E0,0E0,0E0,0E0,0E0,6.6612206E0,4.3032317E0,0E0,0E0,3.4310822E0,2.581682E0,5.087616E0,0E0,6.890836E0,3.170879E0,6.696327E0,4.7345166E0,0E0,0E0,0E0,0E0,0E0,0E0,4.9081726E0,0E0,0E0,0E0,3.255588E0,0E0,0E0,0E0,0E0,0E0,0E0,0E0,0E0,0E0],"parents":[2147483647,0,0,1,1,2,2,3,3,4,4,5,5,6,6,7,7,8,8,9,9,10,10,11,11,12,12,14,14,19,19,20,20,23,23,24,24,25,25,27,27,28,28,29,29,30,30,37,37,41,41],"right_children":[2,4,6,8,10,12,14,16,18,20,22,24,26,-1,28,-1,-1,-1,-1,30,32,-1,-1,34,36,38,-1,40,42,44,46,-1,-1,-1,-1,-1,-1,48,-1,-1,-1,50,-1,-1,-1,-1,-1,-1,-1,-1,-1],"split_conditions":[9.933259E-2,9.666028E-2,1.005111E-1,3.1435702E-2,1.3049732E-1,2.8380314E-2,3.0731527E-2,3.4955334E-2,3.2540448E-2,1.4731577E-1,4.024188E-2,7.785236E-2,1.4607336E-1,1.0927946E-1,9.142919E-2,3.066141E-2,1.4073013E-1,7.493504E-2,-3.8878676E-2,4.5703325E-2,3.4734935E-2,1.0608343E-1,-3.0489169E-2,5.9645623E-2,3.5019446E-2,1.7185695E-1,7.944203E-2,3.789698E-2,5.778741E-2,1.5190645E-1,1.4000262E-1,1.3133839E-1,-2.7181402E-2,1.07548505E-1,-2.6991764E-2,-4.3134727E-2,4.2023793E-2,2.337044E-1,7.6924175E-2,-3.353029E-2,1.3684449E-1,1.4454229E-1,6.360843E-2,1.1141351E-1,-2.5820795E-2,-3.555093E-2,8.177038E-2,-4.5787267E-2,7.298216E-2,5.867297E-2,-3.3851385E-2],"split_indices":[4691,4394,1185,3633,489,1981,4422,1623,1623,1739,54,175,3966,0,432,0,0,0,0,2212,698,0,0,1558,3734,1389,0,1623,912,1208,3896,0,0,0,0,0,0,1298,0,0,0,2271,0,0,0,0,0,0,0,0,0],"split_type":[0,0,0,0,0,0,0,0,0,0,0,0,0,0,0,0,0,0,0,0,0,0,0,0,0,0,0,0,0,0,0,0,0,0,0,0,0,0,0,0,0,0,0,0,0,0,0,0,0,0,0],"sum_hessian":[1.2858739E3,4.2116177E2,8.647121E2,9.252807E0,4.1190897E2,8.171908E2,4.7521347E1,4.181524E0,5.0712824E0,4.0592575E2,5.983241E0,1.364789E1,8.035429E2,1.3038176E0,4.621753E1,1.5939584E0,2.5875657E0,1.3034328E0,3.7678497E0,4.0277927E2,3.1464639E0,4.381616E0,1.601625E0,4.0799074E0,9.567983E0,8.023106E2,1.2322758E0,4.4088736E0,4.180866E1,3.948131E2,7.9661775E0,1.9029663E0,1.2434977E0,2.8478713E0,1.2320359E0,7.416287E0,2.1516957E0,8.0103864E2,1.2719449E0,2.1687522E0,2.2401211E0,4.0262962E1,1.545695E0,1.2767129E0,3.9353638E2,2.5533345E0,5.4128428E0,7.9970276E2,1.3358791E0,1.6452017E0,3.861776E1],"tree_param":{"num_deleted":"0","num_feature":"5000","num_nodes":"51","size_leaf_vector":"1"}},{"base_weights":[-4.4234815E-1,-2.9890803E-1,-5.6832683E-1,-3.1141952E-1,5.730832E-1,7.59684E-2,-5.726152E-1,-3.1744805E-1,1.0876383E-1,9.5979536E-1,-3.3603065E-2,-5.7683176E-1,3.719915E-2,-3.234577E-1,1.049651E-1,-1.5978113E-1,1.3212392E-1,4.6484667E-1,-5.810719E-1,7.095598E-1,-3.328849E-1,-2.73706E-2,7.6455483E-3,5.3981025E-2,5.999286E-3,-1.5204959E-1,-5.9203845E-1,1.1403572E-1,-3.3474814E-2,1.3247017E-2,-2.77884E-2,-2.7655113E-2,1.0344306E-1,4.2277824E-2,-4.7125045E-2],"categories":[],"categories_nodes":[],"categories_segments":[],"categories_sizes":[],"default_left":[1,1,0,1,1,0,1,1,0,0,0,0,0,0,0,0,0,0,0,1,0,0,0,0,0,1,0,0,0,0,0,0,0,0,0],"id":8,"left_children":[1,3,5,7,9,-1,11,13,-1,15,-1,17,-1,19,-1,21,-1,23,25,27,29,-1,-1,-1,-1,31,33,-1,-1,-1,-1,-1,-1,-1,-1],"loss_changes":[2.306337E1,6.7604103E0,5.0260468E0,6.4831314E0,3.8344443E0,0E0,3.2687988E0,6.2939186E0,0E0,5.58834E0,0E0,3.272812E0,0E0,6.0085945E0,0E0,2.0066436E-1,0E0,2.2763503E-1,3.0975952E0,5.3048058E0,5.3465195E0,0E0,0E0,0E0,0E0,5.696862E0,2.529007E0,0E0,0E0,0E0,0E0,0E0,0E0,0E0,0E0],"parents":[2147483647,0,0,1,1,2,2,3,3,4,4,6,6,7,7,9,9,11,11,13,13,15,15,17,17,18,18,19,19,20,20,25,25,26,26],"right_children":[2,4,6,8,10,-1,12,14,-1,16,-1,18,-1,20,-1,22,-1,24,26,28,30,-1,-1,-1,-1,32,34,-1,-1,-1,-1,-1,-1,-1,-1],"split_conditions":[3.9715253E-2,1.3218921E-1,1.3638626E-1,1.9139136E-1,3.560904E-2,7.59684E-2,1.8328282E-1,1.7504933E-1,1.0876383E-1,3.1291552E-2,-3.3603065E-2,1.8063654E-1,3.719915E-2,1.5429558E-1,1.049651E-1,2.5907494E-2,1.3212392E-1,3.260329E-2,1.07723996E-1,6.2483113E-2,3.0291518E-2,-2.73706E-2,7.6455483E-3,5.3981025E-2,5.999286E-3,9.640511E-2,5.672164E-1,1.1403572E-1,-3.3474814E-2,1.3247017E-2,-2.77884E-2,-2.7655113E-2,1.0344306E-1,4.2277824E-2,-4.7125045E-2],"split_indices":[2979,682,1883,618,156,0,2994,838,0,1420,0,1523,0,215,0,34,0,1754,4152,953,2313,0,0,0,0,1463,4173,0,0,0,0,0,0,0,0],"split_type":[0,0,0,0,0,0,0,0,0,0,0,0,0,0,0,0,0,0,0,0,0,0,0,0,0,0,0,0,0,0,0,0,0,0,0],"sum_hessian":[1.2847089E3,6.0229944E2,6.824094E2,5.944135E2,7.8858795E0,1.2870669E0,6.811223E2,5.931027E2,1.3107933E0,5.7097015E0,2.176178E0,6.788228E2,2.2995508E0,5.917411E2,1.3616326E0,2.5129E0,3.1968017E0,2.311559E0,6.765112E2,4.6797104E0,5.870614E2,1.2549074E0,1.2579927E0,1.0018368E0,1.3097221E0,1.723225E1,6.59279E2,2.6796389E0,2.0000715E0,2.0082724E1,5.669787E2,1.5849979E1,1.3822708E0,1.2671274E0,6.5801184E2],"tree_param":{"num_deleted":"0","num_feature":"5000","num_nodes":"35","size_leaf_vector":"1"}},{"base_weights":[-1.12408124E-1,2.6794142E-1,-4.5716986E-1,5.6177354E-1,-5.1420458E-2,1.284715E0,-4.8689887E-1,-4.8226528E-2,7.2432065E-1,-9.870667E-2,1.0894779E0,-1.0452319E-2,1.6399579E0,-5.4441935E-1,-5.653435E-2,-2.9036182E-1,7.3417693E-1,7.268594E-2,8.251977E-1,7.5766E-1,-1.4039186E-1,5.374498E-3,9.592032E-2,1.4015189E-1,3.8779363E-2,-5.5742896E-1,1.3129619E0,-1.305215E-1,1.07361E0,-4.2436102E-1,1.0767254E0,1.3799034E0,-6.911972E-2,-1.323046E-1,9.8960173E-1,9.4903606E-1,2.3803551E-1,1.236462E0,-2.756396E-2,8.271692E-1,-1.7911264E-1,-5.639841E-1,7.097654E-1,1.3771131E-2,1.2687628E-1,1.0531353E0,-1.922569E-1,1.1404793E-1,4.1014794E-3,-4.7448426E-2,-7.6047205E-3,1.112481E-1,6.1490797E-3,-3.186388E-2,1.453786E-1,-3.124737E-2,7.721243E-2,-2.1225031E-2,7.195616E-2,1.3058175E-1,-3.236428E-2,-9.012268E-3,7.9997875E-2,1.0990602E-1,3.375697E-3,1.3239911E-1,-3.0339874E-2,-3.756954E-2,4.9507115E-2,1.2919575E-2,1.3250251E-1,5.618825E-2,-1.6515167E-2,-4.5062814E-2,7.690893E-2,1.1364488E-1,-2.6938584E-2,1.16532326E-1,7.4392906E-3,-1.8950138E-2,1.04428835E-1],"categories":[],"categories_nodes":[],"categories_segments":[],"categories_sizes":[],"default_left":[1,1,0,0,1,0,1,1,0,0,0,0,0,1,1,1,1,1,0,1,0,0,0,0,0,1,0,0,0,0,0,0,0,0,1,0,0,0,0,0,0,1,1,0,0,0,1,0,0,0,0,0,0,0,0,0,0,0,0,0,0,0,0,0,0,0,0,0,0,0,0,0,0,0,0,0,0,0,0,0,0],"id":9,"left_children":[1,3,5,7,9,11,13,15,17,19,21,-1,23,25,27,29,31,33,35,37,39,-1,-1,-1,-1,41,43,45,47,49,51,53,55,57,59,61,63,65,67,69,71,73,75,-1,-1,77,79,-1,-1,-1,-1,-1,-1,-1,-1,-1,-1,-1,-1,-1,-1,-1,-1,-1,-1,-1,-1,-1,-1,-1,-1,-1,-1,-1,-1,-1,-1,-1,-1,-1,-1],"loss_changes":[1.7081049E2,5.8164185E1,3.600197E1,3.203602E1,1.617246E1,6.124075E0,1.6614563E1,1.3255473E1,1.669577E1,1.0346188E1,1.4007969E0,0E0,5.441971E-1,1.5061401E1,6.862136E0,1.021907E1,8.681939E0,6.7596188E0,1.581691E1,5.098738E0,1.0427584E1,0E0,0E0,0E0,0E0,5.2978516E0,1.1774683E0,5.781142E0,1.8153191E0,2.7681112E0,1.5421E0,8.230091E0,3.2143977E0,4.438711E0,6.7214365E0,1.1913269E1,8.874058E0,6.554558E0,2.0697398E0,5.757091E0,7.064188E0,5.0505066E0,3.135232E0,0E0,0E0,1.4419198E0,5.5291615E0,0E0,0E0,0E0,0E0,0E0,0E0,0E0,0E0,0E0,0E0,0E0,0E0,0E0,0E0,0E0,0E0,0E0,0E0,0E0,0E0,0E0,0E0,0E0,0E0,0E0,0E0,0E0,0E0,0E0,0E0,0E0,0E0,0E0,0E0],"parents":[2147483647,0,0,1,1,2,2,3,3,4,4,5,5,6,6,7,7,8,8,9,9,10,10,12,12,13,13,14,14,15,15,16,16,17,17,18,18,19,19,20,20,25,25,26,26,27,27,28,28,29,29,30,30,31,31,32,32,33,33,34,34,35,35,36,36,37,37,38,38,39,39,40,40,41,41,42,42,45,45,46,46],"right_children":[2,4,6,8,10,12,14,16,18,20,22,-1,24,26,28,30,32,34,36,38,40,-1,-1,-1,-1,42,44,46,48,50,52,54,56,58,60,62,64,66,68,70,72,74,76,-1,-1,78,80,-1,-1,-1,-1,-1,-1,-1,-1,-1,-1,-1,-1,-1,-1,-1,-1,-1,-1,-1,-1,-1,-1,-1,-1,-1,-1,-1,-1,-1,-1,-1,-1,-1,-1],"split_conditions":[3.9560113E-2,4.0179472E-2,1.9676875E-1,7.8815855E-2,1.3152975E-1,8.032333E-2,5.974694E-2,6.066029E-2,1.2733467E-1,1.5623161E-1,4.3127783E-2,-1.0452319E-2,4.836674E-2,1.40382E-1,1.0138786E-1,1.03950076E-1,6.677652E-2,7.249596E-2,4.388623E-2,5.909663E-2,9.690593E-2,5.374498E-3,9.592032E-2,1.4015189E-1,3.8779363E-2,1.2767263E-1,9.767126E-2,1.383391E-1,7.2803676E-2,3.5187624E-2,3.9435573E-2,4.8967216E-2,4.1010443E-2,3.7856676E-2,3.3984423E-2,1.1456537E-1,5.4931145E-2,3.826433E-2,6.521255E-2,2.697227E-2,1.2789007E-1,2.0647182E-1,4.2395815E-2,1.3771131E-2,1.2687628E-1,4.434767E-2,9.032673E-2,1.1404793E-1,4.1014794E-3,-4.7448426E-2,-7.6047205E-3,1.112481E-1,6.1490797E-3,-3.186388E-2,1.453786E-1,-3.124737E-2,7.721243E-2,-2.1225031E-2,7.195616E-2,1.3058175E-1,-3.236428E-2,-9.012268E-3,7.9997875E-2,1.0990602E-1,3.375697E-3,1.3239911E-1,-3.0339874E-2,-3.756954E-2,4.9507115E-2,1.2919575E-2,1.3250251E-1,5.618825E-2,-1.6515167E-2,-4.5062814E-2,7.690893E-2,1.1364488E-1,-2.6938584E-2,1.16532326E-1,7.4392906E-3,-1.8950138E-2,1.04428835E-1],"split_indices":[2979,4983,2418,1858,523,1147,1643,4716,4649,621,673,0,156,2819,2845,1414,859,977,1754,1643,3221,0,0,0,0,1782,1293,3676,3727,1173,1240,422,1954,2864,899,3621,3624,1080,309,4060,3841,102,54,0,0,88,211,0,0,0,0,0,0,0,0,0,0,0,0,0,0,0,0,0,0,0,0,0,0,0,0,0,0,0,0,0,0,0,0,0,0],"split_type":[0,0,0,0,0,0,0,0,0,0,0,0,0,0,0,0,0,0,0,0,0,0,0,0,0,0,0,0,0,0,0,0,0,0,0,0,0,0,0,0,0,0,0,0,0,0,0,0,0,0,0,0,0,0,0,0,0,0,0,0,0,0,0,0,0,0,0,0,0,0,0,0,0,0,0,0,0,0,0,0,0],"sum_hessian":[1.3006703E3,6.1852325E2,6.8214703E2,3.217421E2,2.9678113E2,1.0738554E1,6.7140845E2,6.784386E1,2.5389825E2,2.8584723E2,1.0933876E1,2.2789047E0,8.459649E0,5.920172E2,7.939124E1,5.2290176E1,1.5553684E1,3.4266666E1,2.1963158E2,1.2471021E1,2.7337622E2,1.3290672E0,9.604809E0,7.1190124E0,1.3406366E0,5.885944E2,3.4227839E0,7.5343254E1,4.047988E0,4.825036E1,4.0398173E0,8.224586E0,7.329098E0,2.8704947E1,5.5617223E0,1.8086835E2,3.8763237E1,7.3901224E0,5.0808983E0,9.735734E0,2.6364047E2,5.8611743E2,2.477039E0,1.0168179E0,2.405966E0,2.9387896E0,7.2404465E1,2.6783748E0,1.3696134E0,3.0953218E1,1.729714E1,2.7359E0,1.3039176E0,1.6985415E0,6.5260444E0,6.06177E0,1.2673283E0,2.6051317E1,2.653628E0,3.6580713E0,1.9036509E0,9.776169E0,1.7109218E2,4.7451115E0,3.4018124E1,5.7993617E0,1.5907607E0,3.1782708E0,1.9026275E0,6.122228E0,3.6135054E0,7.7063446E0,2.5593414E2,5.848453E2,1.2721066E0,1.2482113E0,1.228828E0,1.6746594E0,1.2641301E0,7.103564E1,1.368829E0],"tree_param":{"num_deleted":"0","num_feature":"5000","num_nodes":"81","size_leaf_vector":"1"}},{"base_weights":[1.1698042E0,5.673479E-1,1.5474242E0,3.9802247E-1,1.0646901E0,8.660723E-1,1.6264634E0,5.18459E-1,-4.03813E-2,1.1822475E0,5.5155315E-2,6.092604E-1,1.5004942E0,1.6788332E0,6.1362565E-1,5.753387E-1,-4.4661897E-1,9.399692E-1,-1.1303565E-1,1.3046005E0,4.6910936E-1,-4.8529783E-1,8.5216856E-1,-7.595842E-2,9.37576E-1,1.697862E0,-2.2198686E-2,-3.1682146E-1,1.6979873E0,-4.2891033E-2,8.662145E-1,4.015394E-1,8.8154775E-1,4.5026828E-2,-4.698747E-2,-1.8189019E-1,1.3462383E-1,1.1983596E0,-1.7400509E-1,1.4584148E0,7.095343E-1,6.4444244E-2,1.21730015E-1,1.4019351E-2,-4.5452148E-2,1.2543554E0,-9.813513E-2,-2.0627251E-1,7.927728E-2,-3.6565397E-2,1.0338545E0,1.4285418E-1,-2.6709361E-2,-3.4497757E-2,4.6342522E-2,5.057678E-2,-4.2794276E-2,1.7076273E0,-1.2343065E-1,-2.9485443E-1,1.0057068E0,-2.0977432E-2,4.010232E-2,5.9142425E-3,8.835835E-2,1.3563202E-2,-3.0573333E-2,1.3362079E-2,1.1730508E-1,-1.828591E-2,9.591169E-2,-3.2502487E-2,1.1912254E-1,2.195168E-2,1.10964075E-1,4.025281E-2,-3.4932144E-2,1.20107345E-1,1.1534962E-2,-2.5726637E-2,1.4261167E-2,-2.5567021E-2,8.680548E-2,9.849176E-2,1.4477746E-2,1.358796E-1,-1.8089881E-2,-3.815624E-2,5.0873484E-2,-3.7126813E-2,1.1208572E-2,-6.5915403E-3,9.0934806E-2],"categories":[],"categories_nodes":[],"categories_segments":[],"categories_sizes":[],"default_left":[1,1,0,1,1,1,1,0,0,1,0,0,0,0,0,0,0,0,0,1,1,0,0,1,0,1,1,0,1,0,1,0,0,0,0,0,0,0,1,0,0,0,0,0,0,1,0,1,0,0,0,0,0,0,0,0,0,1,0,0,0,0,0,0,0,0,0,0,0,0,0,0,0,0,0,0,0,0,0,0,0,0,0,0,0,0,0,0,0,0,0,0,0],"id":10,"left_children":[1,3,5,7,9,11,13,15,17,19,21,23,25,27,29,31,33,35,37,39,41,43,45,47,49,51,53,55,57,-1,59,61,63,-1,-1,65,-1,67,69,71,73,75,-1,-1,-1,77,79,81,-1,-1,83,-1,-1,-1,-1,-1,-1,85,87,89,91,-1,-1,-1,-1,-1,-1,-1,-1,-1,-1,-1,-1,-1,-1,-1,-1,-1,-1,-1,-1,-1,-1,-1,-1,-1,-1,-1,-1,-1,-1,-1,-1],"loss_changes":[3.464585E2,4.924768E1,4.9102295E1,2.3338394E1,1.7643173E1,1.5318565E1,4.348755E1,1.9278503E1,6.9512734E0,1.1045319E1,7.569192E0,1.6405317E1,8.460243E0,3.1020508E1,1.2968901E1,1.708419E1,3.2924104E0,6.052863E0,7.4335628E0,9.351501E0,9.030533E0,7.19826E-1,2.8273845E0,3.6370106E0,7.1003227E0,5.95562E0,1.3100404E0,2.1439314E0,1.408252E1,0E0,6.0521603E0,1.4861176E1,2.216748E1,0E0,0E0,3.2737377E-1,0E0,9.5585966E-1,7.1506467E0,8.230026E0,7.162531E0,3.8954697E0,0E0,0E0,0E0,1.2452002E0,2.496778E-1,3.7892423E0,0E0,0E0,8.037781E0,0E0,0E0,0E0,0E0,0E0,0E0,1.26015625E1,1.7067056E0,4.143049E-1,5.0523224E0,0E0,0E0,0E0,0E0,0E0,0E0,0E0,0E0,0E0,0E0,0E0,0E0,0E0,0E0,0E0,0E0,0E0,0E0,0E0,0E0,0E0,0E0,0E0,0E0,0E0,0E0,0E0,0E0,0E0,0E0,0E0,0E0],"parents":[2147483647,0,0,1,1,2,2,3,3,4,4,5,5,6,6,7,7,8,8,9,9,10,10,11,11,12,12,13,13,14,14,15,15,16,16,17,17,18,18,19,19,20,20,21,21,22,22,23,23,24,24,25,25,26,26,27,27,28,28,30,30,31,31,32,32,35,35,37,37,38,38,39,39,40,40,41,41,45,45,46,46,47,47,50,50,57,57,58,58,59,59,60,60],"right_children":[2,4,6,8,10,12,14,16,18,20,22,24,26,28,30,32,34,36,38,40,42,44,46,48,50,52,54,56,58,-1,60,62,64,-1,-1,66,-1,68,70,72,74,76,-1,-1,-1,78,80,82,-1,-1,84,-1,-1,-1,-1,-1,-1,86,88,90,92,-1,-1,-1,-1,-1,-1,-1,-1,-1,-1,-1,-1,-1,-1,-1,-1,-1,-1,-1,-1,-1,-1,-1,-1,-1,-1,-1,-1,-1,-1,-1,-1],"split_conditions":[3.437745E-2,4.7118537E-2,9.8272026E-2,4.4154346E-2,1.10265136E-1,5.1175844E-2,6.390055E-2,4.2904787E-2,1.6099085E-1,1.01369016E-1,5.547643E-2,6.7858085E-2,3.7301496E-2,1.7402817E-1,1.9676875E-1,7.7348545E-2,1.0231741E-1,5.4245435E-2,8.026159E-2,6.4080015E-2,6.6671126E-2,1.3254641E-1,1.7219046E-1,1.4422905E-1,9.765617E-2,1.2663428E-1,4.4610348E-2,4.0335774E-2,1.3449192E-1,-4.2891033E-2,5.6308653E-2,3.0374987E-2,8.408541E-2,4.5026828E-2,-4.698747E-2,3.0902648E-2,1.3462383E-1,4.1332502E-2,1.1747516E-1,1.3230501E-1,1.2644528E-1,5.568429E-2,1.21730015E-1,1.4019351E-2,-4.5452148E-2,8.208416E-2,5.2550808E-2,1.03669785E-1,7.927728E-2,-3.6565397E-2,3.883647E-2,1.4285418E-1,-2.6709361E-2,-3.4497757E-2,4.6342522E-2,5.057678E-2,-4.2794276E-2,1.8020116E-1,6.2357154E-2,8.109589E-2,1.1902971E-1,-2.0977432E-2,4.010232E-2,5.9142425E-3,8.835835E-2,1.3563202E-2,-3.0573333E-2,1.3362079E-2,1.1730508E-1,-1.828591E-2,9.591169E-2,-3.2502487E-2,1.1912254E-1,2.195168E-2,1.10964075E-1,4.025281E-2,-3.4932144E-2,1.20107345E-1,1.1534962E-2,-2.5726637E-2,1.4261167E-2,-2.5567021E-2,8.680548E-2,9.849176E-2,1.4477746E-2,1.358796E-1,-1.8089881E-2,-3.815624E-2,5.0873484E-2,-3.7126813E-2,1.1208572E-2,-6.5915403E-3,9.0934806E-2],"split_indices":[2979,579,3967,4950,3768,1192,4968,343,1353,3618,3167,4950,3645,489,2444,4691,1414,1325,1399,4950,632,82,721,1255,255,351,88,212,4337,0,1165,4494,3967,0,0,353,0,54,1813,4210,4968,1788,0,0,0,211,156,2399,0,0,95,0,0,0,0,0,0,2994,1717,579,2184,0,0,0,0,0,0,0,0,0,0,0,0,0,0,0,0,0,0,0,0,0,0,0,0,0,0,0,0,0,0,0,0],"split_type":[0,0,0,0,0,0,0,0,0,0,0,0,0,0,0,0,0,0,0,0,0,0,0,0,0,0,0,0,0,0,0,0,0,0,0,0,0,0,0,0,0,0,0,0,0,0,0,0,0,0,0,0,0,0,0,0,0,0,0,0,0,0,0,0,0,0,0,0,0,0,0,0,0,0,0,0,0,0,0,0,0,0,0,0,0,0,0,0,0,0,0,0,0],"sum_hessian":[1.5257578E3,5.888333E2,9.369245E2,4.406199E2,1.4821341E2,9.863198E1,8.382925E2,3.4551797E2,9.510191E1,1.326013E2,1.5612106E1,7.1606316E1,2.7025663E1,7.964535E2,4.183901E1,3.2666864E2,1.8849344E1,5.738106E0,8.936381E1,1.12474655E2,2.012664E1,9.536517E0,6.075589E0,2.3444525E1,4.8161793E1,2.3822775E1,3.2028892E0,7.423857E0,7.890296E2,7.3017025E0,3.4537304E1,2.0986432E2,1.1680431E2,2.016298E0,1.6833048E1,2.62419E0,3.1139154E0,3.1413455E0,8.6222466E1,8.8220375E1,2.4254284E1,1.5364686E1,4.761954E0,1.007386E0,8.529131E0,4.044097E0,2.031492E0,2.1635046E1,1.8094788E0,2.8561873E0,4.5305607E1,2.2753014E1,1.0697612E0,2.0740151E0,1.128874E0,1.0553858E0,6.368471E0,7.8493774E2,4.0918665E0,3.5848563E0,3.0952448E1,2.8311863E1,1.8155246E2,2.6563198E1,9.024112E1,1.0202739E0,1.603916E0,1.0208238E0,2.1205218E0,8.362171E1,2.600754E0,1.9134512E0,8.630692E1,1.5785471E1,8.468813E0,8.178843E0,7.185844E0,2.9732676E0,1.0708294E0,1.0270042E0,1.0044878E0,2.054829E1,1.0867552E0,3.597816E1,9.327446E0,7.818112E2,3.1265197E0,3.0401235E0,1.0517433E0,2.5101817E0,1.0746746E0,3.628994E0,2.7323454E1],"tree_param":{"num_deleted":"0","num_feature":"5000","num_nodes":"93","size_leaf_vector":"1"}},{"base_weights":[-4.9242696E-1,-6.0005075E-1,-4.2113858E-1,-6.040841E-1,3.9949074E-2,-4.273003E-1,1.0578092E-1,8.685099E-3,-6.0611665E-1,-4.3217114E-1,8.039339E-2,-4.8164587E-2,7.117291E-3,7.3068604E-2,-4.3706083E-1,-4.4579303E-1,2.520856E-1,7.9805434E-2,-3.561104E-2,-2.8060054E-2,7.6264374E-2],"categories":[],"categories_nodes":[],"categories_segments":[],"categories_sizes":[],"default_left":[0,1,1,0,0,1,0,0,1,0,0,0,0,0,1,0,0,0,0,0,0],"id":11,"left_children":[1,3,5,7,-1,9,-1,-1,11,13,-1,-1,-1,-1,15,17,19,-1,-1,-1,-1],"loss_changes":[9.169739E0,2.4740906E0,8.603897E0,7.7104187E-1,0E0,5.639557E0,0E0,0E0,7.3643494E-1,5.2952423E0,0E0,0E0,0E0,0E0,4.5445557E0,4.515686E0,4.588848E0,0E0,0E0,0E0,0E0],"parents":[2147483647,0,0,1,1,2,2,3,3,5,5,8,8,9,9,14,14,15,15,16,16],"right_children":[2,4,6,8,-1,10,-1,-1,12,14,-1,-1,-1,-1,16,18,20,-1,-1,-1,-1],"split_conditions":[9.738743E-2,1.887659E-1,1.567692E-1,1.3518444E-1,3.9949074E-2,9.040341E-2,1.0578092E-1,8.685099E-3,1.9876806E-1,1.4970821E-1,8.039339E-2,-4.8164587E-2,7.117291E-3,7.3068604E-2,1.3026826E-1,4.8884502E-1,4.900374E-2,7.9805434E-2,-3.561104E-2,-2.8060054E-2,7.6264374E-2],"split_indices":[4405,216,3995,1627,0,1147,0,0,2788,1721,0,0,0,0,1958,3113,1461,0,0,0,0],"split_type":[0,0,0,0,0,0,0,0,0,0,0,0,0,0,0,0,0,0,0,0,0],"sum_hessian":[1.2271122E3,4.8599307E2,7.411192E2,4.8467615E2,1.3169196E0,7.3928296E2,1.8362316E0,1.2259548E0,4.834502E2,7.3749286E2,1.7901146E0,4.821755E2,1.2746927E0,1.9772944E0,7.3551556E2,7.2666113E2,8.854422E0,1.2266202E0,7.254345E2,5.0490184E0,3.8054032E0],"tree_param":{"num_deleted":"0","num_feature":"5000","num_nodes":"21","size_leaf_vector":"1"}},{"base_weights":[-4.2200807E-1,-3.0472842E-1,-6.0089785E-1,8.4082675E-1,-3.143477E-1,-6.049053E-1,-1.0921363E-1,1.4174286E0,-3.17908E-2,1.1549205E0,-3.2123125E-1,-6.0694414E-1,9.546438E-3,4.6030715E-2,-3.640869E-2,3.635505E-2,1.3324763E-1,1.408781E-2,1.15242675E-1,-3.307206E-1,7.0050585E-1,9.3942E-3,-4.8232097E-2,-3.5504594E-1,3.666322E-2,-2.0805357E-1,1.0779469E-1,-3.154177E-2,-8.741392E-3,-1.5071398E-2,4.8351254E-2,-3.206387E-2,1.39823975E-2],"categories":[],"categories_nodes":[],"categories_segments":[],"categories_sizes":[],"default_left":[1,0,1,1,0,1,0,0,0,0,1,0,0,0,0,0,0,0,0,1,0,0,0,1,0,0,0,0,0,0,0,0,0],"id":12,"left_children":[1,3,5,7,9,11,13,15,-1,17,19,21,-1,-1,-1,-1,-1,-1,-1,23,25,-1,-1,27,29,31,-1,-1,-1,-1,-1,-1,-1],"loss_changes":[2.5900864E1,8.561691E0,9.019928E-1,5.25498E0,7.9303894E0,7.9359436E-1,1.5235991E0,4.1855812E-1,0E0,8.271742E-1,7.4523163E0,7.9389954E-1,0E0,0E0,0E0,0E0,0E0,0E0,0E0,6.613327E0,4.5884075E0,0E0,0E0,7.2802505E0,6.2074924E0,3.6569104E-1,0E0,0E0,0E0,0E0,0E0,0E0,0E0],"parents":[2147483647,0,0,1,1,2,2,3,3,4,4,5,5,6,6,7,7,9,9,10,10,11,11,19,19,20,20,23,23,24,24,25,25],"right_children":[2,4,6,8,10,12,14,16,-1,18,20,22,-1,-1,-1,-1,-1,-1,-1,24,26,-1,-1,28,30,32,-1,-1,-1,-1,-1,-1,-1],"split_conditions":[4.2296536E-2,7.979909E-2,1.3138932E-1,3.7319325E-2,2.6459315E-1,2.0697142E-1,5.8087967E-2,2.09498E-2,-3.17908E-2,3.9550412E-2,1.598495E-1,2.2416316E-1,9.546438E-3,4.6030715E-2,-3.640869E-2,3.635505E-2,1.3324763E-1,1.408781E-2,1.15242675E-1,1.00348085E-1,3.980506E-2,9.3942E-3,-4.8232097E-2,7.1205646E-2,8.226335E-2,4.5091067E-2,1.0779469E-1,-3.154177E-2,-8.741392E-3,-1.5071398E-2,4.8351254E-2,-3.206387E-2,1.39823975E-2],"split_indices":[4405,4773,4394,2959,403,406,54,34,0,212,2216,775,0,0,0,0,0,0,0,979,1870,0,0,364,1643,54,0,0,0,0,0,0,0],"split_type":[0,0,0,0,0,0,0,0,0,0,0,0,0,0,0,0,0,0,0,0,0,0,0,0,0,0,0,0,0,0,0,0,0],"sum_hessian":[1.2422694E3,7.5197815E2,4.9029123E2,5.542264E0,7.464359E2,4.8609903E2,4.1921825E0,3.6889367E0,1.8533273E0,2.7030287E0,7.4373285E2,4.8489957E2,1.1994715E0,1.1899519E0,3.0022306E0,1.3908503E0,2.2980864E0,1.0095396E0,1.693489E0,7.3755914E2,6.1737423E0,1.2039692E0,4.836956E2,6.9178784E2,4.5771297E1,2.8873138E0,3.2864285E0,5.874233E2,1.0436454E2,3.3277832E1,1.24934635E1,1.8751712E0,1.0121424E0],"tree_param":{"num_deleted":"0","num_feature":"5000","num_nodes":"33","size_leaf_vector":"1"}},{"base_weights":[-4.367228E-1,-2.8303772E-1,-5.666088E-1,9.484861E-1,-2.9294074E-1,-2.6295713E-1,-5.8394283E-1,-2.7954979E-2,1.2095441E-1,-3.1056735E-1,4.3610233E-1,-4.3120733E-1,3.153123E-1,-5.8846027E-1,3.412373E-2,-3.35894E-1,1.6360705E-1,-5.7414345E-2,1.3686248E0,-4.9292853E-1,5.3561047E-2,-3.2889473E-1,1.0356326E0,-5.9157556E-1,3.5608415E-2,-3.427973E-1,1.118017E-1,6.948093E-1,-1.9496787E-1,7.8423984E-2,-4.1986254E-1,1.4063743E-1,2.8687285E-2,4.1051995E-2,-5.5881226E-1,8.356252E-3,-3.767611E-2,1.249886E-1,3.7460896E-4,-5.946516E-1,2.97073E-2,-2.8899262E-2,1.4945796E-2,7.391392E-2,-3.1456236E-2,-3.0026728E-2,4.636555E-2,8.338766E-3,-4.1917462E-2,8.075083E-3,-4.7019996E-2,-4.7344115E-2,2.5433451E-2],"categories":[],"categories_nodes":[],"categories_segments":[],"categories_sizes":[],"default_left":[1,0,0,0,1,0,1,0,0,1,0,1,0,1,0,1,0,1,0,0,0,0,1,1,0,1,0,0,1,0,0,0,0,0,0,0,0,0,0,1,0,0,0,0,0,0,0,0,0,0,0,0,0],"id":13,"left_children":[1,3,5,7,9,11,13,-1,-1,15,17,19,21,23,-1,25,27,29,31,33,-1,35,37,39,-1,41,-1,43,45,-1,47,-1,-1,-1,49,-1,-1,-1,-1,51,-1,-1,-1,-1,-1,-1,-1,-1,-1,-1,-1,-1,-1],"loss_changes":[2.4687408E1,7.2557297E0,3.392105E0,4.154366E0,7.439102E0,3.8522913E0,3.171112E0,0E0,0E0,6.7263336E0,6.444759E0,2.384727E0,4.6034384E0,2.3163147E0,0E0,6.8497314E0,5.628693E0,4.2149067E0,1.3346996E0,2.2221074E0,0E0,4.078735E-1,2.5528975E0,2.1039734E0,0E0,6.2500916E0,0E0,3.4539027E0,2.8085642E0,0E0,5.2313626E-1,0E0,0E0,0E0,6.991234E-1,0E0,0E0,0E0,0E0,1.9991455E0,0E0,0E0,0E0,0E0,0E0,0E0,0E0,0E0,0E0,0E0,0E0,0E0,0E0],"parents":[2147483647,0,0,1,1,2,2,3,3,4,4,5,5,6,6,9,9,10,10,11,11,12,12,13,13,15,15,16,16,17,17,18,18,19,19,21,21,22,22,23,23,25,25,27,27,28,28,30,30,34,34,39,39],"right_children":[2,4,6,8,10,12,14,-1,-1,16,18,20,22,24,-1,26,28,30,32,34,-1,36,38,40,-1,42,-1,44,46,-1,48,-1,-1,-1,50,-1,-1,-1,-1,52,-1,-1,-1,-1,-1,-1,-1,-1,-1,-1,-1,-1,-1],"split_conditions":[3.8847163E-2,1.5429558E-1,8.281183E-2,9.907378E-2,1.2498366E-1,3.301507E-2,1.8328282E-1,-2.7954979E-2,1.2095441E-1,1.1473855E-1,4.9114536E-2,9.5938295E-2,4.1659974E-2,1.5771037E-1,3.412373E-2,1.6558251E-1,3.74606E-2,3.485491E-2,5.1490355E-2,9.75569E-2,5.3561047E-2,3.693125E-2,3.958904E-2,2.0512627E-1,3.5608415E-2,1.04740314E-1,1.118017E-1,4.7829833E-2,8.879115E-2,7.8423984E-2,2.1761407E-1,1.4063743E-1,2.8687285E-2,4.1051995E-2,1.2731859E-1,8.356252E-3,-3.767611E-2,1.249886E-1,3.7460896E-4,1.0865979E-1,2.97073E-2,-2.8899262E-2,1.4945796E-2,7.391392E-2,-3.1456236E-2,-3.0026728E-2,4.636555E-2,8.338766E-3,-4.1917462E-2,8.075083E-3,-4.7019996E-2,-4.7344115E-2,2.5433451E-2],"split_indices":[2979,215,3967,311,2270,95,2994,0,0,3768,3265,139,2313,2155,0,3956,698,2382,4541,1723,0,212,4164,1209,0,1437,0,2183,1722,0,970,0,0,0,311,0,0,0,0,1411,0,0,0,0,0,0,0,0,0,0,0,0,0],"split_type":[0,0,0,0,0,0,0,0,0,0,0,0,0,0,0,0,0,0,0,0,0,0,0,0,0,0,0,0,0,0,0,0,0,0,0,0,0,0,0,0,0,0,0,0,0,0,0,0,0,0,0,0,0],"sum_hessian":[1.2437814E3,5.711538E2,6.7262756E2,3.800119E0,5.673537E2,3.7196896E1,6.3543066E2,1.2897451E0,2.5103738E0,5.545206E2,1.2833044E1,2.9010475E1,8.1864195E0,6.3303284E2,2.3978646E0,5.2668115E2,2.7839504E1,9.00551E0,3.827534E0,2.8004658E1,1.0058175E0,4.608387E0,3.5780325E0,6.3156757E2,1.4652467E0,5.254094E2,1.2716994E0,1.0841269E1,1.6998236E1,1.8696148E0,7.1358953E0,2.1809232E0,1.6466106E0,1.292864E0,2.6711794E1,1.2351329E0,3.373254E0,1.9965358E0,1.5814967E0,6.299479E2,1.6197083E0,5.0474298E2,2.0666445E1,9.017542E0,1.8237268E0,1.4168845E1,2.829391E0,1.2367318E0,5.8991632E0,1.2426999E0,2.5469093E1,6.2814984E2,1.7980361E0],"tree_param":{"num_deleted":"0","num_feature":"5000","num_nodes":"53","size_leaf_vector":"1"}},{"base_weights":[-9.917798E-2,2.2277369E-1,-4.3346968E-1,4.941656E-1,-7.026342E-2,1.2944771E0,-4.6753037E-1,6.1502534E-1,-5.197914E-1,-1.1329905E-1,9.8673445E-1,2.1962161E-1,1.2953965E-1,-4.8987034E-1,4.7686124E-1,7.6988354E-2,7.439314E-1,8.765463E-2,-4.7446232E-2,3.9377347E-1,-1.8552789E-1,1.0964482E0,4.0876847E-3,6.336044E-2,-3.1814512E-2,-5.3103876E-1,7.148267E-2,-2.851258E-1,1.1537709E0,-1.992555E-1,6.587908E-1,9.866039E-2,8.422206E-1,1.3118523E0,1.845463E-1,-2.1012244E-1,1.1414773E-1,5.9124354E-2,1.2347734E-1,9.4001755E-2,-5.411424E-1,1.2086878E0,-6.708691E-2,4.205969E-2,-4.151571E-2,5.1612468E-3,1.0760257E-1,5.3692386E-2,-2.7863612E-2,2.099233E-2,1.2663601E-1,6.1851677E-2,-1.309323E-2,-1.0275361E-2,7.130522E-2,1.3515823E-1,-3.4288332E-4,3.2424522E-3,1.2739569E-1,1.0765102E-1,-1.8145002E-2,-4.326389E-2,9.16778E-2,1.2789625E-1,6.467994E-3,-1.1895536E-2,9.5989175E-2],"categories":[],"categories_nodes":[],"categories_segments":[],"categories_sizes":[],"default_left":[1,1,0,1,1,0,1,0,0,0,0,0,0,1,0,1,0,0,0,0,1,0,0,0,0,0,0,0,0,0,0,0,0,1,1,0,0,0,0,0,1,0,1,0,0,0,0,0,0,0,0,0,0,0,0,0,0,0,0,0,0,0,0,0,0,0,0],"id":14,"left_children":[1,3,5,7,9,11,13,15,17,19,21,23,-1,25,27,29,31,-1,-1,33,35,37,-1,-1,-1,39,41,43,45,47,49,51,53,55,57,59,-1,-1,-1,-1,61,63,65,-1,-1,-1,-1,-1,-1,-1,-1,-1,-1,-1,-1,-1,-1,-1,-1,-1,-1,-1,-1,-1,-1,-1,-1],"loss_changes":[1.396364E2,5.2611782E1,3.806138E1,4.2397064E1,1.4611564E1,4.2488174E0,1.3416397E1,2.1252296E1,5.448283E0,1.13237095E1,1.2333889E0,1.8296852E0,0E0,1.4155853E1,8.038145E0,9.854796E0,1.5629883E1,0E0,0E0,7.1764283E0,1.1088057E1,6.4979553E-1,0E0,0E0,0E0,1.05234375E1,6.797583E0,1.80675E0,1.7206631E0,5.8309503E0,6.872225E0,6.231616E0,1.2250046E1,3.6459942E0,6.603975E0,8.247556E0,0E0,0E0,0E0,0E0,5.5594482E0,2.0113497E0,4.3214803E0,0E0,0E0,0E0,0E0,0E0,0E0,0E0,0E0,0E0,0E0,0E0,0E0,0E0,0E0,0E0,0E0,0E0,0E0,0E0,0E0,0E0,0E0,0E0,0E0],"parents":[2147483647,0,0,1,1,2,2,3,3,4,4,5,5,6,6,7,7,8,8,9,9,10,10,11,11,13,13,14,14,15,15,16,16,19,19,20,20,21,21,25,25,26,26,27,27,28,28,29,29,30,30,31,31,32,32,33,33,34,34,35,35,40,40,41,41,42,42],"right_children":[2,4,6,8,10,12,14,16,18,20,22,24,-1,26,28,30,32,-1,-1,34,36,38,-1,-1,-1,40,42,44,46,48,50,52,54,56,58,60,-1,-1,-1,-1,62,64,66,-1,-1,-1,-1,-1,-1,-1,-1,-1,-1,-1,-1,-1,-1,-1,-1,-1,-1,-1,-1,-1,-1,-1,-1],"split_conditions":[4.1397113E-2,3.8571976E-2,1.9676875E-1,4.9652305E-2,1.2943053E-1,1.6039361E-1,1.2845661E-1,8.82286E-2,1.2349003E-1,7.224449E-2,4.3886203E-2,5.9665266E-2,1.2953965E-1,9.194911E-2,4.8667707E-2,6.066029E-2,1.2733467E-1,8.765463E-2,-4.7446232E-2,9.719132E-2,1.0651732E-1,3.6210675E-2,4.0876847E-3,6.336044E-2,-3.1814512E-2,1.362801E-1,3.6117308E-2,7.5914726E-2,3.898945E-2,1.5379424E-1,5.8780976E-2,1.1007684E-1,1.22905836E-1,6.1306108E-2,1.3973185E-1,9.701881E-2,1.1414773E-1,5.9124354E-2,1.2347734E-1,9.4001755E-2,1.2756675E-1,3.81519E-2,8.437467E-2,4.205969E-2,-4.151571E-2,5.1612468E-3,1.0760257E-1,5.3692386E-2,-2.7863612E-2,2.099233E-2,1.2663601E-1,6.1851677E-2,-1.309323E-2,-1.0275361E-2,7.130522E-2,1.3515823E-1,-3.4288332E-4,3.2424522E-3,1.2739569E-1,1.0765102E-1,-1.8145002E-2,-4.326389E-2,9.16778E-2,1.2789625E-1,6.467994E-3,-1.1895536E-2,9.5989175E-2],"split_indices":[1506,3734,2445,1147,523,58,2788,579,489,2908,459,1638,0,3648,4464,4716,3865,0,0,806,2788,698,0,0,0,3768,955,4953,1173,1414,2090,4909,3621,1318,1061,1705,0,0,0,0,3618,156,632,0,0,0,0,0,0,0,0,0,0,0,0,0,0,0,0,0,0,0,0,0,0,0,0],"split_type":[0,0,0,0,0,0,0,0,0,0,0,0,0,0,0,0,0,0,0,0,0,0,0,0,0,0,0,0,0,0,0,0,0,0,0,0,0,0,0,0,0,0,0,0,0,0,0,0,0,0,0,0,0,0,0,0,0,0,0,0,0,0,0,0,0,0,0],"sum_hessian":[1.2955282E3,6.601146E2,6.354136E2,3.4235828E2,3.1775635E2,1.1567604E1,6.2384595E2,3.0624814E2,3.611014E1,3.0618292E2,1.1573415E1,3.1827703E0,8.384833E0,6.0989984E2,1.3946157E1,5.9500042E1,2.467481E2,1.075868E0,3.5034275E1,3.7620647E1,2.685623E2,1.0203737E1,1.3696777E0,1.4969022E0,1.685868E0,5.682776E2,4.1622215E1,6.8330636E0,7.1130934E0,4.0790127E1,1.8709915E1,3.2881836E1,2.1386626E2,6.0042577E0,3.1616388E1,2.6542035E2,3.1419182E0,7.2974715E0,2.9062653E0,2.6416707E0,5.656359E2,3.6820414E0,3.7940174E1,1.2713017E0,5.561762E0,1.3352753E0,5.777818E0,5.5328865E0,3.525724E1,1.40906515E1,4.6192636E0,8.626609E0,2.4255228E1,1.1993038E1,2.0187321E2,4.3909364E0,1.6133217E0,2.9654533E1,1.9618547E0,2.3280559E0,2.6309232E2,5.646129E2,1.0229981E0,2.388432E0,1.2936093E0,3.6454098E1,1.4860764E0],"tree_param":{"num_deleted":"0","num_feature":"5000","num_nodes":"67","size_leaf_vector":"1"}},{"base_weights":[1.0410712E0,4.7843784E-1,1.3731741E0,2.5107583E-1,8.336775E-1,1.114711E0,1.5000422E0,1.849043E-1,1.2030302E0,4.121693E-1,1.0596431E0,1.3412021E0,6.930329E-1,1.515581E0,-3.7318388E-1,1.2352395E-1,7.506785E-1,6.4039755E-1,1.3452077E-1,7.164404E-1,-1.3811023E-3,1.2113637E0,4.1211325E-1,-3.8816478E-2,1.3717484E0,1.1698383E0,3.9552754E-1,1.5229123E0,-1.9143441E-1,1.3742428E-2,-4.026522E-2,2.9875484E-1,-8.546762E-2,1.1936473E0,3.4925338E-2,1.2993001E0,-2.3436014E-1,-1.6794026E-1,9.183836E-1,1.9902976E-1,-4.5321487E-2,1.2501304E0,-3.552298E-2,6.113572E-1,-4.0011764E-1,1.4024819E0,-2.8016575E-2,2.7664877E-3,1.2914066E0,2.7805105E-1,1.1089431E0,1.5292082E0,-1.8795732E-1,1.4105216E-2,-3.0896997E-2,3.188852E-2,-3.024197E-2,7.690033E-2,-1.2338707E-2,1.3122393E-1,3.225296E-2,-3.140464E-2,7.7264555E-2,-2.9365622E-2,1.3252988E-1,-4.1406143E-2,4.5550473E-2,8.8802315E-2,-3.580144E-2,-1.740381E-2,8.04858E-2,-2.6327157E-2,4.352957E-2,1.0338282E-1,-3.8242638E-3,1.6495265E-2,8.605981E-2,-4.23978E-2,1.408019E-2,-3.4402195E-2,1.1278674E-1,-3.955462E-2,5.469937E-2,3.46133E-2,-3.725142E-2,1.07277244E-1,-3.179305E-2,-2.0704437E-2,3.6574878E-2,-2.7924655E-2,1.0484937E-1,6.576973E-3,1.2154098E-1,-3.1748828E-2,1.0445505E-2],"categories":[],"categories_nodes":[],"categories_segments":[],"categories_sizes":[],"default_left":[1,1,1,1,0,1,0,1,0,0,1,0,0,1,0,0,1,0,0,0,0,1,0,0,1,0,1,1,1,0,0,1,0,0,0,0,0,0,0,0,0,1,0,0,0,0,0,0,1,0,0,0,0,0,0,0,0,0,0,0,0,0,0,0,0,0,0,0,0,0,0,0,0,0,0,0,0,0,0,0,0,0,0,0,0,0,0,0,0,0,0,0,0,0,0],"id":15,"left_children":[1,3,5,7,9,11,13,15,17,19,21,23,25,27,29,31,33,35,-1,37,39,41,43,-1,45,47,49,51,53,-1,-1,55,57,59,61,63,65,67,69,71,-1,73,-1,75,77,79,81,83,85,87,89,91,93,-1,-1,-1,-1,-1,-1,-1,-1,-1,-1,-1,-1,-1,-1,-1,-1,-1,-1,-1,-1,-1,-1,-1,-1,-1,-1,-1,-1,-1,-1,-1,-1,-1,-1,-1,-1,-1,-1,-1,-1,-1,-1],"loss_changes":[3.0289954E2,4.861795E1,3.1808594E1,2.3087576E1,2.1992966E1,3.154898E1,2.0416382E1,1.1963824E1,5.5660973E0,1.0548448E1,1.44995575E1,1.2988342E1,1.6687092E1,8.758423E0,5.622816E-1,1.1539245E1,1.0668995E1,7.6718535E0,0E0,8.779184E0,4.2930155E0,8.486679E0,5.179947E0,0E0,9.366699E0,6.5144806E0,6.0576706E0,7.545044E0,3.4711784E-1,0E0,0E0,1.2259733E1,1.0861485E1,6.915859E0,6.046045E0,5.2703514E0,1.7807363E0,4.1045427E0,4.61903E0,5.3583612E0,0E0,8.709885E0,0E0,4.5408354E0,6.117896E-1,9.034271E0,2.2552187E0,1.3019166E0,4.988159E0,6.718112E0,3.7349148E0,5.116211E0,2.8174484E-1,0E0,0E0,0E0,0E0,0E0,0E0,0E0,0E0,0E0,0E0,0E0,0E0,0E0,0E0,0E0,0E0,0E0,0E0,0E0,0E0,0E0,0E0,0E0,0E0,0E0,0E0,0E0,0E0,0E0,0E0,0E0,0E0,0E0,0E0,0E0,0E0,0E0,0E0,0E0,0E0,0E0,0E0],"parents":[2147483647,0,0,1,1,2,2,3,3,4,4,5,5,6,6,7,7,8,8,9,9,10,10,11,11,12,12,13,13,14,14,15,15,16,16,17,17,19,19,20,20,21,21,22,22,24,24,25,25,26,26,27,27,28,28,31,31,32,32,33,33,34,34,35,35,36,36,37,37,38,38,39,39,41,41,43,43,44,44,45,45,46,46,47,47,48,48,49,49,50,50,51,51,52,52],"right_children":[2,4,6,8,10,12,14,16,18,20,22,24,26,28,30,32,34,36,-1,38,40,42,44,-1,46,48,50,52,54,-1,-1,56,58,60,62,64,66,68,70,72,-1,74,-1,76,78,80,82,84,86,88,90,92,94,-1,-1,-1,-1,-1,-1,-1,-1,-1,-1,-1,-1,-1,-1,-1,-1,-1,-1,-1,-1,-1,-1,-1,-1,-1,-1,-1,-1,-1,-1,-1,-1,-1,-1,-1,-1,-1,-1,-1,-1,-1,-1],"split_conditions":[3.383793E-2,3.4447707E-2,4.4213243E-2,9.5059276E-2,1.2337569E-1,4.0811256E-2,1.0495618E-1,5.5355202E-2,4.2037703E-2,6.110976E-2,8.980457E-2,1.2332208E-1,5.96703E-2,1.8020116E-1,3.295071E-2,7.204144E-2,3.4537945E-2,3.1002887E-2,1.3452077E-1,6.222334E-2,4.4845402E-2,1.268972E-1,4.645726E-2,-3.8816478E-2,9.134747E-2,1.11971214E-1,5.3902898E-2,8.0630444E-2,4.5173984E-2,1.3742428E-2,-4.026522E-2,8.9083806E-2,1.4141221E-1,3.98886E-2,4.504896E-2,9.5454246E-2,3.0988459E-2,1.2143639E-1,1.1469459E-1,4.5103904E-2,-4.5321487E-2,1.3411959E-1,-3.552298E-2,5.833701E-2,4.5087676E-2,2.2668017E-1,5.561144E-2,6.269243E-2,1.0374126E-1,4.5117408E-2,1.05133355E-1,1.4979215E-1,3.8438443E-2,1.4105216E-2,-3.0896997E-2,3.188852E-2,-3.024197E-2,7.690033E-2,-1.2338707E-2,1.3122393E-1,3.225296E-2,-3.140464E-2,7.7264555E-2,-2.9365622E-2,1.3252988E-1,-4.1406143E-2,4.5550473E-2,8.8802315E-2,-3.580144E-2,-1.740381E-2,8.04858E-2,-2.6327157E-2,4.352957E-2,1.0338282E-1,-3.8242638E-3,1.6495265E-2,8.605981E-2,-4.23978E-2,1.408019E-2,-3.4402195E-2,1.1278674E-1,-3.955462E-2,5.469937E-2,3.46133E-2,-3.725142E-2,1.07277244E-1,-3.179305E-2,-2.0704437E-2,3.6574878E-2,-2.7924655E-2,1.0484937E-1,6.576973E-3,1.2154098E-1,-3.1748828E-2,1.0445505E-2],"split_indices":[2979,1638,4405,1500,2908,4917,343,2739,673,3734,4773,489,4302,2788,95,3734,2183,1704,0,1132,4355,2418,4279,0,1710,3954,1192,2126,1745,0,0,4336,2446,156,88,175,1891,867,1705,955,0,1201,0,2109,1994,4118,673,579,458,1788,2285,1174,34,0,0,0,0,0,0,0,0,0,0,0,0,0,0,0,0,0,0,0,0,0,0,0,0,0,0,0,0,0,0,0,0,0,0,0,0,0,0,0,0,0,0],"split_type":[0,0,0,0,0,0,0,0,0,0,0,0,0,0,0,0,0,0,0,0,0,0,0,0,0,0,0,0,0,0,0,0,0,0,0,0,0,0,0,0,0,0,0,0,0,0,0,0,0,0,0,0,0,0,0,0,0,0,0,0,0,0,0,0,0,0,0,0,0,0,0,0,0,0,0,0,0,0,0,0,0,0,0,0,0,0,0,0,0,0,0,0,0,0,0],"sum_hessian":[1.623581E3,6.0353723E2,1.0200439E3,3.6904572E2,2.3449149E2,3.3906567E2,6.809782E2,3.461768E2,2.2868942E1,8.282213E1,1.5166936E2,2.191666E2,1.1989906E2,6.755652E2,5.413048E0,3.1339514E2,3.2781647E1,1.1782104E1,1.108684E1,4.7293427E1,3.5528706E1,1.2217274E2,2.9496618E1,3.3488984E0,2.158177E2,4.4940975E1,7.4958084E1,6.7278357E2,2.7816334E0,1.0171759E0,4.395872E0,1.7023257E2,1.4316257E2,1.983709E1,1.2944556E1,6.443372E0,5.3387313E0,8.822958E0,3.8470467E1,2.6778849E1,8.749856E0,1.19625725E2,2.5470114E0,2.3884863E1,5.6117563E0,2.1117908E2,4.6386294E0,4.336148E0,4.0604828E1,6.5553314E1,9.404766E0,6.704226E2,2.36093E0,1.0088451E0,1.7727882E0,1.4804521E2,2.2187355E1,8.135877E0,1.3502669E2,1.1787207E1,8.049882E0,9.270736E0,3.67382E0,1.1806792E0,5.262693E0,4.1972804E0,1.1414508E0,1.0611228E0,7.7618356E0,2.947046E0,3.5523422E1,1.0664568E1,1.611428E1,1.1474162E2,4.884102E0,1.3701942E1,1.01829195E1,4.6074414E0,1.0043153E0,2.2315526E0,2.0894753E2,2.9854066E0,1.6532227E0,2.3006415E0,2.035506E0,3.933827E1,1.2665627E0,1.6548061E1,4.9005253E1,1.1235304E0,8.281236E0,2.5550666E0,6.6786755E2,1.2653198E0,1.0956103E0],"tree_param":{"num_deleted":"0","num_feature":"5000","num_nodes":"95","size_leaf_vector":"1"}},{"base_weights":[-4.8459575E-1,-5.9470177E-1,-4.1300243E-1,-5.9893894E-1,5.385686E-2,-4.1924766E-1,9.898921E-2,-4.7600105E-2,-5.004608E-3,3.9001125E-1,-4.2722672E-1,-3.159408E-1,1.20010495E-1,8.210081E-2,-4.3114328E-1,-3.709014E-2,1.0064026E-2,-4.3507212E-1,8.195753E-2,-3.4764152E-2,8.364954E-2],"categories":[],"categories_nodes":[],"categories_segments":[],"categories_sizes":[],"default_left":[0,1,1,1,0,0,0,0,0,1,0,1,0,0,1,0,0,1,0,0,0],"id":16,"left_children":[1,3,5,7,-1,9,-1,-1,-1,11,13,15,-1,-1,17,-1,-1,19,-1,-1,-1],"loss_changes":[9.072601E0,2.9107056E0,7.996994E0,4.7554016E-1,0E0,4.8005753E0,0E0,0E0,0E0,6.460088E0,4.523987E0,4.276799E-1,0E0,0E0,4.5390625E0,0E0,0E0,4.5529785E0,0E0,0E0,0E0],"parents":[2147483647,0,0,1,1,2,2,3,3,5,5,9,9,10,10,11,11,14,14,17,17],"right_children":[2,4,6,8,-1,10,-1,-1,-1,12,14,16,-1,-1,18,-1,-1,20,-1,-1,-1],"split_conditions":[1.9478486E-1,1.9090724E-1,1.567692E-1,1.9876806E-1,5.385686E-2,1.3466392E-1,9.898921E-2,-4.7600105E-2,-5.004608E-3,2.5701681E-2,1.6610001E-1,7.352281E-2,1.20010495E-1,8.210081E-2,2.09051E-1,-3.709014E-2,1.0064026E-2,9.040341E-2,8.195753E-2,-3.4764152E-2,8.364954E-2],"split_indices":[4405,216,3995,2788,0,1652,0,0,0,353,3649,364,0,0,2694,0,0,1147,0,0,0],"split_type":[0,0,0,0,0,0,0,0,0,0,0,0,0,0,0,0,0,0,0,0,0],"sum_hessian":[1.181087E3,4.6249396E2,7.185931E2,4.6149008E2,1.0038633E0,7.166494E2,1.9436526E0,4.595904E2,1.8997121E0,6.529498E0,7.1011993E2,4.4542856E0,2.0752125E0,1.1912826E0,7.0892865E2,3.2718606E0,1.1824251E0,7.077351E2,1.1935406E0,7.066074E2,1.1277094E0],"tree_param":{"num_deleted":"0","num_feature":"5000","num_nodes":"21","size_leaf_vector":"1"}},{"base_weights":[-4.1858256E-1,-5.102899E-1,-2.3179874E-1,-5.2749497E-1,6.513123E-2,1.20186865E-1,-2.4281372E-1,8.9860946E-2,-5.324142E-1,5.206979E-1,-4.7577366E-1,-2.5873712E-1,9.170829E-1,5.5354846E-1,-5.372653E-1,-3.791063E-2,9.2499626E-1,-4.3987162E-2,8.620504E-3,5.430758E-1,-2.8080168E-1,8.062337E-4,1.2691786E0,1.1336555E-1,-3.0159306E-2,-5.4092443E-1,6.7389265E-2,1.4105515E0,-3.441413E-2,9.337677E-1,-3.5614725E-2,-2.9538184E-1,7.888448E-1,1.255353E-1,1.36858905E-2,-4.358311E-2,5.0817267E-3,3.1935655E-2,1.448294E-1,-1.4136766E-2,1.2102552E-1,-2.4677943E-2,4.6181273E-2,1.0532325E-1,-2.9158117E-2],"categories":[],"categories_nodes":[],"categories_segments":[],"categories_sizes":[],"default_left":[1,1,0,0,1,0,1,0,0,0,1,1,0,1,1,0,1,0,0,1,1,0,1,0,0,1,0,1,0,0,0,1,1,0,0,0,0,0,0,0,0,0,0,0,0],"id":17,"left_children":[1,3,5,7,9,-1,11,-1,13,15,17,19,21,23,25,-1,27,-1,-1,29,31,-1,33,-1,-1,35,-1,37,-1,39,-1,41,43,-1,-1,-1,-1,-1,-1,-1,-1,-1,-1,-1,-1],"loss_changes":[2.0444336E1,7.9969788E0,8.020672E0,6.9901733E0,6.2209625E0,0E0,7.5421505E0,0E0,4.4035034E0,5.9521036E0,6.006167E-1,7.0687656E0,1.7676516E0,3.7921147E0,4.4042664E0,0E0,7.246538E0,0E0,0E0,4.6129084E0,6.176857E0,0E0,1.1143174E0,0E0,0E0,4.4282684E0,0E0,2.4803543E0,0E0,5.6158314E0,0E0,5.5457726E0,3.868117E0,0E0,0E0,0E0,0E0,0E0,0E0,0E0,0E0,0E0,0E0,0E0,0E0],"parents":[2147483647,0,0,1,1,2,2,3,3,4,4,6,6,8,8,9,9,10,10,11,11,12,12,13,13,14,14,16,16,19,19,20,20,22,22,25,25,27,27,29,29,31,31,32,32],"right_children":[2,4,6,8,10,-1,12,-1,14,16,18,20,22,24,26,-1,28,-1,-1,30,32,-1,34,-1,-1,36,-1,38,-1,40,-1,42,44,-1,-1,-1,-1,-1,-1,-1,-1,-1,-1,-1,-1],"split_conditions":[4.4560686E-2,1.182185E-1,1.3684855E-1,1.9036874E-1,6.1656713E-2,1.20186865E-1,1.303682E-1,8.9860946E-2,1.5224925E-1,7.78017E-2,5.622024E-2,2.1662595E-2,5.9856325E-2,1.4451545E-1,2.3783512E-1,-3.791063E-2,4.7769316E-2,-4.3987162E-2,8.620504E-3,6.557004E-2,1.1530959E-1,8.062337E-4,1.1658441E-1,1.1336555E-1,-3.0159306E-2,1.23882465E-1,6.7389265E-2,4.819215E-2,-3.441413E-2,3.1422198E-2,-3.5614725E-2,1.3438705E-1,5.4754406E-2,1.255353E-1,1.36858905E-2,-4.358311E-2,5.0817267E-3,3.1935655E-2,1.448294E-1,-1.4136766E-2,1.2102552E-1,-2.4677943E-2,4.6181273E-2,1.0532325E-1,-2.9158117E-2],"split_indices":[4691,3347,1358,1934,2844,0,2283,0,741,2739,271,2212,673,231,2940,0,912,0,0,3896,1320,0,2433,0,0,554,0,422,0,3668,0,3310,4462,0,0,0,0,0,0,0,0,0,0,0,0],"split_type":[0,0,0,0,0,0,0,0,0,0,0,0,0,0,0,0,0,0,0,0,0,0,0,0,0,0,0,0,0,0,0,0,0,0,0,0,0,0,0,0,0,0,0,0,0],"sum_hessian":[1.1994246E3,8.0329156E2,3.96133E2,7.8005133E2,2.3240204E1,1.6229396E0,3.9451007E2,1.624197E0,7.784271E2,1.2635531E1,1.0604673E1,3.8993387E2,4.576191E0,2.958831E0,7.754683E2,3.5864332E0,9.049098E0,9.377527E0,1.2271457E0,9.8105755E0,3.801233E2,1.5675412E0,3.0086498E0,1.2512767E0,1.7075543E0,7.7403827E2,1.4300462E0,6.64005E0,2.4090486E0,7.0826654E0,2.72791E0,3.757257E2,4.3975954E0,1.9897114E0,1.0189384E0,7.623273E2,1.1710987E1,2.5238433E0,4.1162066E0,2.7102482E0,4.372417E0,3.6955258E2,6.173117E0,2.8947015E0,1.5028939E0],"tree_param":{"num_deleted":"0","num_feature":"5000","num_nodes":"45","size_leaf_vector":"1"}},{"base_weights":[-4.1511574E-1,-2.4508558E-1,-5.372999E-1,-2.703602E-1,5.835409E-1,1.0188842E-1,-5.427603E-1,4.627453E-1,-2.9020855E-1,-2.228372E-1,1.0668879E0,7.048266E-2,-5.4816866E-1,-2.5704998E-1,1.1185281E0,9.3089804E-2,-2.9916713E-1,3.0870037E-2,-3.9178945E-2,1.2710718E0,3.8458084E-4,-5.522877E-1,7.3875144E-2,4.215108E-2,-4.07797E-2,-2.9593848E-2,1.5875113E0,-3.2919353E-1,1.6113213E-1,7.914954E-3,1.4667228E0,-5.6260675E-1,-8.091518E-2,4.1836567E-2,1.4053115E-1,-2.6832402E-2,8.632485E-2,6.421544E-2,-2.4438096E-2,1.2622587E-1,4.080281E-2,-4.6106312E-2,-2.593266E-2,1.0083454E-1,-2.8220395E-2],"categories":[],"categories_nodes":[],"categories_segments":[],"categories_sizes":[],"default_left":[1,1,0,0,0,0,0,1,0,0,0,0,1,1,0,0,1,0,0,0,0,1,0,0,0,0,0,1,0,0,1,1,0,0,0,0,0,0,0,0,0,0,0,0,0],"id":18,"left_children":[1,3,5,7,9,-1,11,13,15,17,19,-1,21,23,25,-1,27,-1,-1,29,-1,31,-1,-1,-1,-1,33,35,37,-1,39,41,43,-1,-1,-1,-1,-1,-1,-1,-1,-1,-1,-1,-1],"loss_changes":[2.5092545E1,1.0828732E1,7.7254944E0,7.3387794E0,6.2392206E0,0E0,5.9446564E0,6.6302476E0,6.6890564E0,1.2915921E0,2.1189642E0,0E0,4.798645E0,1.7431624E0,5.6444902E0,0E0,6.694771E0,0E0,0E0,1.7359571E0,0E0,3.3637085E0,0E0,0E0,0E0,0E0,1.8754578E-1,6.5194016E0,9.434776E0,0E0,2.1058083E-2,2.9609985E0,6.488527E0,0E0,0E0,0E0,0E0,0E0,0E0,0E0,0E0,0E0,0E0,0E0,0E0],"parents":[2147483647,0,0,1,1,2,2,3,3,4,4,6,6,7,7,8,8,9,9,10,10,12,12,13,13,14,14,16,16,19,19,21,21,26,26,27,27,28,28,30,30,31,31,32,32],"right_children":[2,4,6,8,10,-1,12,14,16,18,20,-1,22,24,26,-1,28,-1,-1,30,-1,32,-1,-1,-1,-1,34,36,38,-1,40,42,44,-1,-1,-1,-1,-1,-1,-1,-1,-1,-1,-1,-1],"split_conditions":[3.2109145E-2,1.2498366E-1,4.9129283E-1,1.0882399E-1,9.914812E-2,1.0188842E-1,1.5006489E-1,3.0165736E-2,1.3519795E-1,9.370911E-2,5.414898E-2,7.048266E-2,1.8470217E-1,2.3109235E-2,7.44867E-2,9.3089804E-2,1.1501914E-1,3.0870037E-2,-3.9178945E-2,7.9374805E-2,3.8458084E-4,1.0620912E-1,7.3875144E-2,4.215108E-2,-4.07797E-2,-2.9593848E-2,5.2714556E-2,1.5089992E-1,3.74606E-2,7.914954E-3,6.730277E-2,8.270444E-2,4.6082187E-2,4.1836567E-2,1.4053115E-1,-2.6832402E-2,8.632485E-2,6.421544E-2,-2.4438096E-2,1.2622587E-1,4.080281E-2,-4.6106312E-2,-2.593266E-2,1.0083454E-1,-2.8220395E-2],"split_indices":[2979,2270,2431,4969,4211,0,119,4127,2612,2248,3844,0,42,3065,1473,0,3768,0,0,211,0,1150,0,0,0,0,632,119,698,0,1803,4394,2742,0,0,0,0,0,0,0,0,0,0,0,0],"split_type":[0,0,0,0,0,0,0,0,0,0,0,0,0,0,0,0,0,0,0,0,0,0,0,0,0,0,0,0,0,0,0,0,0,0,0,0,0,0,0,0,0,0,0,0,0],"sum_hessian":[1.2131635E3,5.085192E2,7.046443E2,4.9412134E2,1.4397867E1,1.4031482E0,7.0324115E2,1.2437152E1,4.8168417E2,5.59784E0,8.800028E0,2.0296638E0,7.012115E2,6.21906E0,6.218092E0,2.13543E0,4.7954874E2,1.5872184E0,4.0106215E0,7.2158866E0,1.5841408E0,6.998919E2,1.3195803E0,1.2693936E0,4.9496665E0,1.5355644E0,4.6825275E0,4.5044968E2,2.9099066E1,1.2491947E0,5.966692E0,6.8470905E2,1.5182881E1,1.276052E0,3.4064755E0,4.4817938E2,2.270301E0,1.1905478E1,1.7193588E1,4.6684747E0,1.2982173E0,6.3081146E2,5.3897552E1,1.9537805E0,1.32291E1],"tree_param":{"num_deleted":"0","num_feature":"5000","num_nodes":"45","size_leaf_vector":"1"}},{"base_weights":[-1.1279367E-1,2.2367229E-1,-4.455744E-1,4.7333762E-1,-7.0123345E-2,1.0315638E0,-4.6912548E-1,5.518589E-1,-4.7809187E-1,-1.1286003E-1,1.0133111E0,3.587177E-2,1.1127624E-1,-5.0252867E-1,1.5108025E-1,5.0458837E-1,1.3402906E-1,-5.495442E-1,5.0552316E-2,6.4354044E-1,-1.5841302E-1,1.1820618E-1,6.509512E-1,3.1799033E-2,-2.9110849E-2,-5.1637775E-1,1.0417651E0,-3.752677E-1,5.562445E-1,8.184861E-1,3.6567843E-1,1.3798565E-2,-4.646676E-2,1.1498201E0,-2.3380065E-1,1.0950747E0,-1.844318E-1,5.6162942E-2,1.1200452E-2,1.1130824E-1,-5.2292943E-1,2.0767761E-2,1.0758212E-1,-5.005854E-1,5.3702496E-2,-3.5814333E-1,9.309583E-1,-4.1650403E-2,7.069228E-2,9.247115E-2,2.3602964E-2,1.8179819E-2,1.4065674E-1,-3.9846987E-2,3.1168168E-2,-2.7191872E-2,1.2612654E-1,9.86927E-2,-1.586435E-2,6.145533E-2,-4.192223E-2,-4.4970207E-2,1.4238818E-2,8.271757E-3,-3.9099183E-2,1.04145795E-1,-5.5265087E-3],"categories":[],"categories_nodes":[],"categories_segments":[],"categories_sizes":[],"default_left":[1,1,0,1,1,0,1,1,1,0,0,0,0,1,0,0,0,0,0,0,0,0,0,0,0,0,0,1,0,0,0,0,0,0,0,0,0,0,0,0,0,0,0,1,0,1,0,0,0,0,0,0,0,0,0,0,0,0,0,0,0,0,0,0,0,0,0],"id":19,"left_children":[1,3,5,7,9,11,13,15,17,19,21,23,-1,25,27,29,-1,31,-1,33,35,-1,37,-1,-1,39,41,43,45,47,49,-1,-1,51,53,55,57,-1,-1,-1,59,-1,-1,61,-1,63,65,-1,-1,-1,-1,-1,-1,-1,-1,-1,-1,-1,-1,-1,-1,-1,-1,-1,-1,-1,-1],"loss_changes":[1.4174268E2,4.622136E1,2.262053E1,2.5704765E1,1.3549009E1,3.7789974E0,1.3065933E1,1.61296E1,2.464448E0,9.751057E0,9.5776844E-1,7.133066E-1,0E0,1.3267792E1,7.206469E0,1.2953056E1,0E0,7.864189E-1,0E0,7.4221077E0,8.842604E0,0E0,1.398313E-1,0E0,0E0,8.17099E0,1.0312676E0,2.302213E0,6.8242846E0,9.676262E0,1.1181503E1,0E0,0E0,5.5739956E0,1.3340037E0,4.504667E0,6.163604E0,0E0,0E0,0E0,5.3032074E0,0E0,0E0,7.3613715E-1,0E0,4.420783E-1,5.362488E0,0E0,0E0,0E0,0E0,0E0,0E0,0E0,0E0,0E0,0E0,0E0,0E0,0E0,0E0,0E0,0E0,0E0,0E0,0E0,0E0],"parents":[2147483647,0,0,1,1,2,2,3,3,4,4,5,5,6,6,7,7,8,8,9,9,10,10,11,11,13,13,14,14,15,15,17,17,19,19,20,20,22,22,25,25,26,26,27,27,28,28,29,29,30,30,33,33,34,34,35,35,36,36,40,40,43,43,45,45,46,46],"right_children":[2,4,6,8,10,12,14,16,18,20,22,24,-1,26,28,30,-1,32,-1,34,36,-1,38,-1,-1,40,42,44,46,48,50,-1,-1,52,54,56,58,-1,-1,-1,60,-1,-1,62,-1,64,66,-1,-1,-1,-1,-1,-1,-1,-1,-1,-1,-1,-1,-1,-1,-1,-1,-1,-1,-1,-1],"split_conditions":[3.9948847E-2,4.0179472E-2,1.9676875E-1,4.3874115E-2,1.3264707E-1,1.6039361E-1,1.061103E-1,1.2232042E-1,1.0956151E-1,1.5623161E-1,4.7012053E-2,4.975989E-1,1.1127624E-1,1.40382E-1,5.4907497E-2,8.593563E-2,1.3402906E-1,1.2616292E-1,5.0552316E-2,3.8809318E-2,1.4267848E-1,1.1820618E-1,1.0298908E-1,3.1799033E-2,-2.9110849E-2,4.1742164E-1,4.1831765E-2,1.04639895E-1,9.4330974E-2,3.7124343E-2,1.01463795E-1,1.3798565E-2,-4.646676E-2,6.158028E-2,3.200294E-2,2.842806E-2,1.5599321E-1,5.6162942E-2,1.1200452E-2,1.1130824E-1,1.257738E-1,2.0767761E-2,1.0758212E-1,9.5992535E-2,5.3702496E-2,3.486186E-2,7.589231E-2,-4.1650403E-2,7.069228E-2,9.247115E-2,2.3602964E-2,1.8179819E-2,1.4065674E-1,-3.9846987E-2,3.1168168E-2,-2.7191872E-2,1.2612654E-1,9.86927E-2,-1.586435E-2,6.145533E-2,-4.192223E-2,-4.4970207E-2,1.4238818E-2,8.271757E-3,-3.9099183E-2,1.04145795E-1,-5.5265087E-3],"split_indices":[912,4983,2418,4405,523,58,2285,2418,2994,43,156,562,0,489,3668,4716,0,3967,0,1080,489,0,139,0,0,1331,1080,175,1192,4462,2994,0,0,632,1093,292,3816,0,0,0,3768,0,0,3608,0,2008,1265,0,0,0,0,0,0,0,0,0,0,0,0,0,0,0,0,0,0,0,0],"split_type":[0,0,0,0,0,0,0,0,0,0,0,0,0,0,0,0,0,0,0,0,0,0,0,0,0,0,0,0,0,0,0,0,0,0,0,0,0,0,0,0,0,0,0,0,0,0,0,0,0,0,0,0,0,0,0,0,0,0,0,0,0,0,0,0,0,0,0],"sum_hessian":[1.2640155E3,6.286906E2,6.353249E2,3.3954053E2,2.891501E2,9.298772E0,6.260261E2,3.140426E2,2.5497908E1,2.7903906E2,1.0111024E1,2.8352559E0,6.4635158E0,5.942126E2,3.181354E1,3.029287E2,1.1113891E1,2.4441317E1,1.0565896E0,1.5104464E1,2.639346E2,3.010735E0,7.100289E0,1.4898181E0,1.3454376E0,5.895908E2,4.6217723E0,1.3869496E1,1.7944044E1,9.143007E1,2.1149866E2,1.0133805E0,2.3427937E1,9.380669E0,5.7237945E0,4.5315924E0,2.59403E2,6.0210915E0,1.0791974E0,1.2777609E0,5.8831305E2,1.8629398E0,2.7588322E0,1.2863811E1,1.0056854E0,5.2287974E0,1.2715247E1,4.457306E0,8.697276E1,1.5192205E1,1.9630644E2,4.3515744E0,5.0290937E0,4.143143E0,1.5806513E0,1.2440401E0,3.287552E0,1.9966068E0,2.574064E2,2.2912688E0,5.860218E2,1.1857714E1,1.0060966E0,1.2368256E0,3.991972E0,8.962178E0,3.7530684E0],"tree_param":{"num_deleted":"0","num_feature":"5000","num_nodes":"67","size_leaf_vector":"1"}},{"base_weights":[9.5717233E-1,4.9076426E-1,1.2243903E0,3.3141363E-1,8.301623E-1,6.819908E-1,1.2850468E0,5.849107E-1,1.464586E-1,1.2143297E0,6.4961195E-1,4.6298563E-1,1.1799496E0,2.5343433E-1,1.3104681E0,8.152913E-1,2.8772563E-1,7.3290795E-1,3.5371438E-2,1.2938576E0,-2.546006E-1,8.378497E-1,1.4260523E-1,-2.098114E-1,7.613037E-1,1.2684143E0,-3.1827416E-2,9.882443E-1,-3.711788E-1,1.3286403E0,-1.2857829E-1,3.7187657E-1,1.0462557E0,7.153214E-2,8.173679E-1,1.0022286E0,1.1833435E-2,-1.7567615E-1,2.965731E-1,5.634054E-2,1.3815597E0,-3.4705833E-2,9.302348E-3,9.3063426E-1,-3.4321976E-1,-1.1515582E-1,8.570959E-1,-3.4381676E-1,7.030517E-2,9.885802E-1,2.622643E-1,1.4002604E0,1.4942814E-1,9.938992E-2,-1.2537222E-1,3.6819765E-1,-4.507711E-2,1.3360052E0,-2.1252638E-1,6.495691E-1,-4.3112136E-2,6.846783E-2,-5.355525E-4,7.596562E-3,8.919211E-2,1.1109776E-1,-5.684381E-3,8.935284E-2,-7.0622317E-3,1.8337693E-2,1.007081E-1,-3.4023587E-2,6.0087208E-2,1.1775301E-1,-1.8499909E-2,4.2510867E-2,-1.6107375E-2,7.103648E-2,-3.8763717E-2,1.1280352E-1,-2.7829442E-2,-3.9145272E-2,7.874863E-2,-4.5742568E-2,4.182759E-2,-2.2410845E-2,8.364716E-2,-1.0965374E-2,9.0527244E-2,5.3825513E-2,-3.3426575E-2,3.0086497E-2,1.053352E-1,8.1996836E-2,-8.954236E-3,5.5864295E-3,1.1543227E-1,-3.3491213E-2,5.5458054E-2,-2.744761E-2,1.3028349E-2,-2.9401256E-2,7.910066E-2,1.06597275E-1,1.8494165E-2,-4.3157976E-2,3.6376413E-2,7.748981E-2,1.1820228E-2],"categories":[],"categories_nodes":[],"categories_segments":[],"categories_sizes":[],"default_left":[1,1,0,0,1,1,0,1,0,1,1,0,1,0,1,0,1,1,1,0,0,1,1,1,1,0,0,0,0,1,0,0,0,0,1,0,1,0,1,1,1,0,0,0,0,1,0,0,0,0,0,0,0,0,0,0,0,1,0,1,0,0,0,0,0,0,0,0,0,0,0,0,0,0,0,0,0,0,0,0,0,0,0,0,0,0,0,0,0,0,0,0,0,0,0,0,0,0,0,0,0,0,0,0,0,0,0,0,0],"id":20,"left_children":[1,3,5,7,9,11,13,15,17,19,21,23,25,27,29,31,33,35,37,39,41,43,45,47,49,51,-1,53,55,57,59,61,63,65,67,69,71,73,75,77,79,-1,-1,81,83,85,87,89,-1,91,93,95,97,-1,99,101,-1,103,105,107,-1,-1,-1,-1,-1,-1,-1,-1,-1,-1,-1,-1,-1,-1,-1,-1,-1,-1,-1,-1,-1,-1,-1,-1,-1,-1,-1,-1,-1,-1,-1,-1,-1,-1,-1,-1,-1,-1,-1,-1,-1,-1,-1,-1,-1,-1,-1,-1,-1],"loss_changes":[2.1001538E2,3.310518E1,3.4448242E1,1.9684551E1,1.2842926E1,1.1463474E1,2.4963745E1,1.1920914E1,1.5943436E1,7.535446E0,1.2845505E1,1.5841402E1,5.126625E0,1.1582856E1,2.4782104E1,9.797569E0,8.996067E0,7.5595284E0,1.147093E1,6.2909546E0,3.249617E-1,1.1153183E1,7.09448E0,3.9504237E0,5.9047127E0,4.436081E0,0E0,3.5729494E0,2.2495146E0,1.0833984E1,4.445629E0,6.6492724E0,4.8165665E0,1.1022211E1,6.532217E0,5.5952854E0,4.154737E0,1.1437425E1,1.1269543E1,2.698907E0,4.5547028E0,0E0,0E0,8.831177E0,1.9245361E0,5.959031E0,3.05862E0,2.1131496E0,0E0,7.1797066E0,5.4461203E0,2.0312042E0,1.6951646E0,0E0,2.5777352E-1,2.0262098E0,0E0,9.804443E0,1.4301344E0,6.5365505E-1,0E0,0E0,0E0,0E0,0E0,0E0,0E0,0E0,0E0,0E0,0E0,0E0,0E0,0E0,0E0,0E0,0E0,0E0,0E0,0E0,0E0,0E0,0E0,0E0,0E0,0E0,0E0,0E0,0E0,0E0,0E0,0E0,0E0,0E0,0E0,0E0,0E0,0E0,0E0,0E0,0E0,0E0,0E0,0E0,0E0,0E0,0E0,0E0,0E0],"parents":[2147483647,0,0,1,1,2,2,3,3,4,4,5,5,6,6,7,7,8,8,9,9,10,10,11,11,12,12,13,13,14,14,15,15,16,16,17,17,18,18,19,19,20,20,21,21,22,22,23,23,24,24,25,25,27,27,28,28,29,29,30,30,31,31,32,32,33,33,34,34,35,35,36,36,37,37,38,38,39,39,40,40,43,43,44,44,45,45,46,46,47,47,49,49,50,50,51,51,52,52,54,54,55,55,57,57,58,58,59,59],"right_children":[2,4,6,8,10,12,14,16,18,20,22,24,26,28,30,32,34,36,38,40,42,44,46,48,50,52,-1,54,56,58,60,62,64,66,68,70,72,74,76,78,80,-1,-1,82,84,86,88,90,-1,92,94,96,98,-1,100,102,-1,104,106,108,-1,-1,-1,-1,-1,-1,-1,-1,-1,-1,-1,-1,-1,-1,-1,-1,-1,-1,-1,-1,-1,-1,-1,-1,-1,-1,-1,-1,-1,-1,-1,-1,-1,-1,-1,-1,-1,-1,-1,-1,-1,-1,-1,-1,-1,-1,-1,-1,-1],"split_conditions":[3.383793E-2,4.3118697E-2,9.8272026E-2,5.5945218E-2,6.969527E-2,5.1774684E-2,4.0747398E-1,3.138812E-2,9.211035E-2,1.08419664E-1,5.494289E-2,6.8416506E-2,1.2663428E-1,4.5645535E-2,1.2711026E-1,4.2605467E-2,4.8981886E-2,6.3130006E-2,4.0709853E-2,4.0273927E-2,5.8267698E-2,9.1802664E-2,7.483189E-2,1.4422905E-1,4.7893044E-2,3.7301496E-2,-3.1827416E-2,4.137399E-2,4.96691E-2,1.3537152E-1,7.958246E-2,2.6294932E-2,1.1737269E-1,9.1795795E-2,5.6782436E-2,2.970895E-2,3.8876913E-2,1.3304865E-1,3.9468102E-2,2.7441727E-2,1.3411959E-1,-3.4705833E-2,9.302348E-3,1.3127142E-1,5.8867738E-2,9.179584E-2,5.3952273E-2,1.013426E-1,7.030517E-2,3.389351E-2,7.542248E-2,1.3424832E-1,5.7227276E-2,9.938992E-2,5.7700373E-2,5.1109675E-2,-4.507711E-2,1.3953178E-1,4.8601285E-2,7.8678735E-2,-4.3112136E-2,6.846783E-2,-5.355525E-4,7.596562E-3,8.919211E-2,1.1109776E-1,-5.684381E-3,8.935284E-2,-7.0622317E-3,1.8337693E-2,1.007081E-1,-3.4023587E-2,6.0087208E-2,1.1775301E-1,-1.8499909E-2,4.2510867E-2,-1.6107375E-2,7.103648E-2,-3.8763717E-2,1.1280352E-1,-2.7829442E-2,-3.9145272E-2,7.874863E-2,-4.5742568E-2,4.182759E-2,-2.2410845E-2,8.364716E-2,-1.0965374E-2,9.0527244E-2,5.3825513E-2,-3.3426575E-2,3.0086497E-2,1.053352E-1,8.1996836E-2,-8.954236E-3,5.5864295E-3,1.1543227E-1,-3.3491213E-2,5.5458054E-2,-2.744761E-2,1.3028349E-2,-2.9401256E-2,7.910066E-2,1.06597275E-1,1.8494165E-2,-4.3157976E-2,3.6376413E-2,7.748981E-2,1.1820228E-2],"split_indices":[2979,1638,3967,212,4968,1192,2788,2224,2417,1710,1801,1801,1155,4464,2418,1461,1692,768,3734,3167,54,3545,3110,1255,1265,3645,0,3445,1135,3966,4405,4422,1433,316,2959,2549,3734,58,345,292,1201,0,0,959,212,1399,1461,175,0,3248,3461,1607,422,0,899,1788,0,2285,422,1147,0,0,0,0,0,0,0,0,0,0,0,0,0,0,0,0,0,0,0,0,0,0,0,0,0,0,0,0,0,0,0,0,0,0,0,0,0,0,0,0,0,0,0,0,0,0,0,0,0],"split_type":[0,0,0,0,0,0,0,0,0,0,0,0,0,0,0,0,0,0,0,0,0,0,0,0,0,0,0,0,0,0,0,0,0,0,0,0,0,0,0,0,0,0,0,0,0,0,0,0,0,0,0,0,0,0,0,0,0,0,0,0,0,0,0,0,0,0,0,0,0,0,0,0,0,0,0,0,0,0,0,0,0,0,0,0,0,0,0,0,0,0,0,0,0,0,0,0,0,0,0,0,0,0,0,0,0,0,0,0,0],"sum_hessian":[1.688897E3,6.1620166E2,1.0726953E3,4.2066968E2,1.95532E2,1.09125275E2,9.6357007E2,1.7654153E2,2.4412813E2,6.068444E1,1.3484756E2,7.713196E1,3.1993313E1,2.3437313E1,9.4013275E2,9.846624E1,7.80753E1,3.798752E1,2.0614061E2,5.7680786E1,3.0036528E0,9.786167E1,3.6985893E1,2.3785406E1,5.3346558E1,3.0486446E1,1.506866E0,1.0501236E1,1.2936077E1,9.2848456E2,1.164818E1,3.4617092E1,6.3849148E1,5.6249855E1,2.1825445E1,2.7373596E1,1.0613922E1,1.1419774E2,9.194287E1,3.925971E0,5.3754818E1,1.8921181E0,1.1115348E0,9.0930244E1,6.931425E0,2.779672E1,9.189172E0,2.1809223E1,1.9761826E0,3.5979515E1,1.736704E1,2.7048101E1,3.4383454E0,8.369978E0,2.1312573E0,2.550608E0,1.03854685E1,9.242012E2,4.2834024E0,3.8605158E0,7.787664E0,1.4486589E1,2.01305E1,5.1228867E0,5.872626E1,4.6126266E0,5.163723E1,1.6070759E1,5.7546864E0,7.5705786E0,1.9803017E1,6.9379916E0,3.67593E0,3.0134027E0,1.1118433E2,6.2056656E1,2.9886217E1,1.2922835E0,2.6336875E0,5.2635166E1,1.1196501E0,3.5998738E0,8.733037E1,5.7280903E0,1.2033346E0,2.4976795E1,2.819926E0,2.1653886E0,7.0237827E0,1.0029223E0,2.0806301E1,1.3687938E1,2.2291576E1,5.1013575E0,1.2265684E1,1.2079711E0,2.584013E1,1.8001752E0,1.6381702E0,1.0979174E0,1.0333399E0,1.3632386E0,1.1873692E0,9.157407E2,8.460443E0,2.991963E0,1.2914395E0,1.7528856E0,2.1076303E0],"tree_param":{"num_deleted":"0","num_feature":"5000","num_nodes":"109","size_leaf_vector":"1"}},{"base_weights":[-4.6591628E-1,-5.3311E-1,-3.2992876E-1,-5.369248E-1,8.3950646E-2,-3.4336838E-1,9.837525E-2,3.884956E-1,-5.430845E-1,-3.5838172E-1,6.289274E-1,1.3174827E-1,-3.645911E-2,-5.468758E-1,5.3189788E-2,-3.731485E-1,4.745457E-1,1.0174807E0,-2.8632428E-2,-5.505542E-1,4.93866E-2,1.5853317E-1,-3.9678246E-1,1.2768629E-1,-2.9396862E-1,1.15649775E-1,3.0919083E-3,-1.4830275E-2,-4.4539228E-2,-4.3105092E-2,8.1211016E-2,-3.204481E-2,8.286934E-2,-3.617887E-2,9.6569555E-3],"categories":[],"categories_nodes":[],"categories_segments":[],"categories_sizes":[],"default_left":[1,1,1,0,0,0,0,0,1,1,0,0,0,1,0,0,0,0,0,0,0,1,1,0,1,0,0,0,0,0,0,0,0,0,0],"id":21,"left_children":[1,3,5,7,-1,9,-1,11,13,15,17,-1,-1,19,-1,21,23,25,-1,27,-1,29,31,-1,33,-1,-1,-1,-1,-1,-1,-1,-1,-1,-1],"loss_changes":[1.0289871E1,5.2179413E0,8.484695E0,4.5648956E0,0E0,5.7571754E0,0E0,6.8624973E0,3.8633423E0,4.7750587E0,2.7251952E0,0E0,0E0,3.6039734E0,0E0,4.685562E0,6.5523567E0,1.9624491E0,0E0,3.1362152E0,0E0,1.05317335E1,4.403328E0,0E0,3.9398295E-1,0E0,0E0,0E0,0E0,0E0,0E0,0E0,0E0,0E0,0E0],"parents":[2147483647,0,0,1,1,2,2,3,3,5,5,7,7,8,8,9,9,10,10,13,13,15,15,16,16,17,17,19,19,21,21,22,22,24,24],"right_children":[2,4,6,8,-1,10,-1,12,14,16,18,-1,-1,20,-1,22,24,26,-1,28,-1,30,32,-1,34,-1,-1,-1,-1,-1,-1,-1,-1,-1,-1],"split_conditions":[4.4321407E-2,1.5210848E-1,1.567692E-1,1.4083776E-1,8.3950646E-2,4.6584498E-2,9.837525E-2,1.1380277E-1,1.5140422E-1,1.3026826E-1,5.9181266E-2,1.3174827E-1,-3.645911E-2,1.441397E-1,5.3189788E-2,9.5197864E-2,7.67073E-2,4.9677704E-2,-2.8632428E-2,9.399597E-2,4.93866E-2,2.6236631E-2,1.794714E-1,1.2768629E-1,7.489877E-2,1.15649775E-1,3.0919083E-3,-1.4830275E-2,-4.4539228E-2,-4.3105092E-2,8.1211016E-2,-3.204481E-2,8.286934E-2,-3.617887E-2,9.6569555E-3],"split_indices":[4691,865,3995,1541,0,2603,0,2155,957,1443,1005,0,0,4337,0,1414,1722,307,0,4394,0,95,3542,0,4211,0,0,0,0,0,0,0,0,0,0],"split_type":[0,0,0,0,0,0,0,0,0,0,0,0,0,0,0,0,0,0,0,0,0,0,0,0,0,0,0,0,0,0,0,0,0,0,0],"sum_hessian":[1.1443643E3,7.639588E2,3.8040546E2,7.627952E2,1.1635709E0,3.7795584E2,2.4496257E0,4.633315E0,7.581619E2,3.7283032E2,5.1255174E0,1.4682354E0,3.1650798E0,7.5635095E2,1.8109751E0,3.6687802E2,5.9522963E0,3.6617267E0,1.4637908E0,7.5450934E2,1.8416013E0,1.5371222E1,3.515068E2,1.9571917E0,3.9951043E0,2.1819832E0,1.4797435E0,2.4285084E1,7.302243E2,8.694482E0,6.676739E0,3.5032718E2,1.1796403E0,2.8003473E0,1.1947571E0],"tree_param":{"num_deleted":"0","num_feature":"5000","num_nodes":"35","size_leaf_vector":"1"}},{"base_weights":[-4.0949392E-1,-2.993038E-1,-5.8646005E-1,9.62329E-2,-3.075635E-1,-5.9083444E-1,-4.8380323E-2,-3.6973917E-1,-1.2141397E-1,1.1311186E-2,-5.930602E-1,4.7768906E-2,-3.4206755E-2,-3.798362E-1,1.0989844E-1,-2.945795E-1,1.3371362E-1,1.0878698E-2,-4.714711E-2,9.662735E-2,-3.8654E-1,-3.4113157E-1,8.717967E-1,1.3939891E0,3.705631E-2,-3.114002E-2,7.546054E-2,7.643664E-2,-2.9032612E-2,1.284569E-1,-2.8983455E-2,1.4559749E-1,2.4906963E-2,-2.415137E-3,7.4956134E-2],"categories":[],"categories_nodes":[],"categories_segments":[],"categories_sizes":[],"default_left":[1,0,1,0,0,0,0,1,0,0,0,0,0,0,0,1,0,0,0,0,1,0,1,1,1,0,0,0,0,0,0,0,0,0,0],"id":22,"left_children":[1,3,5,-1,7,9,11,13,15,-1,17,-1,-1,19,-1,21,23,-1,-1,-1,25,27,29,31,33,-1,-1,-1,-1,-1,-1,-1,-1,-1,-1],"loss_changes":[2.2562424E1,9.387726E0,1.0221405E0,0E0,8.25985E0,8.076172E-1,1.4321698E0,1.0062492E1,8.042282E0,0E0,8.0152893E-1,0E0,0E0,6.2107315E0,0E0,6.1733246E0,8.953848E0,0E0,0E0,0E0,5.1217575E0,3.8360615E0,4.71101E0,1.9348564E0,4.309697E0,0E0,0E0,0E0,0E0,0E0,0E0,0E0,0E0,0E0,0E0],"parents":[2147483647,0,0,1,1,2,2,4,4,5,5,6,6,7,7,8,8,10,10,13,13,15,15,16,16,20,20,21,21,22,22,23,23,24,24],"right_children":[2,4,6,-1,8,10,12,14,16,-1,18,-1,-1,20,-1,22,24,-1,-1,-1,26,28,30,32,34,-1,-1,-1,-1,-1,-1,-1,-1,-1,-1],"split_conditions":[4.2296536E-2,2.6459315E-1,1.35984E-1,9.62329E-2,4.9856763E-2,2.2973776E-1,9.264355E-2,1.467457E-1,2.951935E-2,1.1311186E-2,5.319851E-1,4.7768906E-2,-3.4206755E-2,1.5190645E-1,1.0989844E-1,1.2799726E-1,7.500996E-2,1.0878698E-2,-4.714711E-2,9.662735E-2,1.6279939E-1,1.0620978E-1,5.8224782E-2,3.9463993E-2,1.3438705E-1,-3.114002E-2,7.546054E-2,7.643664E-2,-2.9032612E-2,1.284569E-1,-2.8983455E-2,1.4559749E-1,2.4906963E-2,-2.415137E-3,7.4956134E-2],"split_indices":[4405,403,4152,0,698,1579,2844,103,595,0,1258,0,0,1208,0,232,4968,0,0,0,112,793,1132,2313,551,0,0,0,0,0,0,0,0,0,0],"split_type":[0,0,0,0,0,0,0,0,0,0,0,0,0,0,0,0,0,0,0,0,0,0,0,0,0,0,0,0,0,0,0,0,0,0,0],"sum_hessian":[1.1650536E3,7.196476E2,4.4540604E2,3.1112533E0,7.165363E2,4.4171698E2,3.6890411E0,5.363906E2,1.801457E2,1.1449596E0,4.4057202E2,1.1547437E0,2.5342975E0,5.341057E2,2.2849011E0,1.07217896E2,7.292781E1,1.1575389E0,4.394145E2,1.4734322E0,5.3263226E2,1.03783264E2,3.434636E0,4.2387323E0,6.868908E1,5.307068E2,1.9254894E0,1.2771574E0,1.025061E2,1.9453043E0,1.4893318E0,2.5047388E0,1.7339936E0,6.483907E1,3.8500104E0],"tree_param":{"num_deleted":"0","num_feature":"5000","num_nodes":"35","size_leaf_vector":"1"}},{"base_weights":[-4.054353E-1,-2.6373667E-1,-5.431207E-1,-2.772097E-1,9.0338916E-1,-1.6157287E-1,-5.639822E-1,3.8231695E-1,-2.9374415E-1,-3.0431677E-2,1.3643236E0,-2.8629944E-1,8.344032E-1,4.5994988E-1,-5.690325E-1,-3.9292138E-2,7.9089236E-1,-3.067471E-1,5.334981E-1,3.7761807E-2,1.2286195E-1,7.5233513E-1,-4.0335298E-1,2.5832667E-3,1.0505162E-1,-2.8349508E-2,9.271729E-2,3.4213364E-1,-5.7411206E-1,1.0862135E0,-3.1102547E-2,-3.1316355E-1,1.048545E-1,1.1805463E-1,-7.2810404E-2,7.5466596E-3,8.719271E-2,4.80299E-1,-5.0333405E-1,-2.9300587E-2,8.448999E-2,-5.776284E-1,3.821655E-2,1.0868092E-1,-2.6928801E-2,-2.5304865E-2,9.8387085E-2,-3.9483655E-2,6.675673E-2,8.973573E-2,-2.6808234E-2,-4.5918196E-2,1.5149215E-2,-4.6007138E-2,4.3969057E-3],"categories":[],"categories_nodes":[],"categories_segments":[],"categories_sizes":[],"default_left":[1,1,0,0,0,0,0,0,1,0,0,0,0,0,0,0,0,1,1,0,0,0,0,0,0,0,0,0,1,1,0,1,0,0,1,0,0,1,0,0,0,1,0,0,0,0,0,0,0,0,0,0,0,0,0],"id":23,"left_children":[1,3,5,7,9,11,13,15,17,-1,19,21,23,25,27,-1,29,31,33,-1,-1,35,37,-1,-1,-1,-1,39,41,43,-1,45,-1,-1,47,-1,-1,49,51,-1,-1,53,-1,-1,-1,-1,-1,-1,-1,-1,-1,-1,-1,-1,-1],"loss_changes":[2.2802261E1,9.395081E0,4.6492767E0,6.3899918E0,4.602498E0,4.2483416E0,3.1797028E0,5.6014457E0,6.210598E0,0E0,1.3647366E-1,3.881224E0,1.4745295E0,2.3504164E0,2.7973175E0,0E0,4.0239506E0,6.212143E0,5.368669E0,0E0,0E0,6.577078E-1,2.6358733E0,0E0,0E0,0E0,0E0,2.3256261E0,2.3564758E0,3.9348354E0,0E0,5.849636E0,0E0,0E0,2.9551528E0,0E0,0E0,2.1290889E0,1.4294271E0,0E0,0E0,1.1870728E0,0E0,0E0,0E0,0E0,0E0,0E0,0E0,0E0,0E0,0E0,0E0,0E0,0E0],"parents":[2147483647,0,0,1,1,2,2,3,3,4,4,5,5,6,6,7,7,8,8,10,10,11,11,12,12,13,13,14,14,16,16,17,17,18,18,21,21,22,22,27,27,28,28,29,29,31,31,34,34,37,37,38,38,41,41],"right_children":[2,4,6,8,10,12,14,16,18,-1,20,22,24,26,28,-1,30,32,34,-1,-1,36,38,-1,-1,-1,-1,40,42,44,-1,46,-1,-1,48,-1,-1,50,52,-1,-1,54,-1,-1,-1,-1,-1,-1,-1,-1,-1,-1,-1,-1,-1],"split_conditions":[3.9715253E-2,1.3468325E-1,1.2108458E-1,1.10210836E-1,4.9000476E-2,3.9901536E-2,1.8159406E-1,3.649801E-2,1.3326073E-1,-3.0431677E-2,5.018701E-2,1.0513959E-1,4.3991625E-2,6.7883916E-2,1.4738235E-1,-3.9292138E-2,2.5023066E-2,1.831095E-1,2.518183E-2,3.7761807E-2,1.2286195E-1,3.756954E-2,1.15652E-1,2.5832667E-3,1.0505162E-1,-2.8349508E-2,9.271729E-2,4.5459058E-2,1.9270423E-1,6.521517E-2,-3.1102547E-2,1.9139136E-1,1.048545E-1,1.1805463E-1,1.383061E-1,7.5466596E-3,8.719271E-2,3.566533E-2,3.955737E-2,-2.9300587E-2,8.448999E-2,1.8328282E-1,3.821655E-2,1.0868092E-1,-2.6928801E-2,-2.5304865E-2,9.8387085E-2,-3.9483655E-2,6.675673E-2,8.973573E-2,-2.6808234E-2,-4.5918196E-2,1.5149215E-2,-4.6007138E-2,4.3969057E-3],"split_indices":[2979,449,4394,3837,698,372,2202,3894,3090,0,1005,1546,88,1147,1627,0,1240,108,3437,0,0,88,1723,0,0,0,0,88,1720,953,0,618,0,0,119,0,0,88,1704,0,0,2994,0,0,0,0,0,0,0,0,0,0,0,0,0],"split_type":[0,0,0,0,0,0,0,0,0,0,0,0,0,0,0,0,0,0,0,0,0,0,0,0,0,0,0,0,0,0,0,0,0,0,0,0,0,0,0,0,0,0,0,0,0,0,0,0,0,0,0,0,0,0,0],"sum_hessian":[1.1750991E3,5.805466E2,5.9455255E2,5.746751E2,5.8714256E0,3.1275818E1,5.6327673E2,1.3513802E1,5.611613E2,1.5916157E0,4.27981E0,2.8428276E1,2.8475423E0,2.322517E0,5.609542E2,4.222104E0,9.2916975E0,5.530967E2,8.064638E0,1.3624269E0,2.9173832E0,2.32965E0,2.6098625E1,1.4883621E0,1.3591802E0,1.3106196E0,1.0118973E0,2.7420018E0,5.582122E2,7.5021205E0,1.7895776E0,5.5173364E2,1.3630294E0,2.5619678E0,5.5026703E0,1.2489114E0,1.0807385E0,2.2661412E0,2.3832485E1,1.6298724E0,1.1121293E0,5.5681256E2,1.3996215E0,6.280466E0,1.2216542E0,5.502844E2,1.4492297E0,4.0673003E0,1.4353698E0,1.0473876E0,1.2187536E0,2.16187E1,2.2137845E0,5.540338E2,2.778782E0],"tree_param":{"num_deleted":"0","num_feature":"5000","num_nodes":"55","size_leaf_vector":"1"}},{"base_weights":[-9.552628E-2,2.1545178E-1,-4.1437504E-1,4.3280503E-1,-5.967908E-2,-4.4630924E-1,1.0277658E0,8.073737E-1,2.7163428E-1,-1.02611825E-1,8.3641195E-1,4.301564E-2,-5.019919E-1,-1.2332583E-1,1.2625436E0,-4.1801475E-2,8.714113E-1,-3.7242442E-1,3.918754E-1,-1.24013826E-1,1.2798698E-1,-2.5501614E-2,9.619459E-1,-2.3775175E-1,6.801254E-1,-5.1372826E-1,9.4924563E-1,1.4172602E-2,-2.6946675E-2,1.0782434E-1,1.3204922E-2,2.492923E-1,1.0176845E0,-4.819848E-1,6.2102956E-1,3.4082338E-1,1.2035137E-1,6.5103036E-1,-1.6501537E-1,6.044606E-1,1.10685684E-1,1.0443247E-1,-3.1783518E-1,-3.8621213E-2,1.0197523E0,6.07524E-1,-5.2520967E-1,9.510504E-2,2.5575105E-2,5.36494E-2,-2.209799E-2,9.379321E-2,1.6922574E-2,3.8632765E-2,-4.4352364E-2,1.0019575E-1,-3.1134492E-2,9.909643E-2,2.2445671E-2,8.2496665E-2,-2.2544764E-2,1.0443827E-1,-1.480065E-2,5.2879103E-2,8.644588E-3,-3.0076433E-2,7.464117E-2,9.991626E-2,1.4371496E-3,6.935165E-2,-2.6343076E-2,-4.2295143E-2,7.347722E-2],"categories":[],"categories_nodes":[],"categories_segments":[],"categories_sizes":[],"default_left":[1,1,1,0,1,0,0,0,0,1,0,1,1,0,0,0,0,1,1,0,0,0,0,0,0,0,0,0,0,0,0,0,1,0,1,1,0,1,0,0,0,0,1,0,0,0,1,0,0,0,0,0,0,0,0,0,0,0,0,0,0,0,0,0,0,0,0,0,0,0,0,0,0],"id":24,"left_children":[1,3,5,7,9,11,13,15,17,19,21,23,25,27,29,-1,31,33,35,37,-1,-1,39,41,43,45,47,-1,-1,-1,-1,49,51,53,55,57,-1,59,61,63,-1,-1,65,-1,67,69,71,-1,-1,-1,-1,-1,-1,-1,-1,-1,-1,-1,-1,-1,-1,-1,-1,-1,-1,-1,-1,-1,-1,-1,-1,-1,-1],"loss_changes":[1.2447855E2,3.804365E1,2.900042E1,2.1229073E1,1.0913984E1,1.656105E1,3.8659678E0,9.555214E0,1.9499468E1,1.0112345E1,2.1969414E0,1.142032E1,9.771637E0,2.731091E-1,1.0181713E0,0E0,9.017761E0,4.634427E0,1.1634384E1,8.595165E0,0E0,0E0,1.017602E0,5.9565E0,8.235627E0,7.288269E0,3.5657787E-1,0E0,0E0,0E0,0E0,4.8750916E0,1.0751152E1,3.0299444E0,3.366794E0,1.0268784E1,0E0,5.2750473E0,8.50037E0,1.8793511E-1,0E0,0E0,3.7179866E0,0E0,3.716488E0,1.7913375E0,7.3694763E0,0E0,0E0,0E0,0E0,0E0,0E0,0E0,0E0,0E0,0E0,0E0,0E0,0E0,0E0,0E0,0E0,0E0,0E0,0E0,0E0,0E0,0E0,0E0,0E0,0E0,0E0],"parents":[2147483647,0,0,1,1,2,2,3,3,4,4,5,5,6,6,7,7,8,8,9,9,10,10,11,11,12,12,13,13,14,14,16,16,17,17,18,18,19,19,22,22,23,23,24,24,25,25,26,26,31,31,32,32,33,33,34,34,35,35,37,37,38,38,39,39,42,42,44,44,45,45,46,46],"right_children":[2,4,6,8,10,12,14,16,18,20,22,24,26,28,30,-1,32,34,36,38,-1,-1,40,42,44,46,48,-1,-1,-1,-1,50,52,54,56,58,-1,60,62,64,-1,-1,66,-1,68,70,72,-1,-1,-1,-1,-1,-1,-1,-1,-1,-1,-1,-1,-1,-1,-1,-1,-1,-1,-1,-1,-1,-1,-1,-1,-1,-1],"split_conditions":[3.9560113E-2,4.0372185E-2,1.2831001E-1,8.6297646E-2,1.3152975E-1,9.623629E-2,7.938866E-2,3.6213998E-2,6.3445434E-2,1.4082325E-1,4.3068554E-2,5.669448E-2,1.3992023E-1,5.9665266E-2,4.0195446E-2,-4.1801475E-2,1.0364662E-1,1.03950076E-1,1.268972E-1,1.5623161E-1,1.2798698E-1,-2.5501614E-2,6.761308E-2,1.1413117E-1,7.500245E-2,3.4806636E-1,5.1720425E-2,1.4172602E-2,-2.6946675E-2,1.0782434E-1,1.3204922E-2,3.8963214E-2,4.442316E-2,4.038096E-2,3.4743022E-2,1.9235544E-2,1.2035137E-1,7.980077E-2,1.4550413E-1,3.148134E-2,1.10685684E-1,1.0443247E-1,1.0343617E-1,-3.8621213E-2,3.9593272E-2,7.632746E-2,1.01946324E-1,9.510504E-2,2.5575105E-2,5.36494E-2,-2.209799E-2,9.379321E-2,1.6922574E-2,3.8632765E-2,-4.4352364E-2,1.0019575E-1,-3.1134492E-2,9.909643E-2,2.2445671E-2,8.2496665E-2,-2.2544764E-2,1.0443827E-1,-1.480065E-2,5.2879103E-2,8.644588E-3,-3.0076433E-2,7.464117E-2,9.991626E-2,1.4371496E-3,6.935165E-2,-2.6343076E-2,-4.2295143E-2,7.347722E-2],"split_indices":[2979,3734,2418,4716,3303,3967,1192,3734,579,1061,673,1801,545,1638,34,0,2417,1414,2418,43,0,0,422,3676,1192,489,156,0,0,0,0,345,422,4462,459,1223,0,1709,2788,34,0,0,1710,0,1335,1192,1411,0,0,0,0,0,0,0,0,0,0,0,0,0,0,0,0,0,0,0,0,0,0,0,0,0,0],"split_type":[0,0,0,0,0,0,0,0,0,0,0,0,0,0,0,0,0,0,0,0,0,0,0,0,0,0,0,0,0,0,0,0,0,0,0,0,0,0,0,0,0,0,0,0,0,0,0,0,0,0,0,0,0,0,0,0,0,0,0,0,0,0,0,0,0,0,0,0,0,0,0,0,0],"sum_hessian":[1.2534937E3,6.347432E2,6.187504E2,3.5428506E2,2.8045813E2,6.060214E2,1.2728971E1,1.0537621E2,2.4890886E2,2.6848044E2,1.19777155E1,6.1939625E1,5.440818E2,2.2368145E0,1.0492156E1,4.4913135E0,1.00884895E2,3.882886E1,2.1007999E2,2.6609457E2,2.3858595E0,1.0180831E0,1.0959632E1,4.3428143E1,1.8511484E1,5.4035785E2,3.7239385E0,1.0076418E0,1.2291727E0,9.401484E0,1.0906724E0,1.9719513E1,8.116538E1,3.5435764E1,3.3930974E0,2.0222731E2,7.8526855E0,1.2622162E1,2.534724E2,7.3309636E0,3.6286683E0,1.3684484E0,4.2059692E1,4.0725803E0,1.4438904E1,4.950877E0,5.35407E2,2.0023987E0,1.72154E0,1.0736941E1,8.982573E0,6.6843956E1,1.4321429E1,2.24751E0,3.3188255E1,1.923837E0,1.4692605E0,1.0764251E1,1.9146306E2,8.825015E0,3.797146E0,2.8192427E0,2.5065317E2,6.1927595E0,1.1382042E0,4.075601E1,1.3036844E0,1.1421805E1,3.0170984E0,3.9055922E0,1.045285E0,5.328051E2,2.6018682E0],"tree_param":{"num_deleted":"0","num_feature":"5000","num_nodes":"73","size_leaf_vector":"1"}},{"base_weights":[8.783641E-1,4.4171992E-1,1.1228153E0,2.9073086E-1,7.510339E-1,1.1524427E0,4.6607742E-1,7.077522E-1,2.0329474E-1,9.1423696E-1,3.1745815E-1,1.2002845E0,7.376438E-1,-1.8218282E-1,7.3076004E-1,-4.0387377E-2,7.94006E-1,2.5800997E-1,-5.2019536E-1,1.0276077E0,3.232259E-1,6.039327E-1,-1.4709987E-1,-4.1386995E-2,1.210774E0,8.814224E-1,3.4707587E-2,4.6368903E-1,-4.3622342E-1,1.0736866E0,3.6805272E-1,8.6728173E-1,-3.872157E-2,8.108432E-2,5.4756874E-1,-4.7344618E-2,5.051246E-2,-3.713218E-2,1.0697438E0,-1.578485E-1,6.55E-1,7.3132616E-1,-4.0013433E-2,-4.6512842E-2,2.987656E-1,-2.784224E-1,1.2161772E0,2.9692212E-1,1.0566939E0,-4.6354437E-1,3.3726928E-1,-3.161408E-2,7.000588E-2,-4.7100835E-2,3.605312E-2,-3.2814514E-2,1.2161562E0,6.985852E-1,-2.1761437E-1,-3.5394017E-2,7.312877E-2,-2.4651425E-2,2.0243643E-2,-4.51067E-2,4.8866015E-2,8.840952E-2,4.422219E-3,-4.5418683E-2,5.5157475E-2,-2.2870868E-2,7.505822E-2,8.540851E-2,2.3638299E-2,7.819132E-2,